<?xml version="1.0"?>
<opencv_storage>
<cascade>
  <stageType>BOOST</stageType>
  <featureType>LBP</featureType>
  <height>40</height>
  <width>30</width>
  <stageParams>
    <boostType>GAB</boostType>
    <minHitRate>9.9500000476837158e-001</minHitRate>
    <maxFalseAlarm>5.0000000000000000e-001</maxFalseAlarm>
    <weightTrimRate>9.4999999999999996e-001</weightTrimRate>
    <maxDepth>1</maxDepth>
    <maxWeakCount>100</maxWeakCount></stageParams>
  <featureParams>
    <maxCatCount>256</maxCatCount>
    <featSize>1</featSize></featureParams>
  <stageNum>17</stageNum>
  <stages>
    <!-- stage 0 -->
    <_>
      <maxWeakCount>5</maxWeakCount>
      <stageThreshold>-1.0695230960845947e+000</stageThreshold>
      <weakClassifiers>
        <_>
          <internalNodes>
            0 -1 53 -606281732 -2566192 -107946497 -8646188 -73877256
            -73885032 -1698365442 -74938216</internalNodes>
          <leafValues>
            -8.4624773263931274e-001 4.4947734475135803e-001</leafValues></_>
        <_>
          <internalNodes>
            0 -1 16 -1025 -136588321 -640886785 -36512293 -82576569
            -77358797 -10223753 -13370761</internalNodes>
          <leafValues>
            -7.5894016027450562e-001 5.6322973966598511e-001</leafValues></_>
        <_>
          <internalNodes>
            0 -1 99 -34608641 -1930833689 -2886659 -287321602
            -1700025601 -1999983881 -1114898949 -1996490561</internalNodes>
          <leafValues>
            -6.7618328332901001e-001 5.9462451934814453e-001</leafValues></_>
        <_>
          <internalNodes>
            0 -1 74 -71308288 -101589507 -33554995 -4097 -1074790913
            -537001985 -1434599505 -1</internalNodes>
          <leafValues>
            -6.0006678104400635e-001 6.6255992650985718e-001</leafValues></_>
        <_>
          <internalNodes>
            0 -1 56 -369309700 -2743921 -107941379 -511780 -1702823684
            -1727233800 -1148663042 -1079500512</internalNodes>
          <leafValues>
            -7.0541536808013916e-001 5.4928821325302124e-001</leafValues></_></weakClassifiers></_>
    <!-- stage 1 -->
    <_>
      <maxWeakCount>3</maxWeakCount>
      <stageThreshold>-1.0489341020584106e+000</stageThreshold>
      <weakClassifiers>
        <_>
          <internalNodes>
            0 -1 51 -6489091 -2567171 -6430753 -2239011 -1615265793
            -480264 -71499777 -1147666184</internalNodes>
          <leafValues>
            -7.7373141050338745e-001 7.0288425683975220e-001</leafValues></_>
        <_>
          <internalNodes>
            0 -1 64 -214368772 -2319940 -2490371 -42126116 -73859144
            -16992104 -1685537800 -1081573240</internalNodes>
          <leafValues>
            -7.5707745552062988e-001 6.0279017686843872e-001</leafValues></_>
        <_>
          <internalNodes>
            0 -1 39 -2293764 -2296068 -73532418 -67305732 -67109890
            -37421364 -4980756 -288043320</internalNodes>
          <leafValues>
            -8.4507554769515991e-001 4.8187476396560669e-001</leafValues></_></weakClassifiers></_>
    <!-- stage 2 -->
    <_>
      <maxWeakCount>5</maxWeakCount>
      <stageThreshold>-1.1826210021972656e+000</stageThreshold>
      <weakClassifiers>
        <_>
          <internalNodes>
            0 -1 4 -65538 -852098 -8193 -1376402 1307758071 1877471219
            -33563137 -513</internalNodes>
          <leafValues>
            -8.0770975351333618e-001 3.9675036072731018e-001</leafValues></_>
        <_>
          <internalNodes>
            0 -1 18 -1 -2099241 -67175457 -589857 -109576413 -143403406
            -8913037 -9177229</internalNodes>
          <leafValues>
            -7.1402335166931152e-001 5.1262670755386353e-001</leafValues></_>
        <_>
          <internalNodes>
            0 -1 98 -33558529 -452984833 -259 -994051585 -4212753
            -855703553 -33690116 -855638529</internalNodes>
          <leafValues>
            -6.2031328678131104e-001 5.8307403326034546e-001</leafValues></_>
        <_>
          <internalNodes>
            0 -1 82 -4195265 339205437 -1212154949 808975367 -1506020555
            892817425 -1438679201 813694335</internalNodes>
          <leafValues>
            -6.6469085216522217e-001 4.8415291309356689e-001</leafValues></_>
        <_>
          <internalNodes>
            0 -1 33 -1510232065 -20609 -18874369 -335564801 804222971
            2004875255 -1 649266434</internalNodes>
          <leafValues>
            -6.6707193851470947e-001 4.7527247667312622e-001</leafValues></_></weakClassifiers></_>
    <!-- stage 3 -->
    <_>
      <maxWeakCount>5</maxWeakCount>
      <stageThreshold>-1.0989829301834106e+000</stageThreshold>
      <weakClassifiers>
        <_>
          <internalNodes>
            0 -1 6 -957419521 -15361 -8388609 -5 1474232319 -2097153 -1
            -1025</internalNodes>
          <leafValues>
            -6.8602097034454346e-001 5.7565063238143921e-001</leafValues></_>
        <_>
          <internalNodes>
            0 -1 62 -71696387 -266610952 -172756483 -570427907
            -102253889 -1459963655 -88475395 -1996624644</internalNodes>
          <leafValues>
            -5.9354925155639648e-001 5.3702229261398315e-001</leafValues></_>
        <_>
          <internalNodes>
            0 -1 92 -176168414 -219678198 1084227650 1344461550
            -683539967 1346773251 1917313346 2003828731</internalNodes>
          <leafValues>
            -7.2851336002349854e-001 4.5551314949989319e-001</leafValues></_>
        <_>
          <internalNodes>
            0 -1 55 -1481097220 -253956 -614147075 -8577795 -285541123
            -1078150600 -1349190657 -1081292580</internalNodes>
          <leafValues>
            -5.9499269723892212e-001 5.6139189004898071e-001</leafValues></_>
        <_>
          <internalNodes>
            0 -1 77 -817891328 1772930828 990889935 1970130335
            -299340852 1552743804 185454476 150986639</internalNodes>
          <leafValues>
            -7.8286284208297729e-001 4.2603054642677307e-001</leafValues></_></weakClassifiers></_>
    <!-- stage 4 -->
    <_>
      <maxWeakCount>6</maxWeakCount>
      <stageThreshold>-1.6010807752609253e+000</stageThreshold>
      <weakClassifiers>
        <_>
          <internalNodes>
            0 -1 15 -1 -589825 -1 -26017794 -8913033 -143133833 -8913033
            -143132809</internalNodes>
          <leafValues>
            -8.2348203659057617e-001 2.9359006881713867e-001</leafValues></_>
        <_>
          <internalNodes>
            0 -1 23 -65537 -73762 -537135169 -596242 -262657 -513 -9
            -559369</internalNodes>
          <leafValues>
            -5.8445829153060913e-001 5.7618421316146851e-001</leafValues></_>
        <_>
          <internalNodes>
            0 -1 21 -536944649 -599297 -40181761 -852234 -222897161
            -563722 -729089 -9275658</internalNodes>
          <leafValues>
            -5.2968204021453857e-001 5.8129268884658813e-001</leafValues></_>
        <_>
          <internalNodes>
            0 -1 31 -2098664716 988806143 -1141396482 -1140856086 -257
            -1140850739 -13313 -1140874245</internalNodes>
          <leafValues>
            -6.2969148159027100e-001 4.6909043192863464e-001</leafValues></_>
        <_>
          <internalNodes>
            0 -1 96 -1 -989855747 -318776100 -857866817 -839430659
            -2130707009 -587205176 -1056964609</internalNodes>
          <leafValues>
            -4.7774466872215271e-001 6.0303175449371338e-001</leafValues></_>
        <_>
          <internalNodes>
            0 -1 76 -33554577 2133835263 2122034750 -1056964609 -1266
            2137775887 -1539889120 542372910</internalNodes>
          <leafValues>
            -7.4196046590805054e-001 3.4519582986831665e-001</leafValues></_></weakClassifiers></_>
    <!-- stage 5 -->
    <_>
      <maxWeakCount>5</maxWeakCount>
      <stageThreshold>-1.1348100900650024e+000</stageThreshold>
      <weakClassifiers>
        <_>
          <internalNodes>
            0 -1 45 2113732607 -198657 2145255423 -2097153 -1 -393473
            -69206017 -3342388</internalNodes>
          <leafValues>
            -7.9383957386016846e-001 3.5037767887115479e-001</leafValues></_>
        <_>
          <internalNodes>
            0 -1 72 -33767427 -222732 -139267 -142339 -196609 -1025
            -151556 -1346893140</internalNodes>
          <leafValues>
            -6.5378457307815552e-001 5.0621074438095093e-001</leafValues></_>
        <_>
          <internalNodes>
            0 -1 71 -524291 -167780355 -272630275 -33554947 -1409286145
            -1459634178 -33686019 -1728315972</internalNodes>
          <leafValues>
            -5.0555592775344849e-001 5.8033066987991333e-001</leafValues></_>
        <_>
          <internalNodes>
            0 -1 11 -285299026 -16851014 -805376898 -353178202
            2086043122 -3932289 -2169090 -210567373</internalNodes>
          <leafValues>
            -7.1933794021606445e-001 3.8842499256134033e-001</leafValues></_>
        <_>
          <internalNodes>
            0 -1 1 -65538 -33555457 533573614 -1073762322 -2113793
            1147513062 -138428497 1059204003</internalNodes>
          <leafValues>
            -6.3292938470840454e-001 4.5182126760482788e-001</leafValues></_></weakClassifiers></_>
    <!-- stage 6 -->
    <_>
      <maxWeakCount>6</maxWeakCount>
      <stageThreshold>-1.4257857799530029e+000</stageThreshold>
      <weakClassifiers>
        <_>
          <internalNodes>
            0 -1 78 -4194511 -1245708353 -2621441 -1 -1178601027
            -1145176129 -1732272705 -1073741889</internalNodes>
          <leafValues>
            -7.2371429204940796e-001 3.5533332824707031e-001</leafValues></_>
        <_>
          <internalNodes>
            0 -1 97 -1 -855640067 -186647811 -989855745 -33556003
            -1057227784 -35653412 -1056964609</internalNodes>
          <leafValues>
            -6.1746627092361450e-001 4.5787647366523743e-001</leafValues></_>
        <_>
          <internalNodes>
            0 -1 90 -4214 -219158645 1926193216 -1058478134 -19414526
            5136722 -135285726 -207618069</internalNodes>
          <leafValues>
            -5.4615277051925659e-001 4.6135345101356506e-001</leafValues></_>
        <_>
          <internalNodes>
            0 -1 50 -545742851 -237571 -4718595 -4210691 -21194755
            -16846863 -1075052547 -1617425328</internalNodes>
          <leafValues>
            -5.4233962297439575e-001 4.6379104256629944e-001</leafValues></_>
        <_>
          <internalNodes>
            0 -1 7 -285216817 -324079669 -33656962 -354095377 1207435111
            1614859879 -151567089 -790110369</internalNodes>
          <leafValues>
            -4.9792593717575073e-001 5.2842366695404053e-001</leafValues></_>
        <_>
          <internalNodes>
            0 -1 40 -3152918 -892342614 176376322 -338692062 -548669718
            1141172740 1465382128 -686034173</internalNodes>
          <leafValues>
            -5.1182371377944946e-001 5.0251084566116333e-001</leafValues></_></weakClassifiers></_>
    <!-- stage 7 -->
    <_>
      <maxWeakCount>6</maxWeakCount>
      <stageThreshold>-1.4000601768493652e+000</stageThreshold>
      <weakClassifiers>
        <_>
          <internalNodes>
            0 -1 26 -285282561 -38913 -2097153 -53761 -537659393 -8193
            -1 -1025</internalNodes>
          <leafValues>
            -6.6092026233673096e-001 4.8096281290054321e-001</leafValues></_>
        <_>
          <internalNodes>
            0 -1 19 -65537 -328193 -466945 -460841 -11010249 -9281673
            -13172873 -9209997</internalNodes>
          <leafValues>
            -6.0258108377456665e-001 4.0622112154960632e-001</leafValues></_>
        <_>
          <internalNodes>
            0 -1 83 -12586221 -720243659 775679675 285605183 -2107065
            1431787283 -9965057 1434451839</internalNodes>
          <leafValues>
            -5.6142371892929077e-001 4.4268471002578735e-001</leafValues></_>
        <_>
          <internalNodes>
            0 -1 66 -16777284 -33572865 -8260 -16909633 -4107 -33571330
            -50337348 -1459619125</internalNodes>
          <leafValues>
            -5.4997539520263672e-001 4.4660282135009766e-001</leafValues></_>
        <_>
          <internalNodes>
            0 -1 105 -352327441 -1594953989 -498122522 -1459628293
            -1040188529 6899847 -706809377 -855638529</internalNodes>
          <leafValues>
            -4.8605859279632568e-001 5.2642852067947388e-001</leafValues></_>
        <_>
          <internalNodes>
            0 -1 58 -1080164359 -1112418051 -42738179 -41943555
            -73744675 -1161953281 -37945860 -1996624644</internalNodes>
          <leafValues>
            -5.3978770971298218e-001 4.6548029780387878e-001</leafValues></_></weakClassifiers></_>
    <!-- stage 8 -->
    <_>
      <maxWeakCount>7</maxWeakCount>
      <stageThreshold>-2.1328351497650146e+000</stageThreshold>
      <weakClassifiers>
        <_>
          <internalNodes>
            0 -1 73 -1078394883 -1 -1073741825 -2097153 -1073742849
            -3073 -1073758209 -1073758209</internalNodes>
          <leafValues>
            -6.9077581167221069e-001 3.5933551192283630e-001</leafValues></_>
        <_>
          <internalNodes>
            0 -1 30 -268456209 -1562202113 1876928511 -286588929
            1736576879 183144415 -538040321 -336068617</internalNodes>
          <leafValues>
            -5.3815621137619019e-001 4.4795829057693481e-001</leafValues></_>
        <_>
          <internalNodes>
            0 -1 87 -3073 -2067800641 -10493953 -570437123 -1677737987
            -1996505089 -131587 150994175</internalNodes>
          <leafValues>
            -6.1125850677490234e-001 3.8142955303192139e-001</leafValues></_>
        <_>
          <internalNodes>
            0 -1 16 -4194305 -65537 -10813974 -67829889 -9183369
            -9179785 -143295629 -210501769</internalNodes>
          <leafValues>
            -6.2396013736724854e-001 3.7809792160987854e-001</leafValues></_>
        <_>
          <internalNodes>
            0 -1 0 -4097 -3473409 -73662686 -270086974 2079850495
            -270287873 2080077655 1340278131</internalNodes>
          <leafValues>
            -6.0051977634429932e-001 3.8166150450706482e-001</leafValues></_>
        <_>
          <internalNodes>
            0 -1 101 -16781529 584298283 -1493719838 -755238921
            -153622749 4716383 -151521305 -134219777</internalNodes>
          <leafValues>
            -4.7827398777008057e-001 5.0420963764190674e-001</leafValues></_>
        <_>
          <internalNodes>
            0 -1 69 -7668056 -1077887043 -10625033 -1073741873 -3940886
            -1409815331 -340721784 -1347359816</internalNodes>
          <leafValues>
            -5.8463686704635620e-001 3.9705160260200500e-001</leafValues></_></weakClassifiers></_>
    <!-- stage 9 -->
    <_>
      <maxWeakCount>7</maxWeakCount>
      <stageThreshold>-1.2823275327682495e+000</stageThreshold>
      <weakClassifiers>
        <_>
          <internalNodes>
            0 -1 60 -1077938767 -1308626433 -26083331 -8705 -1145045057
            -1107310339 -1125393220 -1996488769</internalNodes>
          <leafValues>
            -6.8406438827514648e-001 3.3190271258354187e-001</leafValues></_>
        <_>
          <internalNodes>
            0 -1 37 -134220118 -423439421 -420748670 -524620598
            -403701809 1167557419 -201870685 -136331345</internalNodes>
          <leafValues>
            -5.3165727853775024e-001 4.4740799069404602e-001</leafValues></_>
        <_>
          <internalNodes>
            0 -1 59 1065107192 -494852 -4325377 -8195 -2507778 -4325383
            -1345519617 -1081335560</internalNodes>
          <leafValues>
            -5.8479142189025879e-001 3.8345575332641602e-001</leafValues></_>
        <_>
          <internalNodes>
            0 -1 36 -70453250 -570625540 -212606978 -8210 -4587522
            -284889108 -71303170 -11679034</internalNodes>
          <leafValues>
            -6.0895907878875732e-001 3.6056751012802124e-001</leafValues></_>
        <_>
          <internalNodes>
            0 -1 3 -276481 1322962783 -472395905 -806129841 -218676281
            16403031 -296352681 1131922263</internalNodes>
          <leafValues>
            -5.6672483682632446e-001 4.0817517042160034e-001</leafValues></_>
        <_>
          <internalNodes>
            0 -1 54 1058856700 -2826244 -115548161 -571204868 -12799812
            -4395332 -282788100 -1618476808</internalNodes>
          <leafValues>
            -6.9198977947235107e-001 3.1613764166831970e-001</leafValues></_>
        <_>
          <internalNodes>
            0 -1 34 -285233969 -1058421810 -463253802 -218956338
            -341312669 25289481 -210078729 -201855766</internalNodes>
          <leafValues>
            -4.7022965550422668e-001 4.4808548688888550e-001</leafValues></_></weakClassifiers></_>
    <!-- stage 10 -->
    <_>
      <maxWeakCount>7</maxWeakCount>
      <stageThreshold>-1.8062959909439087e+000</stageThreshold>
      <weakClassifiers>
        <_>
          <internalNodes>
            0 -1 44 1414561789 -164387 2146926591 -10534915 -1398096897
            -87105 -1376257 -1078445126</internalNodes>
          <leafValues>
            -6.7242312431335449e-001 3.8021638989448547e-001</leafValues></_>
        <_>
          <internalNodes>
            0 -1 84 -33555657 823525239 -808069153 -169869313 432004133
            1358428086 -708840247 -318767105</internalNodes>
          <leafValues>
            -5.4451221227645874e-001 4.1339904069900513e-001</leafValues></_>
        <_>
          <internalNodes>
            0 -1 8 1289743614 -21521 -304353313 -3479634 1478261975
            -33662209 -22024257 -9175049</internalNodes>
          <leafValues>
            -4.8102015256881714e-001 4.3570616841316223e-001</leafValues></_>
        <_>
          <internalNodes>
            0 -1 61 -552823560 -35974920 -1222508545 -576905735
            -1080230150 -71433048 -4669701 -1089732468</internalNodes>
          <leafValues>
            -4.2693063616752625e-001 5.0770854949951172e-001</leafValues></_>
        <_>
          <internalNodes>
            0 -1 75 -1025 2113921023 2080373820 486514687 -9471092
            -849351881 2097001512 821821375</internalNodes>
          <leafValues>
            -5.5110919475555420e-001 3.9024397730827332e-001</leafValues></_>
        <_>
          <internalNodes>
            0 -1 12 -16789761 -84411461 -495259022 -218169374 -176194218
            -159908075 -143458817 -210239625</internalNodes>
          <leafValues>
            -4.3877238035202026e-001 4.8478713631629944e-001</leafValues></_>
        <_>
          <internalNodes>
            0 -1 63 -688915708 731940 -135266802 251640749 -2114594
            -257950213 -336593154 -1495271941</internalNodes>
          <leafValues>
            -5.8048075437545776e-001 3.8491216301918030e-001</leafValues></_></weakClassifiers></_>
    <!-- stage 11 -->
    <_>
      <maxWeakCount>7</maxWeakCount>
      <stageThreshold>-2.0336351394653320e+000</stageThreshold>
      <weakClassifiers>
        <_>
          <internalNodes>
            0 -1 49 488136701 -753665 1071382525 -50433 -197635 -17923
            -1141522433 -1074265352</internalNodes>
          <leafValues>
            -6.8002223968505859e-001 3.1578946113586426e-001</leafValues></_>
        <_>
          <internalNodes>
            0 -1 95 -95 -1314128081 -3671248 -134217731 -135530575
            -2135963833 -134744799 -704643073</internalNodes>
          <leafValues>
            -5.0548326969146729e-001 4.2325174808502197e-001</leafValues></_>
        <_>
          <internalNodes>
            0 -1 27 -286593374 -1732613 -66049 -540873225 938999263
            1710609407 2147482623 2012964859</internalNodes>
          <leafValues>
            -6.2080669403076172e-001 3.3905732631683350e-001</leafValues></_>
        <_>
          <internalNodes>
            0 -1 103 -1409290513 147319528 -1434259898 -2064712449
            1609031161 82637283 -1055276 -1059063041</internalNodes>
          <leafValues>
            -5.1896178722381592e-001 4.0156215429306030e-001</leafValues></_>
        <_>
          <internalNodes>
            0 -1 46 -4935708 -67328792 -1299444006 -134551448 -77013510
            -2322328 -215679494 2139668608</internalNodes>
          <leafValues>
            -6.6480618715286255e-001 3.3167856931686401e-001</leafValues></_>
        <_>
          <internalNodes>
            0 -1 100 -8403034 -1033111089 -522981810 -520686642
            -205269425 1194570243 -251660625 -201326609</internalNodes>
          <leafValues>
            -4.5789882540702820e-001 4.6611508727073669e-001</leafValues></_>
        <_>
          <internalNodes>
            0 -1 57 -1359675907 -1679009067 -11420161 -1074085891
            -1146291203 -68 -1618281473 -1414004552</internalNodes>
          <leafValues>
            -5.3141689300537109e-001 4.1785919666290283e-001</leafValues></_></weakClassifiers></_>
    <!-- stage 12 -->
    <_>
      <maxWeakCount>8</maxWeakCount>
      <stageThreshold>-1.4515212774276733e+000</stageThreshold>
      <weakClassifiers>
        <_>
          <internalNodes>
            0 -1 32 -268435457 -3148817 -839389193 -269553918 -1048577
            -268701697 -262153 -805310649</internalNodes>
          <leafValues>
            -6.7788320779800415e-001 2.3440577089786530e-001</leafValues></_>
        <_>
          <internalNodes>
            0 -1 22 -286275841 -859575369 1325236491 -744267937
            -1056969489 1076974819 1151848075 1078446927</internalNodes>
          <leafValues>
            -5.6044054031372070e-001 3.7975460290908813e-001</leafValues></_>
        <_>
          <internalNodes>
            0 -1 85 -1131358731 -67350767 -17465857 -163859 -1111490819
            -16842762 -1356923153 -1074205188</internalNodes>
          <leafValues>
            -3.9381462335586548e-001 5.1060289144515991e-001</leafValues></_>
        <_>
          <internalNodes>
            0 -1 42 1896217599 1426915262 874380287 -5375570 -105513985
            -16401492 -6554625 520987278</internalNodes>
          <leafValues>
            -4.6052595973014832e-001 4.4617083668708801e-001</leafValues></_>
        <_>
          <internalNodes>
            0 -1 86 -134218780 -64180264 -45359812 -36712676 -88093459
            -1465963013 -587349772 -721420817</internalNodes>
          <leafValues>
            -5.1048803329467773e-001 4.1266542673110962e-001</leafValues></_>
        <_>
          <internalNodes>
            0 -1 25 -353711361 -74313729 -269254789 -50131149 -705493005
            -143323145 -148441217 -10258625</internalNodes>
          <leafValues>
            -4.2313784360885620e-001 4.8958387970924377e-001</leafValues></_>
        <_>
          <internalNodes>
            0 -1 38 -462429438 -1065138006 1392673312 38237856
            -107755677 1074187271 1364705492 1467213555</internalNodes>
          <leafValues>
            -6.1263734102249146e-001 3.3271259069442749e-001</leafValues></_>
        <_>
          <internalNodes>
            0 -1 102 -67111634 -261757970 -831813952 1624407946
            -710940092 1143859373 -169884988 -452985873</internalNodes>
          <leafValues>
            -5.5020797252655029e-001 3.5983535647392273e-001</leafValues></_></weakClassifiers></_>
    <!-- stage 13 -->
    <_>
      <maxWeakCount>7</maxWeakCount>
      <stageThreshold>-2.0622308254241943e+000</stageThreshold>
      <weakClassifiers>
        <_>
          <internalNodes>
            0 -1 67 -138428481 -1075855937 -67108865 -33 -1140867141
            -1025 -1094730049 -1297</internalNodes>
          <leafValues>
            -6.4731299877166748e-001 3.0609098076820374e-001</leafValues></_>
        <_>
          <internalNodes>
            0 -1 14 -75533781 -72089873 -2008026846 -213451777
            2001957378 1880176464 1582780928 -143392937</internalNodes>
          <leafValues>
            -5.7805889844894409e-001 3.6718064546585083e-001</leafValues></_>
        <_>
          <internalNodes>
            0 -1 47 -229379 -1089 -17921 -2162691 1152839679 -1275666451
            -2098179 800063840</internalNodes>
          <leafValues>
            -6.8620592355728149e-001 2.7895560860633850e-001</leafValues></_>
        <_>
          <internalNodes>
            0 -1 80 -12592129 -704644611 -82717699 -704775691 -276193283
            -923147077 -575161345 150994623</internalNodes>
          <leafValues>
            -4.5545196533203125e-001 4.3273779749870300e-001</leafValues></_>
        <_>
          <internalNodes>
            0 -1 89 -8396982 -689703575 -259131904 1350092678 -242005240
            84310884 -201351230 -201328641</internalNodes>
          <leafValues>
            -4.7029143571853638e-001 4.4108638167381287e-001</leafValues></_>
        <_>
          <internalNodes>
            0 -1 93 -80225261 -13409006 -247997869 1361308706 1649660127
            1896038720 2071431855 256239</internalNodes>
          <leafValues>
            -5.7257896661758423e-001 3.3488816022872925e-001</leafValues></_>
        <_>
          <internalNodes>
            0 -1 10 -285283586 -1636378818 -422664358 -1036867054
            -134778050 -25697998 -339815013 -228066765</internalNodes>
          <leafValues>
            -5.6273186206817627e-001 3.4045138955116272e-001</leafValues></_></weakClassifiers></_>
    <!-- stage 14 -->
    <_>
      <maxWeakCount>7</maxWeakCount>
      <stageThreshold>-1.3111504316329956e+000</stageThreshold>
      <weakClassifiers>
        <_>
          <internalNodes>
            0 -1 79 -171966541 -1279804161 -1612841473 -33554433
            -1107313219 -1111754053 -1931764579 -1912603185</internalNodes>
          <leafValues>
            -6.5952712297439575e-001 2.6405695080757141e-001</leafValues></_>
        <_>
          <internalNodes>
            0 -1 2 -671089682 -18433 -216801298 -4261889 -87303169
            -4472869 -1064961 -173146177</internalNodes>
          <leafValues>
            -5.4893541336059570e-001 3.3570089936256409e-001</leafValues></_>
        <_>
          <internalNodes>
            0 -1 20 -73729 -2305 -327681 -983041 -151588865 -8947723
            -851969 -9177101</internalNodes>
          <leafValues>
            -3.7096899747848511e-001 5.0796288251876831e-001</leafValues></_>
        <_>
          <internalNodes>
            0 -1 81 -525313 2138533199 -136960414 846389119 -897907474
            1717453415 1182736430 1613232687</internalNodes>
          <leafValues>
            -5.7054930925369263e-001 3.4927096962928772e-001</leafValues></_>
        <_>
          <internalNodes>
            0 -1 24 -1370559258 -245250 -271085585 -2152629 39216675
            -23245973 2137095999 2143224691</internalNodes>
          <leafValues>
            -5.5792695283889771e-001 3.4634864330291748e-001</leafValues></_>
        <_>
          <internalNodes>
            0 -1 52 79973236 -1493368855 -2228739 -268582913 -1048587
            -267297 -1074814981 -1360744736</internalNodes>
          <leafValues>
            -6.7327696084976196e-001 2.7594846487045288e-001</leafValues></_>
        <_>
          <internalNodes>
            0 -1 5 -134224242 -33687570 -1076695872 -134223701
            -240200384 -1059279279 -148782960 1344797303</internalNodes>
          <leafValues>
            -5.9780949354171753e-001 3.1436231732368469e-001</leafValues></_></weakClassifiers></_>
    <!-- stage 15 -->
    <_>
      <maxWeakCount>8</maxWeakCount>
      <stageThreshold>-1.7577350139617920e+000</stageThreshold>
      <weakClassifiers>
        <_>
          <internalNodes>
            0 -1 48 500981759 -35897347 -295937 -2148353 -1158873089
            -65793 -1143291905 -1078318408</internalNodes>
          <leafValues>
            -6.6851300001144409e-001 2.3893207311630249e-001</leafValues></_>
        <_>
          <internalNodes>
            0 -1 104 -1478512913 -2133335445 1275040498 -923816465
            -537416705 208323247 -186653447 -855638529</internalNodes>
          <leafValues>
            -5.2108621597290039e-001 3.5375919938087463e-001</leafValues></_>
        <_>
          <internalNodes>
            0 -1 29 1659302652 -1085505 -134545410 -1089593476
            -420485131 -1901073441 -202394886 -1347470610</internalNodes>
          <leafValues>
            -5.8458024263381958e-001 3.0999103188514709e-001</leafValues></_>
        <_>
          <internalNodes>
            0 -1 91 -25169174 -789580821 -324537852 -756286741
            -1319664509 -2143816138 -27270421 -143655185</internalNodes>
          <leafValues>
            -3.7668541073799133e-001 5.0418293476104736e-001</leafValues></_>
        <_>
          <internalNodes>
            0 -1 70 -1711737896 -13779204 436072924 -604144132 -72373554
            -38222696 -484404 2072547464</internalNodes>
          <leafValues>
            -7.3811256885528564e-001 2.9883873462677002e-001</leafValues></_>
        <_>
          <internalNodes>
            0 -1 13 -25428385 -161285013 -141634217 -227344530
            1799868023 1983106371 -78128537 -143198345</internalNodes>
          <leafValues>
            -6.1003667116165161e-001 3.0129018425941467e-001</leafValues></_>
        <_>
          <internalNodes>
            0 -1 35 1086600094 1776082908 1941044031 1935538879
            -86118401 1474082440 -67191809 352962</internalNodes>
          <leafValues>
            -6.4580011367797852e-001 2.5359192490577698e-001</leafValues></_>
        <_>
          <internalNodes>
            0 -1 88 -568348886 -532683025 -1462291956 -797975621
            1684529676 5220640 -154489334 -227541041</internalNodes>
          <leafValues>
            -4.4206723570823669e-001 4.1773426532745361e-001</leafValues></_></weakClassifiers></_>
    <!-- stage 16 -->
    <_>
      <maxWeakCount>9</maxWeakCount>
      <stageThreshold>-1.2901847362518311e+000</stageThreshold>
      <weakClassifiers>
        <_>
          <internalNodes>
            0 -1 28 -16881922 -1022083 -19087361 -15594126 -137662465
            -67142663 -68288513 -8950917</internalNodes>
          <leafValues>
            -6.9489997625350952e-001 1.8461079895496368e-001</leafValues></_>
        <_>
          <internalNodes>
            0 -1 94 -235 -195698891 -1493434507 -1517224047 -1113079825
            1360019797 -1156850785 -780804201</internalNodes>
          <leafValues>
            -5.3266471624374390e-001 3.8023275136947632e-001</leafValues></_>
        <_>
          <internalNodes>
            0 -1 106 -389355866 42713263 1625057002 -353899089
            -369625125 -2134002053 -34817541 -805306881</internalNodes>
          <leafValues>
            -5.3883630037307739e-001 3.5591670870780945e-001</leafValues></_>
        <_>
          <internalNodes>
            0 -1 68 -1077947344 -1193807461 2078242805 -1243654275
            -1111884356 -1377847395 -1930642292 -1996492569</internalNodes>
          <leafValues>
            -4.7757086157798767e-001 3.9146840572357178e-001</leafValues></_>
        <_>
          <internalNodes>
            0 -1 43 1328063136 -143665174 1566037520 -2628633
            -2025000320 -854869566 1397199552 -741893246</internalNodes>
          <leafValues>
            -5.0269156694412231e-001 3.8757684826850891e-001</leafValues></_>
        <_>
          <internalNodes>
            0 -1 9 -587822004 1574899071 -550265889 -39147794 1552923991
            -588294097 -1414791217 -33607946</internalNodes>
          <leafValues>
            -5.2638041973114014e-001 3.5799661278724670e-001</leafValues></_>
        <_>
          <internalNodes>
            0 -1 41 -135797566 -490230194 787361792 1441265889 -35657822
            1075184132 929166514 -210505733</internalNodes>
          <leafValues>
            -4.2023298144340515e-001 4.5954209566116333e-001</leafValues></_>
        <_>
          <internalNodes>
            0 -1 17 -77660162 -539305249 -553510434 -69927529
            -1614360586 -15235869 -194728331 -8961165</internalNodes>
          <leafValues>
            -5.5945670604705811e-001 3.4027025103569031e-001</leafValues></_>
        <_>
          <internalNodes>
            0 -1 65 177533949 -1078437552 -1860584961 -4410467 -89622081
            -337003767 -1512451 -1095235384</internalNodes>
          <leafValues>
            -5.6091105937957764e-001 3.4447279572486877e-001</leafValues></_></weakClassifiers></_></stages>
  <features>
    <_>
      <rect>
        0 0 5 2</rect></_>
    <_>
      <rect>
        0 0 9 8</rect></_>
    <_>
      <rect>
        0 0 10 1</rect></_>
    <_>
      <rect>
        0 5 3 5</rect></_>
    <_>
      <rect>
        0 7 4 11</rect></_>
    <_>
      <rect>
        0 9 2 2</rect></_>
    <_>
      <rect>
        0 14 4 3</rect></_>
    <_>
      <rect>
        0 16 2 4</rect></_>
    <_>
      <rect>
        0 19 4 7</rect></_>
    <_>
      <rect>
        0 19 5 6</rect></_>
    <_>
      <rect>
        0 21 2 5</rect></_>
    <_>
      <rect>
        0 21 3 6</rect></_>
    <_>
      <rect>
        0 25 2 3</rect></_>
    <_>
      <rect>
        0 28 2 4</rect></_>
    <_>
      <rect>
        0 31 1 3</rect></_>
    <_>
      <rect>
        0 31 2 3</rect></_>
    <_>
      <rect>
        0 34 2 2</rect></_>
    <_>
      <rect>
        0 34 3 2</rect></_>
    <_>
      <rect>
        0 37 2 1</rect></_>
    <_>
      <rect>
        0 37 3 1</rect></_>
    <_>
      <rect>
        0 37 5 1</rect></_>
    <_>
      <rect>
        0 37 6 1</rect></_>
    <_>
      <rect>
        1 1 2 10</rect></_>
    <_>
      <rect>
        1 1 5 1</rect></_>
    <_>
      <rect>
        1 3 5 1</rect></_>
    <_>
      <rect>
        1 14 3 1</rect></_>
    <_>
      <rect>
        1 14 3 2</rect></_>
    <_>
      <rect>
        1 14 4 4</rect></_>
    <_>
      <rect>
        1 15 4 1</rect></_>
    <_>
      <rect>
        2 1 8 12</rect></_>
    <_>
      <rect>
        2 7 2 6</rect></_>
    <_>
      <rect>
        2 12 8 6</rect></_>
    <_>
      <rect>
        3 0 3 3</rect></_>
    <_>
      <rect>
        3 1 6 2</rect></_>
    <_>
      <rect>
        3 16 1 1</rect></_>
    <_>
      <rect>
        3 24 8 3</rect></_>
    <_>
      <rect>
        3 28 8 4</rect></_>
    <_>
      <rect>
        4 5 1 1</rect></_>
    <_>
      <rect>
        4 6 1 2</rect></_>
    <_>
      <rect>
        4 28 8 4</rect></_>
    <_>
      <rect>
        5 6 1 2</rect></_>
    <_>
      <rect>
        5 7 1 1</rect></_>
    <_>
      <rect>
        5 26 7 3</rect></_>
    <_>
      <rect>
        6 3 1 2</rect></_>
    <_>
      <rect>
        6 15 3 1</rect></_>
    <_>
      <rect>
        6 16 6 8</rect></_>
    <_>
      <rect>
        6 37 1 1</rect></_>
    <_>
      <rect>
        7 0 4 2</rect></_>
    <_>
      <rect>
        7 14 3 1</rect></_>
    <_>
      <rect>
        7 14 4 1</rect></_>
    <_>
      <rect>
        8 1 3 1</rect></_>
    <_>
      <rect>
        8 1 4 1</rect></_>
    <_>
      <rect>
        8 15 4 4</rect></_>
    <_>
      <rect>
        9 37 3 1</rect></_>
    <_>
      <rect>
        10 37 3 1</rect></_>
    <_>
      <rect>
        11 0 3 1</rect></_>
    <_>
      <rect>
        11 1 1 1</rect></_>
    <_>
      <rect>
        11 1 3 1</rect></_>
    <_>
      <rect>
        11 37 6 1</rect></_>
    <_>
      <rect>
        12 1 2 1</rect></_>
    <_>
      <rect>
        12 14 6 1</rect></_>
    <_>
      <rect>
        12 24 2 1</rect></_>
    <_>
      <rect>
        12 37 6 1</rect></_>
    <_>
      <rect>
        13 3 5 2</rect></_>
    <_>
      <rect>
        13 37 3 1</rect></_>
    <_>
      <rect>
        15 1 2 1</rect></_>
    <_>
      <rect>
        15 1 5 1</rect></_>
    <_>
      <rect>
        15 10 5 4</rect></_>
    <_>
      <rect>
        15 14 5 1</rect></_>
    <_>
      <rect>
        15 20 5 5</rect></_>
    <_>
      <rect>
        15 37 1 1</rect></_>
    <_>
      <rect>
        15 37 5 1</rect></_>
    <_>
      <rect>
        16 1 2 1</rect></_>
    <_>
      <rect>
        16 12 3 3</rect></_>
    <_>
      <rect>
        17 13 4 4</rect></_>
    <_>
      <rect>
        18 0 4 2</rect></_>
    <_>
      <rect>
        18 0 4 3</rect></_>
    <_>
      <rect>
        18 5 4 11</rect></_>
    <_>
      <rect>
        18 13 4 2</rect></_>
    <_>
      <rect>
        18 14 4 1</rect></_>
    <_>
      <rect>
        18 37 4 1</rect></_>
    <_>
      <rect>
        20 0 3 4</rect></_>
    <_>
      <rect>
        21 2 3 7</rect></_>
    <_>
      <rect>
        21 4 3 8</rect></_>
    <_>
      <rect>
        21 13 3 3</rect></_>
    <_>
      <rect>
        21 15 1 1</rect></_>
    <_>
      <rect>
        21 25 3 5</rect></_>
    <_>
      <rect>
        21 37 3 1</rect></_>
    <_>
      <rect>
        22 6 1 2</rect></_>
    <_>
      <rect>
        23 4 1 1</rect></_>
    <_>
      <rect>
        23 5 1 1</rect></_>
    <_>
      <rect>
        23 6 1 1</rect></_>
    <_>
      <rect>
        23 6 1 2</rect></_>
    <_>
      <rect>
        24 0 2 9</rect></_>
    <_>
      <rect>
        24 3 2 11</rect></_>
    <_>
      <rect>
        24 26 2 2</rect></_>
    <_>
      <rect>
        24 28 2 4</rect></_>
    <_>
      <rect>
        24 31 2 3</rect></_>
    <_>
      <rect>
        24 34 2 2</rect></_>
    <_>
      <rect>
        24 37 2 1</rect></_>
    <_>
      <rect>
        25 5 1 1</rect></_>
    <_>
      <rect>
        25 16 1 1</rect></_>
    <_>
      <rect>
        26 21 1 1</rect></_>
    <_>
      <rect>
        27 30 1 3</rect></_>
    <_>
      <rect>
        27 31 1 3</rect></_>
    <_>
      <rect>
        27 34 1 2</rect></_>
    <_>
      <rect>
        27 37 1 1</rect></_></features></cascade>
</opencv_storage>
