solver_type L2R_L2LOSS_SVC_DUAL
nr_class 2
label 1 -1
nr_feature 6144
bias 1
w
0 
-0.002701631105695882 
-0.005403262211391763 
-0.00810489331708809 
-0.01080652442278349 
-0.01342063198991546 
-0.01603473955705127 
-0.01849091816514234 
-0.02038340511067475 
-0.02119694110069781 
-0.02091276364149356 
-0.02286074770538697 
-0.02404668091750623 
-0.02721184104755679 
-0.03076134864404163 
-0.03086169585609169 
-0.03385494455116943 
-0.0371120759854062 
-0.03829060728706905 
-0.03542075944650509 
-0.03030446245257327 
-0.02564025587402755 
-0.02330941685908224 
-0.01789429578439292 
-0.01888435609031721 
-0.01931200062926303 
-0.01897142618485984 
-0.01790606771978457 
-0.01752285463670275 
-0.01462496731931497 
-0.01311296883170901 
-0.01179942464564073 
-0.01110079436723362 
-0.01058877082158385 
-0.01058877082158385 
-0.01058877082158385 
-0.01058877082158385 
-0.01058877082158385 
-0.01058877082158385 
-0.01058877082158385 
-0.03226881781683363 
-0.002963300633505362 
-0.0058121553930915 
-0.005764378471648391 
-0.002390095926839655 
-0.0012196199092126 
0.0007957293892709751 
0.003311930091516546 
0.00760335969481236 
0.004241351517193233 
0.002316743212013613 
-0.002511048708654077 
-0.008640570574878095 
-0.01216366301472866 
-0.01461050769303915 
-0.01606225942317487 
-0.02118885953815695 
-0.02569150751310766 
-0.0305891452324176 
-0.036019670529864 
-0.04136664122677451 
-0.05442073129304317 
-0.05232891905150146 
-0.05093334807501852 
-0.05888015525005517 
-0.06309356957546169 
-0.0675602773767023 
-0.07070496053124607 
-0.07192074162623276 
-0.07338000572923066 
-0.07360497964280492 
-0.0737372387174922 
-0.07377715007159995 
-0.07391318337901214 
-0.07391318337901214 
-0.07391318337901214 
-0.07391318337901214 
-0.07391318337901214 
-0.07391318337901214 
-0.07391318337901214 
-0.06099866782892471 
-0.05450215615251917 
-0.04702446342255615 
-0.04128323534718255 
-0.03685688101146468 
-0.02714556162802411 
-0.02631458676051863 
-0.02785612281581528 
-0.03028856584768302 
-0.03344851198283936 
0.02405686849202473 
0.02296724292762204 
0.02242745895527466 
0.02168954704986236 
0.02120190409940379 
0.02071426114894531 
0.0202266181984867 
0.0202266181984867 
0.02022661819848671 
0.02022661819848671 
0 
0.002017207003708024 
0.001208608504372592 
-0.0001971032757725003 
-0.001139376960287367 
-0.002345561298852787 
-0.003115986754642418 
-0.0038864122104322 
-0.004385209362282309 
-0.004385209362282309 
-0.004385209362282309 
-0.004385209362282309 
-0.004385209362282309 
-0.004385209362282309 
-0.004385209362282309 
-0.004385209362282309 
-0.004385209362282309 
-0.004385209362282309 
-0.004385209362282309 
-0.004385209362282309 
0 
-0.003460148201759126 
-0.009475689052182976 
-0.02036765018773466 
-0.03092134513045619 
-0.03940524083811203 
-0.04281142818934805 
-0.04169989420097872 
-0.04181062708254462 
-0.04166203565214599 
-0.04166203565214598 
-0.04166203565214599 
-0.04166203565214599 
-0.04166203565214599 
-0.04166203565214599 
-0.04166203565214599 
-0.04166203565214599 
-0.04166203565214599 
-0.04166203565214599 
-0.04166203565214599 
0 
0.007849187804664379 
0.01118572309398589 
0.01986902415367509 
0.02203480404100575 
0.02066226418528187 
0.01702885339878816 
0.01339876150420162 
0.008682905583793433 
0.006342717512177964 
0.003864042938961006 
0.003358605735735975 
0.003457553209766586 
0.003952208381935498 
0.00394145682176312 
0.003930705261590685 
0.003930705261590685 
0.003930705261590685 
0.003930705261590685 
0.003930705261590685 
0 
0.001832320262661668 
-0.001462645174073177 
-0.002077172732410663 
-0.001710901579623998 
-0.003440102066071372 
0.003554650396581065 
0.008132990481468837 
0.01588432643918376 
0.02250553246777902 
0.02941057406591374 
0.03873475335588431 
0.04537682710784703 
0.05137345149886833 
0.05323120367846617 
0.05558349394499204 
0.05895271662034082 
0.06150647727405175 
0.06505913224447563 
0.06725104187692028 
0.06768222460888827 
0.0724426647477821 
0.07945623640247501 
0.08236072747493756 
0.07960293932426955 
0.07950355435417415 
0.0812638185059936 
0.08055339875322395 
0.08018620495506132 
0.07964786194824791 
0.07910951894143481 
0.07857117593462148 
0.07814076606309497 
0.07814076606309497 
0.07814076606309497 
0.07814076606309497 
0.07814076606309497 
0.07814076606309497 
0.07814076606309497 
0.07814076606309497 
0.07100816290632667 
0.01526518096647679 
0.02245113498820358 
0.02329422558257735 
0.02264933004148214 
0.02291049888588076 
0.02351507406049133 
0.02415294467597098 
0.02415294467597098 
0.02415294467597098 
0.02415294467597098 
0.02415294467597098 
0.02415294467597098 
0.02415294467597098 
0.02415294467597098 
0.02415294467597098 
0.02415294467597098 
0.02415294467597098 
0.02415294467597098 
0.02415294467597098 
0 
0.0008836924033187829 
0.005819761935480748 
0.006932752176909997 
0.003050519231602865 
-0.0004815478334997682 
-0.006670480269812528 
-0.009221016383131882 
-0.01387826758477775 
-0.01896893937382722 
-0.02419171937589235 
-0.02691977885847562 
-0.03094195951652394 
-0.03487059117136068 
-0.03644920002175184 
-0.03698028150544905 
-0.03719554996706057 
-0.0373177397615321 
-0.03742974347768274 
-0.03754174719383234 
-0.03760523368177764 
-0.02842885900944414 
-0.02727331625327844 
-0.02823270881431159 
-0.02804760257623411 
0.008635248279863511 
0.00792409804611151 
0.007870801430674453 
0.007870801430674453 
0.007870801430674453 
0.007870801430674453 
0.007870801430674453 
0.007870801430674453 
0.007870801430674453 
0.007870801430674453 
0.007870801430674453 
0.007870801430674453 
0.007870801430674453 
0.007870801430674453 
0.007870801430674453 
0 
0.000617138158343691 
-0.0003337992882503368 
7.555543480175518e-005 
8.683965744671271e-005 
0.0003089719267064578 
0.0003089719267064578 
0.0003089719267064578 
0.0003089719267064578 
0.0003089719267064578 
0.0003089719267064578 
0.0003089719267064578 
0.0003089719267064578 
0.0003089719267064578 
0.0003089719267064578 
0.0003089719267064578 
0.0003089719267064578 
0.0003089719267064578 
0.0003089719267064578 
0.0003089719267064578 
0 
0.01373909134205529 
0.01930613425532967 
0.01772662297790973 
0.01125537103838043 
0.005712828753909275 
0.002306843320443212 
0.0006575679379682648 
0.0002566583346420202 
0.000161238425030005 
0.0001612384250300102 
0.0001612384250300102 
0.0001612384250300102 
0.0001612384250300102 
0.0001612384250300102 
0.0001612384250300102 
0.0001612384250300102 
0.0001612384250300102 
0.0001612384250300102 
0.0001612384250300102 
0 
0.006157126772291147 
0.0135540405413101 
0.02266198968443151 
0.0244747266614721 
0.0314930696781908 
0.03543201903723907 
0.04272199187502819 
0.05078273218317213 
0.05471907187751653 
0.05474661813781497 
0.05588206146650231 
0.05876783024207383 
0.06063084152900611 
0.06261552956330678 
0.06610913227341042 
0.06814982214939158 
0.07028855224535255 
0.07116558203677971 
0.07058030200940522 
0.07302089940944295 
0.0752873484553309 
0.07805066864772484 
0.07818162774040202 
0.0797351186568437 
0.0836814287784116 
0.09109384865575683 
0.09867585847546677 
0.1107505293011478 
0.1209779312391857 
0.1284217813256644 
0.1349794627968234 
0.1418438880422278 
0.1482116652387908 
0.1538464326375591 
0.1600469498645502 
0.1635128161368077 
0.1651255598152613 
0.1673721846800157 
0.1688970668311764 
0.1713968922219422 
0.1709379429393621 
0.1696675545739302 
0.1615959476274883 
0.1592707460820396 
0.1602267341767885 
0.1609053168402771 
0.1615838995037681 
0.162313912963834 
0.1630439264239011 
0.1630439264239011 
0.1630439264239011 
0.1630439264239011 
0.1630439264239011 
0.1630439264239011 
0.1630439264239011 
0.1630439264239011 
0.1630439264239011 
0.1630439264239011 
0.1630439264239011 
0 
0.001568208340322244 
-0.001212871721759863 
-0.001238861948489843 
-0.0007619896389224332 
-0.001340928278229194 
-0.001450631856965767 
-0.00172226016090519 
-0.00172226016090519 
-0.00172226016090519 
-0.00172226016090519 
-0.00172226016090519 
-0.00172226016090519 
-0.00172226016090519 
-0.00172226016090519 
-0.00172226016090519 
-0.00172226016090519 
-0.00172226016090519 
-0.00172226016090519 
-0.00172226016090519 
0 
-0.005307925028578943 
-0.003891810810519181 
-0.009159211814054295 
-0.009541528674640155 
-0.01007062124261751 
-0.009917998859530127 
-0.009917998859530113 
-0.009917998859530096 
-0.00991799885953013 
-0.009917998859530116 
-0.009917998859530106 
-0.009917998859530092 
-0.009917998859530102 
-0.009917998859530102 
-0.009917998859530102 
-0.009917998859530102 
-0.009917998859530102 
-0.009917998859530102 
-0.009917998859530102 
0 
0.001747520072619066 
0.006760213113422684 
0.01035916329251808 
0.008201010229875804 
0.006861816776967593 
0.006584983215823788 
0.006116921685166134 
0.00508404709469134 
0.004850467636343455 
0.004616888177995518 
0.004616888177995518 
0.004616888177995518 
0.004616888177995518 
0.004616888177995518 
0.004616888177995518 
0.004616888177995518 
0.004616888177995518 
0.004616888177995518 
0.004616888177995518 
0 
0.004440689695416666 
-0.001622774784512528 
-0.005103159721984701 
-0.005051189100723634 
-0.004888617544873112 
-0.004888617544873112 
-0.004888617544873112 
-0.004888617544873112 
-0.004888617544873112 
-0.004888617544873112 
-0.004888617544873112 
-0.004888617544873112 
-0.004888617544873112 
-0.004888617544873112 
-0.004888617544873112 
-0.004888617544873112 
-0.004888617544873112 
-0.004888617544873112 
-0.004888617544873112 
0 
0.00244642084648425 
0.008815462927166161 
0.02125346548642967 
0.02253921366724256 
0.02511118131550553 
0.02910504627555162 
0.02878022638194052 
0.02450497905577617 
0.02261066385232723 
0.02280326999191552 
0.02189390879184291 
0.02089226235660374 
0.02019610979220445 
0.01995403802412498 
0.02015980159010577 
0.02015980159010576 
0.02015980159010576 
0.02015980159010576 
0.02015980159010576 
0 
0.01327859979761886 
0.02457244000281963 
0.03457365565784198 
0.03607607052604619 
0.02864924995248758 
0.0220823327026938 
0.01374749358083728 
0.006652311588800786 
0.001108807536897712 
-0.005444850751410105 
-0.01309643724198256 
-0.02175307653796921 
-0.0298540359412777 
-0.03755847002203582 
-0.04457511422454411 
-0.04995426725370741 
-0.05398670189690092 
-0.05751334922456178 
-0.06084029539251432 
-0.06420034203699013 
-0.0568847490385642 
-0.05017281429411458 
-0.0449514631201531 
-0.04260824153987107 
-0.04036225398187617 
-0.04113017352828935 
-0.04282486337062587 
-0.04339583986449487 
-0.04337663684953395 
-0.04332698076495448 
-0.0424634773255485 
-0.04174575512301416 
-0.04111855542494995 
-0.0406215369231191 
-0.04055563613036366 
-0.04048973533760832 
-0.03979492151554055 
-0.03910010769347337 
-0.03840529387140602 
-0.0377104800493385 
-0.03751270730401309 
-0.03033665826016355 
-0.02828730108417862 
-0.02759248726211083 
-0.02689767344004372 
-0.02689767344004372 
-0.02689767344004372 
-0.02689767344004372 
-0.02689767344004372 
-0.02689767344004372 
-0.02689767344004372 
-0.02689767344004372 
-0.02689767344004372 
-0.02689767344004372 
-0.02689767344004372 
-0.02689767344004372 
-0.02689767344004372 
-0.02689767344004372 
-0.02689767344004372 
0 
0.0005108304672726785 
-1.707635419511806e-005 
-1.70763541951173e-005 
-1.70763541951173e-005 
-1.70763541951173e-005 
-1.70763541951173e-005 
-1.70763541951173e-005 
-1.70763541951173e-005 
-1.70763541951173e-005 
-1.70763541951173e-005 
-1.70763541951173e-005 
-1.70763541951173e-005 
-1.70763541951173e-005 
-1.70763541951173e-005 
-1.70763541951173e-005 
-1.70763541951173e-005 
-1.70763541951173e-005 
-1.70763541951173e-005 
-1.70763541951173e-005 
0 
0.001723906014731838 
0.001306150856852375 
0.002000338702888101 
0.00178499296548917 
0.00178499296548917 
0.00178499296548917 
0.00178499296548917 
0.00178499296548917 
0.00178499296548917 
0.00178499296548917 
0.00178499296548917 
0.00178499296548917 
0.00178499296548917 
0.00178499296548917 
0.00178499296548917 
0.00178499296548917 
0.00178499296548917 
0.00178499296548917 
0.00178499296548917 
0 
-0.001238927518120399 
0.001563376305931857 
0.001564779851156979 
0.001546482579274987 
0.001546482579274987 
0.001546482579274987 
0.001546482579274987 
0.001546482579274987 
0.001546482579274987 
0.001546482579274987 
0.001546482579274987 
0.001546482579274987 
0.001546482579274987 
0.001546482579274987 
0.001546482579274987 
0.001546482579274987 
0.001546482579274987 
0.001546482579274987 
0.001546482579274987 
0 
0.001641276246492606 
0.002484118945650416 
0.002055791451976448 
0.001158898463212551 
0.001158898463212555 
0.001158898463212555 
0.001158898463212555 
0.001158898463212555 
0.001158898463212555 
0.001158898463212555 
0.001158898463212555 
0.001158898463212555 
0.001158898463212555 
0.001158898463212555 
0.001158898463212555 
0.001158898463212555 
0.001158898463212555 
0.001158898463212555 
0.001158898463212555 
0 
0.005887849251507845 
0.007442785927454101 
0.007462189245485583 
0.007462189245485577 
0.007462189245485577 
0.007462189245485577 
0.007462189245485577 
0.007462189245485577 
0.007462189245485577 
0.007462189245485577 
0.007462189245485577 
0.007462189245485577 
0.007462189245485577 
0.007462189245485577 
0.007462189245485577 
0.007462189245485577 
0.007462189245485577 
0.007462189245485577 
0.007462189245485577 
0 
0.00848025546985842 
0.01022912820459405 
0.007460747359632368 
0.005323125784343646 
0.003078459730279409 
0.0002114614801451946 
-0.000110023842556091 
0.0008446178798461608 
0.00352153838585521 
0.004758034930474634 
0.005798094949966407 
0.007241692618116274 
0.008444913162924771 
0.008573968424546821 
0.008114091490458131 
0.007645417167202704 
0.007142816218624534 
0.006918504354546873 
0.006694192490468951 
0.00646988062639075 
0.009354530514251763 
0.01227010357809852 
0.01378552896805663 
0.01070892347420384 
0.006293446532459275 
0.002110152540675412 
0.0009826297577961688 
-0.001567639433677937 
-0.01046196517478347 
-0.01226894080880358 
-0.0125478375532578 
-0.01294851066094547 
-0.01317479062828955 
-0.01317479062828955 
-0.01317479062828955 
-0.01317479062828955 
-0.01317479062828955 
-0.01317479062828955 
-0.01317479062828955 
0 
0.003213491829929176 
0.003099317650588185 
0.003326397922513269 
0.003332600016234314 
0.003372509519074942 
0.003372509519074938 
0.003372509519074938 
0.003372509519074938 
0.003372509519074938 
0.003372509519074938 
0.003372509519074938 
0.003372509519074938 
0.003372509519074938 
0.003372509519074938 
0.003372509519074938 
0.003372509519074938 
0.003372509519074938 
0.003372509519074938 
0.003372509519074938 
0 
0.008914026551719969 
0.01009876718951332 
0.008750844990043407 
0.005725778922224954 
0.007598532706439305 
0.008299434129196676 
0.008123369492465995 
0.007927443821920914 
0.007630514100888818 
0.007630514100888825 
0.007630514100888821 
0.007630514100888821 
0.007630514100888821 
0.007630514100888821 
0.007630514100888821 
0.007630514100888821 
0.007630514100888821 
0.007630514100888821 
0.007630514100888821 
0 
0.004066390230328955 
0.004441529659785374 
0.003021203816610612 
0.003712675544851003 
0.00371267554485101 
0.00371267554485101 
0.00371267554485101 
0.00371267554485101 
0.00371267554485101 
0.00371267554485101 
0.00371267554485101 
0.00371267554485101 
0.00371267554485101 
0.00371267554485101 
0.00371267554485101 
0.00371267554485101 
0.00371267554485101 
0.00371267554485101 
0.00371267554485101 
0 
0.003268763580090071 
0.002897922697632395 
0.0008569733372771292 
0.001852528589766204 
0.002167008765173928 
0.002790639586259302 
0.002790639586259298 
0.002790639586259298 
0.002790639586259298 
0.002790639586259298 
0.002790639586259298 
0.002790639586259298 
0.002790639586259298 
0.002790639586259298 
0.002790639586259298 
0.002790639586259298 
0.002790639586259298 
0.002790639586259298 
0.002790639586259298 
0 
0.001285719860317801 
0.0006531826318362096 
-0.0002668389969894513 
-0.0007656361488395794 
-0.001264433300689673 
-0.001264433300689673 
-0.001264433300689673 
-0.001264433300689673 
-0.001264433300689673 
-0.001264433300689673 
-0.001264433300689673 
-0.001264433300689673 
-0.001264433300689673 
-0.001264433300689673 
-0.001264433300689673 
-0.001264433300689673 
-0.001264433300689673 
-0.001264433300689673 
-0.001264433300689673 
0 
-0.005935115852999653 
-0.006496031149185537 
-0.00718403938372208 
-0.006986357377344401 
-0.006986357377344401 
-0.006986357377344401 
-0.006986357377344401 
-0.006986357377344401 
-0.006986357377344401 
-0.006986357377344401 
-0.006986357377344401 
-0.006986357377344401 
-0.006986357377344401 
-0.006986357377344401 
-0.006986357377344401 
-0.006986357377344401 
-0.006986357377344401 
-0.006986357377344401 
-0.006986357377344401 
0 
0.007055629936015822 
0.007343075600671556 
0.007123662186825862 
0.006316558020101869 
0.006316558020101874 
0.006316558020101874 
0.006316558020101874 
0.006316558020101874 
0.006316558020101874 
0.006316558020101874 
0.006316558020101874 
0.006316558020101874 
0.006316558020101874 
0.006316558020101874 
0.006316558020101874 
0.006316558020101874 
0.006316558020101874 
0.006316558020101874 
0.006316558020101874 
0 
-0.004972091985810662 
-0.004384939795277083 
-0.007480082708518134 
-0.0137270398260447 
-0.01943636075500489 
-0.02140452370076455 
-0.02248167985909452 
-0.02292884067656907 
-0.02272138440356537 
-0.0228565253741516 
-0.02299166634473798 
-0.02311662123700237 
-0.0232415761292669 
-0.02336653102153138 
-0.02336653102153138 
-0.02336653102153138 
-0.02336653102153138 
-0.02336653102153138 
-0.02336653102153138 
0 
0.003688081432357667 
0.006965802041516283 
0.007500434857191566 
0.01401778140324801 
0.01948068275286012 
0.02132745503451057 
0.01706265373967392 
0.01350341463255724 
0.01182179330083557 
0.008918092479438099 
0.007588523806701464 
0.006812054019577792 
0.006517380509155606 
0.006285078827742383 
0.005994844783767103 
0.00603635850017727 
0.005881894615126344 
0.005727430730075983 
0.005572966845025312 
0 
0.009299687221476333 
0.01568347229560263 
0.01619177563133925 
0.01724726728180377 
0.01835230079237895 
0.0196704355312241 
0.01935113050960881 
0.01658224541935381 
0.01435508746280205 
0.01238396901880749 
0.01087403865837187 
0.01019613424838094 
0.009487836612806711 
0.009022429987267124 
0.008557023361727648 
0.008136633491084781 
0.007716243620441267 
0.007295853749798591 
0.006875463879155882 
0 
0.005032712588230743 
0.0113272876833208 
0.01497414369725248 
0.01811867263607066 
0.0230245194228886 
0.03031646956030359 
0.03865679637853498 
0.0473387041666082 
0.05436400729633228 
0.06139978770380711 
0.06741209566196542 
0.07184530797144674 
0.07746849887751657 
0.08041896427035442 
0.07963307488345246 
0.08164595875416525 
0.08410470432003435 
0.08498892198914208 
0.08489296589946239 
0.08452304745112509 
0.08475771486205894 
0.08561741628967061 
0.08202654821039081 
0.07860124643895648 
0.07497978432435289 
0.07497978432435289 
0.07497978432435289 
0.07497978432435289 
0.07497978432435289 
0.07497978432435289 
0.07497978432435289 
0.07497978432435289 
0.07497978432435289 
0.07497978432435289 
0.07497978432435289 
0.07497978432435289 
0.07497978432435289 
0.07497978432435289 
0.07497978432435289 
0.05575290035633643 
0.05046613281790224 
0.04897550329521449 
0.04839467326627665 
0.04756528107953362 
0.04766497583681376 
0.04766497583681376 
0.04766497583681376 
0.04766497583681376 
0.04766497583681376 
0.04766497583681376 
0.04766497583681376 
0.04766497583681376 
0.04766497583681376 
0.04766497583681376 
0.04766497583681376 
0.04766497583681376 
0.04766497583681376 
0.04766497583681376 
0.04766497583681376 
0 
-0.004246907733389771 
-0.004147268027405247 
-0.00557358060485434 
-0.005821051124488656 
-0.005866450816670381 
-0.005865294227853351 
-0.005743064686506913 
-0.005743064686506913 
-0.005743064686506913 
-0.005743064686506913 
-0.005743064686506913 
-0.005743064686506913 
-0.005743064686506913 
-0.005743064686506913 
-0.005743064686506913 
-0.005743064686506913 
-0.005743064686506913 
-0.005743064686506913 
-0.005743064686506913 
0 
0.002684895733720419 
0.006092390230871702 
0.006746540577362512 
0.007126216901801496 
0.01081749089668572 
0.0129739844173385 
0.0107331891159161 
0.006259021135501852 
0.003221631718521676 
0.0005886364361665381 
-0.0009889213287303904 
-0.002319555140123174 
-0.00359332840083005 
-0.004604433302933136 
-0.005453985276708913 
-0.006163655084533625 
-0.006163655084533625 
-0.006163655084533625 
-0.006163655084533625 
0 
0.00231731742920696 
0.004302273260346932 
0.00460261634556867 
0.001347952955076412 
-0.0005006285189772972 
-0.0008250075501500169 
-0.0008250075501500152 
-0.0008250075501500152 
-0.0008250075501500152 
-0.0008250075501500152 
-0.0008250075501500152 
-0.0008250075501500152 
-0.0008250075501500152 
-0.0008250075501500152 
-0.0008250075501500152 
-0.0008250075501500152 
-0.0008250075501500152 
-0.0008250075501500152 
-0.0008250075501500152 
0 
0.001566689012627723 
0.0003359849948515572 
-2.435584341489461e-006 
-2.435584341489461e-006 
-2.435584341489461e-006 
-2.435584341489461e-006 
-2.435584341489461e-006 
-2.435584341489461e-006 
-2.435584341489461e-006 
-2.435584341489461e-006 
-2.435584341489461e-006 
-2.435584341489461e-006 
-2.435584341489461e-006 
-2.435584341489461e-006 
-2.435584341489461e-006 
-2.435584341489461e-006 
-2.435584341489461e-006 
-2.435584341489461e-006 
-2.435584341489461e-006 
0 
0.004116032860133806 
0.00438628833919908 
0.004343144913010559 
0.004343144913010559 
0.004343144913010559 
0.004343144913010559 
0.004343144913010559 
0.004343144913010559 
0.004343144913010559 
0.004343144913010559 
0.004343144913010559 
0.004343144913010559 
0.004343144913010559 
0.004343144913010559 
0.004343144913010559 
0.004343144913010559 
0.004343144913010559 
0.004343144913010559 
0.004343144913010559 
0 
-0.00220933597182935 
-0.002759551367040286 
-0.002842385061209536 
-0.002842385061209536 
-0.002842385061209536 
-0.002842385061209536 
-0.002842385061209536 
-0.002842385061209536 
-0.002842385061209536 
-0.002842385061209536 
-0.002842385061209536 
-0.002842385061209536 
-0.002842385061209536 
-0.002842385061209536 
-0.002842385061209536 
-0.002842385061209536 
-0.002842385061209536 
-0.002842385061209536 
-0.002842385061209536 
0 
0.006900655749457103 
0.005384407412724528 
0.00579273804520752 
0.005903435188360559 
0.006004107390008708 
0.006004107390008708 
0.006004107390008708 
0.006004107390008708 
0.006004107390008708 
0.006004107390008708 
0.006004107390008708 
0.006004107390008708 
0.006004107390008708 
0.006004107390008708 
0.006004107390008708 
0.006004107390008708 
0.006004107390008708 
0.006004107390008708 
0.006004107390008708 
0 
0.0005508918484691053 
-0.0008941889862617589 
-0.000894188986261758 
-0.0008941889862617576 
-0.0008941889862617576 
-0.0008941889862617576 
-0.0008941889862617576 
-0.0008941889862617576 
-0.0008941889862617576 
-0.0008941889862617576 
-0.0008941889862617576 
-0.0008941889862617576 
-0.0008941889862617576 
-0.0008941889862617576 
-0.0008941889862617576 
-0.0008941889862617576 
-0.0008941889862617576 
-0.0008941889862617576 
-0.0008941889862617576 
0 
-0.001081629114941398 
-0.005138872980697996 
-0.004758095818199324 
-0.005188285895390845 
-0.005188285895390845 
-0.005188285895390845 
-0.005188285895390845 
-0.005188285895390845 
-0.005188285895390845 
-0.005188285895390845 
-0.005188285895390845 
-0.005188285895390845 
-0.005188285895390845 
-0.005188285895390845 
-0.005188285895390845 
-0.005188285895390845 
-0.005188285895390845 
-0.005188285895390845 
-0.005188285895390845 
0 
0.003046862349212207 
-0.00154536474602621 
-0.003263810060909045 
-0.003351101672515355 
-0.003621082084350917 
-0.003786420247508984 
-0.003786420247508986 
-0.003786420247508986 
-0.003786420247508986 
-0.003786420247508986 
-0.003786420247508986 
-0.003786420247508986 
-0.003786420247508986 
-0.003786420247508986 
-0.003786420247508986 
-0.003786420247508986 
-0.003786420247508986 
-0.003786420247508986 
-0.003786420247508986 
0 
0.0151369541430694 
0.01709672979012777 
0.01786798801395801 
0.01786798801395801 
0.01786798801395801 
0.01786798801395801 
0.01786798801395801 
0.01786798801395801 
0.01786798801395801 
0.01786798801395801 
0.01786798801395801 
0.01786798801395801 
0.01786798801395801 
0.01786798801395801 
0.01786798801395801 
0.01786798801395801 
0.01786798801395801 
0.01786798801395801 
0.01786798801395801 
0 
-0.004588712865267421 
-0.007057270563076417 
-0.005209460722459434 
-0.004353291687236318 
-0.004208715108419314 
-0.004127975199812522 
-0.004127975199812522 
-0.004127975199812522 
-0.004127975199812522 
-0.004127975199812522 
-0.004127975199812522 
-0.004127975199812522 
-0.004127975199812522 
-0.004127975199812522 
-0.004127975199812522 
-0.004127975199812522 
-0.004127975199812522 
-0.004127975199812522 
-0.004127975199812522 
0 
-0.002170976952600478 
-0.002001110961711464 
-0.002001110961711464 
-0.002001110961711464 
-0.002001110961711464 
-0.002001110961711464 
-0.002001110961711464 
-0.002001110961711464 
-0.002001110961711464 
-0.002001110961711464 
-0.002001110961711464 
-0.002001110961711464 
-0.002001110961711464 
-0.002001110961711464 
-0.002001110961711464 
-0.002001110961711464 
-0.002001110961711464 
-0.002001110961711464 
-0.002001110961711464 
0 
0.003809063356858052 
0.006938178487418369 
0.006568917924575336 
0.006334506560684186 
0.006199823810926431 
0.006065141061168652 
0.006065141061168652 
0.006065141061168652 
0.006065141061168652 
0.006065141061168652 
0.006065141061168652 
0.006065141061168652 
0.006065141061168652 
0.006065141061168652 
0.006065141061168652 
0.006065141061168652 
0.006065141061168652 
0.006065141061168652 
0.006065141061168652 
0 
-0.002468068443808603 
-0.003438019069081783 
-0.00408861771657595 
-0.004176809061423988 
-0.004176809061423988 
-0.004176809061423988 
-0.004176809061423988 
-0.004176809061423988 
-0.004176809061423988 
-0.004176809061423988 
-0.004176809061423988 
-0.004176809061423988 
-0.004176809061423988 
-0.004176809061423988 
-0.004176809061423988 
-0.004176809061423988 
-0.004176809061423988 
-0.004176809061423988 
-0.004176809061423988 
0 
0.0006600307579135539 
0.0003922598532363265 
-0.000591162046177243 
-0.001309792310314796 
-0.001309792310314796 
-0.001309792310314796 
-0.001309792310314796 
-0.001309792310314796 
-0.001309792310314796 
-0.001309792310314796 
-0.001309792310314796 
-0.001309792310314796 
-0.001309792310314796 
-0.001309792310314796 
-0.001309792310314796 
-0.001309792310314796 
-0.001309792310314796 
-0.001309792310314796 
-0.001309792310314796 
0 
0.001300929962959281 
0.0002095194271801613 
-0.0007671515470082241 
-0.001071198320282684 
-0.001071198320282684 
-0.001071198320282684 
-0.001071198320282684 
-0.001071198320282684 
-0.001071198320282684 
-0.001071198320282684 
-0.001071198320282684 
-0.001071198320282684 
-0.001071198320282684 
-0.001071198320282684 
-0.001071198320282684 
-0.001071198320282684 
-0.001071198320282684 
-0.001071198320282684 
-0.001071198320282684 
0 
0.0001175993603559805 
0.0005820923152267194 
0.003161089301000991 
0.004565367484492472 
0.001799070392674294 
0.0005780498859814166 
-0.001017468365389982 
-0.002050064416614247 
-0.002896074373753838 
-0.00305571624297463 
-0.003123010391617424 
-0.003123010391617424 
-0.003123010391617424 
-0.003123010391617424 
-0.003123010391617424 
-0.003123010391617424 
-0.003123010391617424 
-0.003123010391617424 
-0.003123010391617424 
0 
-0.001097456668340571 
-0.002746906400909856 
-0.0007531387602254482 
0.003239486762686664 
0.008404689064180961 
0.01296071935985302 
0.01705165882140785 
0.02063324868317916 
0.02287585447020664 
0.02731780162000561 
0.02975992346738095 
0.0275313859447385 
0.02583685653382344 
0.02420558860722507 
0.0223722888081809 
0.02069292353406274 
0.01807065979695363 
0.01294980289964016 
0.007101671257917212 
0.0007518389250630497 
0.005544838372614564 
0.01770811573992214 
0.02389287911302998 
0.02355777163910158 
0.02027864384563886 
0.01621681139260277 
0.01311038218131613 
0.01026720798517427 
0.008543643372519002 
0.006998913891229508 
0.005703031830860742 
0.004841803746743523 
0.004777441481470097 
0.004777441481470097 
0.004777441481470097 
0.004777441481470097 
0.004777441481470097 
0.004777441481470097 
0.004777441481470097 
-0.02232538075570426 
-0.02031079407092176 
-0.01931744522142557 
-0.02141045186674957 
-0.02965308075354874 
-0.03681438670740132 
-0.04214122605466981 
-0.04642763032333234 
-0.04934881185772457 
-0.05065833592934407 
-0.02897235181306182 
-0.02942502217974117 
-0.02978355693160497 
-0.02998762779841828 
-0.03004235963617493 
-0.03004235963617493 
-0.03004235963617492 
-0.03004235963617492 
-0.03004235963617492 
-0.03004235963617492 
0 
0.0004365923381066012 
0.004074703147736165 
0.004746369322119081 
0.00559027776133524 
0.006434186200551321 
0.00653485198487242 
0.00653485198487242 
0.00653485198487242 
0.00653485198487242 
0.00653485198487242 
0.00653485198487242 
0.00653485198487242 
0.00653485198487242 
0.00653485198487242 
0.00653485198487242 
0.00653485198487242 
0.00653485198487242 
0.00653485198487242 
0.00653485198487242 
0 
-0.005211082904233771 
0.002055580960985103 
0.007736467989630437 
0.005203833130327748 
0.0024317890779507 
-0.001027766801633061 
-0.003006787586932058 
-0.003688233194860618 
-0.004369678802788693 
-0.005032959683465583 
-0.00569624056414275 
-0.00611663043478548 
-0.006537020305428255 
-0.006537020305428255 
-0.006537020305428255 
-0.006537020305428255 
-0.006537020305428255 
-0.006537020305428255 
-0.006537020305428255 
0 
-0.003079501906629739 
-0.003722959693291194 
-0.003705942003877553 
-0.003789759458622699 
-0.003858812374641379 
-0.003858812374641374 
-0.003858812374641374 
-0.003858812374641374 
-0.003858812374641374 
-0.003858812374641374 
-0.003858812374641374 
-0.003858812374641374 
-0.003858812374641374 
-0.003858812374641374 
-0.003858812374641374 
-0.003858812374641374 
-0.003858812374641374 
-0.003858812374641374 
-0.003858812374641374 
0 
-0.001587263387490502 
0.0002247904711443089 
0.001268487155880022 
0.001162700623462511 
0.001162700623462511 
0.001162700623462511 
0.001162700623462511 
0.001162700623462511 
0.001162700623462511 
0.001162700623462511 
0.001162700623462511 
0.001162700623462511 
0.001162700623462511 
0.001162700623462511 
0.001162700623462511 
0.001162700623462511 
0.001162700623462511 
0.001162700623462511 
0.001162700623462511 
0 
-0.004334549195647654 
-0.00344913088236651 
-0.00192849590969248 
-0.001755879697765305 
-0.001755879697765305 
-0.001755879697765305 
-0.001755879697765305 
-0.001755879697765305 
-0.001755879697765305 
-0.001755879697765305 
-0.001755879697765305 
-0.001755879697765305 
-0.001755879697765305 
-0.001755879697765305 
-0.001755879697765305 
-0.001755879697765305 
-0.001755879697765305 
-0.001755879697765305 
-0.001755879697765305 
0 
0.008370211579988855 
0.01015133142987961 
0.006969023126162382 
0.005743311480443189 
0.005315648221593667 
0.005315648221593674 
0.005315648221593674 
0.005315648221593674 
0.005315648221593674 
0.005315648221593674 
0.005315648221593674 
0.005315648221593674 
0.005315648221593674 
0.005315648221593674 
0.005315648221593674 
0.005315648221593674 
0.005315648221593674 
0.005315648221593674 
0.005315648221593674 
0 
0.005618749452444291 
0.008709310978269404 
0.01179487011790363 
0.01248846037205607 
0.009400783370541985 
0.005483740572492759 
0.00249941172598312 
-0.0008655611302095413 
-0.002153607272447672 
-0.003263669581472393 
-0.003488336833680827 
-0.003713004085889166 
-0.003937671338097742 
-0.004162338590306315 
-0.004218919812810032 
-0.004218919812810014 
-0.004218919812810018 
-0.004218919812810018 
-0.004218919812810018 
0 
0.0006135319954187487 
0.0006738582631077343 
0.0006738582631077326 
0.0006738582631077326 
0.0006738582631077326 
0.0006738582631077326 
0.0006738582631077326 
0.0006738582631077326 
0.0006738582631077326 
0.0006738582631077326 
0.0006738582631077326 
0.0006738582631077326 
0.0006738582631077326 
0.0006738582631077326 
0.0006738582631077326 
0.0006738582631077326 
0.0006738582631077326 
0.0006738582631077326 
0.0006738582631077326 
0 
-0.003585600703130128 
-0.00467119672118789 
-0.005585783881670323 
-0.005713961591066353 
-0.005600697006459228 
-0.005600697006459228 
-0.005600697006459228 
-0.005600697006459228 
-0.005600697006459228 
-0.005600697006459228 
-0.005600697006459228 
-0.005600697006459228 
-0.005600697006459228 
-0.005600697006459228 
-0.005600697006459228 
-0.005600697006459228 
-0.005600697006459228 
-0.005600697006459228 
-0.005600697006459228 
0 
-0.0008858238470941317 
-0.003676566009569061 
-0.003948194313508582 
-0.003948194313508582 
-0.003948194313508582 
-0.003948194313508582 
-0.003948194313508582 
-0.003948194313508582 
-0.003948194313508582 
-0.003948194313508582 
-0.003948194313508582 
-0.003948194313508582 
-0.003948194313508582 
-0.003948194313508582 
-0.003948194313508582 
-0.003948194313508582 
-0.003948194313508582 
-0.003948194313508582 
-0.003948194313508582 
0 
-0.003515422650026843 
-0.00603266078724547 
-0.007448273736891674 
-0.007616359766596365 
-0.007616359766596369 
-0.007616359766596365 
-0.007616359766596365 
-0.007616359766596365 
-0.007616359766596365 
-0.007616359766596365 
-0.007616359766596365 
-0.007616359766596365 
-0.007616359766596365 
-0.007616359766596365 
-0.007616359766596365 
-0.007616359766596365 
-0.007616359766596365 
-0.007616359766596365 
-0.007616359766596365 
0 
-0.0002318597923302516 
-0.0003248175908482074 
-0.0003248175908482074 
-0.0003248175908482074 
-0.0003248175908482074 
-0.0003248175908482074 
-0.0003248175908482074 
-0.0003248175908482074 
-0.0003248175908482074 
-0.0003248175908482074 
-0.0003248175908482074 
-0.0003248175908482074 
-0.0003248175908482074 
-0.0003248175908482074 
-0.0003248175908482074 
-0.0003248175908482074 
-0.0003248175908482074 
-0.0003248175908482074 
-0.0003248175908482074 
0 
-0.006082157529640817 
-0.009517675321800912 
-0.009329086978052599 
-0.009591306036587061 
-0.009591306036587061 
-0.009591306036587061 
-0.009591306036587061 
-0.009591306036587061 
-0.009591306036587061 
-0.009591306036587061 
-0.009591306036587061 
-0.009591306036587061 
-0.009591306036587061 
-0.009591306036587061 
-0.009591306036587061 
-0.009591306036587061 
-0.009591306036587061 
-0.009591306036587061 
-0.009591306036587061 
0 
0.0002794038158139421 
0.002900142355268592 
0.005287674700444151 
0.005906058947775483 
0.005589223608995543 
0.005750322857468384 
0.005586945081139477 
0.005423567304810494 
0.005423567304810494 
0.005423567304810494 
0.005423567304810494 
0.005423567304810494 
0.005423567304810494 
0.005423567304810494 
0.005423567304810494 
0.005423567304810494 
0.005423567304810494 
0.005423567304810494 
0.005423567304810494 
0 
-0.0001360574532316942 
-0.0004285357344499979 
-0.001466542208562081 
-0.001466542208562082 
-0.001466542208562082 
-0.001466542208562082 
-0.001466542208562082 
-0.001466542208562082 
-0.001466542208562082 
-0.001466542208562082 
-0.001466542208562082 
-0.001466542208562082 
-0.001466542208562082 
-0.001466542208562082 
-0.001466542208562082 
-0.001466542208562082 
-0.001466542208562082 
-0.001466542208562082 
-0.001466542208562082 
0 
0.0009253575401064691 
0.0009188942858511258 
0.0009188942858511258 
0.0009188942858511258 
0.0009188942858511258 
0.0009188942858511258 
0.0009188942858511258 
0.0009188942858511258 
0.0009188942858511258 
0.0009188942858511258 
0.0009188942858511258 
0.0009188942858511258 
0.0009188942858511258 
0.0009188942858511258 
0.0009188942858511258 
0.0009188942858511258 
0.0009188942858511258 
0.0009188942858511258 
0.0009188942858511258 
0 
0.001304531889662273 
0.001928166202040821 
0.001928166202040828 
0.001928166202040828 
0.001928166202040828 
0.001928166202040828 
0.001928166202040828 
0.001928166202040828 
0.001928166202040828 
0.001928166202040828 
0.001928166202040828 
0.001928166202040828 
0.001928166202040828 
0.001928166202040828 
0.001928166202040828 
0.001928166202040828 
0.001928166202040828 
0.001928166202040828 
0.001928166202040828 
0 
5.669765685387534e-005 
-0.001713453687967308 
-0.003501716236894535 
-0.003847413244487242 
-0.006532172528047405 
-0.008957591931234013 
-0.009963965467570786 
-0.01052107222050642 
-0.01042802478664274 
-0.01029259905046537 
-0.01108182921804448 
-0.01207307567635441 
-0.01289514300772632 
-0.01361882121496254 
-0.01403921108560536 
-0.01445960095624825 
-0.01487999082689077 
-0.01530038069753465 
-0.01572077056817921 
-0.01614116043882305 
-0.01429903676625915 
0.003508238849486783 
0.003282766049139286 
0.003341954675486905 
0.002950697785396327 
0.002905681030499376 
0.00286066427560243 
0.002815647520705451 
0.002815647520705451 
0.002815647520705451 
0.002815647520705451 
0.002815647520705451 
0.002815647520705451 
0.002815647520705451 
0.002815647520705451 
0.002815647520705451 
0.002815647520705451 
0.002815647520705451 
0.002815647520705451 
0 
-0.001642765978531375 
0.0007899355134220233 
0.001398765915875899 
0.001502775504103265 
0.001502775504103265 
0.001502775504103265 
0.001502775504103265 
0.001502775504103265 
0.001502775504103265 
0.001502775504103265 
0.001502775504103265 
0.001502775504103265 
0.001502775504103265 
0.001502775504103265 
0.001502775504103265 
0.001502775504103265 
0.001502775504103265 
0.001502775504103265 
0.001502775504103265 
0 
-0.000386961030689416 
0.0003082269400817879 
-0.0003377494904704966 
-0.0003377494904704957 
-0.0003377494904704966 
-0.0003377494904704966 
-0.0003377494904704966 
-0.0003377494904704966 
-0.0003377494904704966 
-0.0003377494904704966 
-0.0003377494904704966 
-0.0003377494904704966 
-0.0003377494904704966 
-0.0003377494904704966 
-0.0003377494904704966 
-0.0003377494904704966 
-0.0003377494904704966 
-0.0003377494904704966 
-0.0003377494904704966 
0 
-0.0002035306595539596 
-0.0003541063787678273 
-0.0003541063787678273 
-0.0003541063787678273 
-0.0003541063787678273 
-0.0003541063787678273 
-0.0003541063787678273 
-0.0003541063787678273 
-0.0003541063787678273 
-0.0003541063787678273 
-0.0003541063787678273 
-0.0003541063787678273 
-0.0003541063787678273 
-0.0003541063787678273 
-0.0003541063787678273 
-0.0003541063787678273 
-0.0003541063787678273 
-0.0003541063787678273 
-0.0003541063787678273 
0 
0.004954784908036172 
0.003703488423250215 
0.002987900810589186 
0.002987900810589186 
0.002987900810589186 
0.002987900810589186 
0.002987900810589186 
0.002987900810589186 
0.002987900810589186 
0.002987900810589186 
0.002987900810589186 
0.002987900810589186 
0.002987900810589186 
0.002987900810589186 
0.002987900810589186 
0.002987900810589186 
0.002987900810589186 
0.002987900810589186 
0.002987900810589186 
0 
-0.003967015054748989 
-0.00455931018332053 
-0.00501182516338112 
-0.005464340143441687 
-0.005464340143441687 
-0.005464340143441687 
-0.005464340143441687 
-0.005464340143441687 
-0.005464340143441687 
-0.005464340143441687 
-0.005464340143441687 
-0.005464340143441687 
-0.005464340143441687 
-0.005464340143441687 
-0.005464340143441687 
-0.005464340143441687 
-0.005464340143441687 
-0.005464340143441687 
-0.005464340143441687 
0 
0.002027857880065579 
0.001619147797464878 
0.001582947319163829 
0.001582947319163831 
0.001582947319163831 
0.001582947319163831 
0.001582947319163831 
0.001582947319163831 
0.001582947319163831 
0.001582947319163831 
0.001582947319163831 
0.001582947319163831 
0.001582947319163831 
0.001582947319163831 
0.001582947319163831 
0.001582947319163831 
0.001582947319163831 
0.001582947319163831 
0.001582947319163831 
0 
-0.001542276008154518 
-0.002791487387751073 
-0.002791487387751075 
-0.002791487387751075 
-0.002791487387751075 
-0.002791487387751075 
-0.002791487387751075 
-0.002791487387751075 
-0.002791487387751075 
-0.002791487387751075 
-0.002791487387751075 
-0.002791487387751075 
-0.002791487387751075 
-0.002791487387751075 
-0.002791487387751075 
-0.002791487387751075 
-0.002791487387751075 
-0.002791487387751075 
-0.002791487387751075 
0 
-0.005868228269767418 
-0.01230966690795692 
-0.01709883009592494 
-0.01768753376665366 
-0.01768753376665355 
-0.01768753376665357 
-0.01768753376665356 
-0.01768753376665356 
-0.01768753376665356 
-0.01768753376665356 
-0.01768753376665356 
-0.01768753376665356 
-0.01768753376665356 
-0.01768753376665356 
-0.01768753376665356 
-0.01768753376665356 
-0.01768753376665356 
-0.01768753376665356 
-0.01768753376665356 
0 
0.0006304624720757226 
0.0005233816920815763 
0.0005233816920815763 
0.0005233816920815763 
0.0005233816920815763 
0.0005233816920815763 
0.0005233816920815763 
0.0005233816920815763 
0.0005233816920815763 
0.0005233816920815763 
0.0005233816920815763 
0.0005233816920815763 
0.0005233816920815763 
0.0005233816920815763 
0.0005233816920815763 
0.0005233816920815763 
0.0005233816920815763 
0.0005233816920815763 
0.0005233816920815763 
0 
0.00452300029959883 
-0.001895813410213492 
-0.005498091265417835 
-0.006848687777613635 
-0.007347484929463951 
-0.007347484929463951 
-0.007347484929463954 
-0.007347484929463954 
-0.007347484929463954 
-0.007347484929463954 
-0.007347484929463954 
-0.007347484929463954 
-0.007347484929463954 
-0.007347484929463954 
-0.007347484929463954 
-0.007347484929463954 
-0.007347484929463954 
-0.007347484929463954 
-0.007347484929463954 
0 
0.0001973214725019519 
-0.005773156349246499 
-0.01487963716533192 
-0.02283210256640985 
-0.03156660905905094 
-0.03619408810119006 
-0.03779542845517374 
-0.03923265065371694 
-0.039433154644509 
-0.03979050846004277 
-0.03979050846004277 
-0.03979050846004277 
-0.03979050846004277 
-0.03979050846004277 
-0.03979050846004277 
-0.03979050846004277 
-0.03979050846004277 
-0.03979050846004277 
-0.03979050846004277 
0 
-0.0094962543620389 
-0.01352812180385331 
-0.01296143529515477 
-0.01207124758972892 
-0.01228861960106483 
-0.0123810367201361 
-0.0123810367201361 
-0.0123810367201361 
-0.0123810367201361 
-0.0123810367201361 
-0.0123810367201361 
-0.0123810367201361 
-0.0123810367201361 
-0.0123810367201361 
-0.0123810367201361 
-0.0123810367201361 
-0.0123810367201361 
-0.0123810367201361 
-0.0123810367201361 
0 
-0.005449179535758098 
-0.008314314408135713 
-0.00850757608407849 
-0.008309660708131352 
-0.008111745332184058 
-0.008111745332184058 
-0.008111745332184058 
-0.008111745332184058 
-0.008111745332184058 
-0.008111745332184058 
-0.008111745332184058 
-0.008111745332184058 
-0.008111745332184058 
-0.008111745332184058 
-0.008111745332184058 
-0.008111745332184058 
-0.008111745332184058 
-0.008111745332184058 
-0.008111745332184058 
0 
-0.00596950311662492 
-0.005066001597333481 
-0.005719918621383807 
-0.005833244012940909 
-0.005956677481687079 
-0.005956677481687079 
-0.005956677481687079 
-0.005956677481687079 
-0.005956677481687079 
-0.005956677481687079 
-0.005956677481687079 
-0.005956677481687079 
-0.005956677481687079 
-0.005956677481687079 
-0.005956677481687079 
-0.005956677481687079 
-0.005956677481687079 
-0.005956677481687079 
-0.005956677481687079 
0 
0.003315119814631124 
9.816869699447769e-005 
-0.002418846693928522 
-0.002713435841459371 
-0.002713435841459371 
-0.002713435841459371 
-0.002713435841459371 
-0.002713435841459371 
-0.002713435841459371 
-0.002713435841459371 
-0.002713435841459371 
-0.002713435841459371 
-0.002713435841459371 
-0.002713435841459371 
-0.002713435841459371 
-0.002713435841459371 
-0.002713435841459371 
-0.002713435841459371 
-0.002713435841459371 
0 
0.001288132472132052 
0.0004295402877130184 
0.0004295402877130184 
0.0004295402877130184 
0.0004295402877130184 
0.0004295402877130184 
0.0004295402877130184 
0.0004295402877130184 
0.0004295402877130184 
0.0004295402877130184 
0.0004295402877130184 
0.0004295402877130184 
0.0004295402877130184 
0.0004295402877130184 
0.0004295402877130184 
0.0004295402877130184 
0.0004295402877130184 
0.0004295402877130184 
0.0004295402877130184 
0 
1.824254436935512e-005 
-0.002880527607771872 
-0.002975127565571687 
-0.002975127565571687 
-0.002975127565571687 
-0.002975127565571687 
-0.002975127565571687 
-0.002975127565571687 
-0.002975127565571687 
-0.002975127565571687 
-0.002975127565571687 
-0.002975127565571687 
-0.002975127565571687 
-0.002975127565571687 
-0.002975127565571687 
-0.002975127565571687 
-0.002975127565571687 
-0.002975127565571687 
-0.002975127565571687 
0 
-0.005648136081632368 
-0.005819841431201757 
-0.004569495052080412 
-0.004311751916106661 
-0.004311751916106661 
-0.004311751916106661 
-0.004311751916106661 
-0.004311751916106661 
-0.004311751916106661 
-0.004311751916106661 
-0.004311751916106661 
-0.004311751916106661 
-0.004311751916106661 
-0.004311751916106661 
-0.004311751916106661 
-0.004311751916106661 
-0.004311751916106661 
-0.004311751916106661 
-0.004311751916106661 
0 
0.002297954409084941 
0.003585707820863144 
0.008530653150752842 
0.009611879697368037 
0.007782587100097751 
0.003256686460679601 
-0.002276725475301707 
-0.00964577542873243 
-0.01444408719001349 
-0.01794984645471713 
-0.01952260096627396 
-0.01997240592644451 
-0.02036693856177569 
-0.0203669385617757 
-0.0203669385617757 
-0.0203669385617757 
-0.0203669385617757 
-0.0203669385617757 
-0.0203669385617757 
0 
0.001989966707282705 
0.01196470229036602 
0.02453886298366578 
0.03194926312824238 
0.04178935582421795 
0.05448447913289307 
0.06426610296931458 
0.07634161394704254 
0.09005349248013359 
0.09858611516152696 
0.1070041881271301 
0.1144167615613535 
0.1217768408734639 
0.1249040898009543 
0.1284321907452073 
0.1321694787625799 
0.1352272135993178 
0.1374456008052992 
0.1394722457209256 
0.1412284785888463 
0.1429252813749304 
0.141025069232982 
0.1373073932563745 
0.1352189143873342 
0.1326241741235942 
0.1326241741235942 
0.1326241741235942 
0.1326241741235942 
0.1326241741235942 
0.1326241741235942 
0.1326241741235942 
0.1326241741235942 
0.1326241741235942 
0.1326241741235942 
0.1326241741235942 
0.1326241741235942 
0.1326241741235942 
0.1326241741235942 
0.1326241741235942 
0.1185724854274604 
0.1186422370236298 
0.1208350056997394 
0.1235410467741812 
0.1248948810019376 
0.1211140994228419 
0.1173995193935438 
0.1127155845573061 
0.1112208590407402 
0.1098327426907922 
0.1089294846166029 
0.107217529909711 
0.1056586445333039 
0.1039597326070282 
0.1026910144483663 
-0.01259379051782052 
-0.01377442266831511 
-0.01419392181740893 
-0.01461342096650256 
-0.01503292011559634 
-0.01545241926469 
-0.01810226533662206 
-0.0196854093652313 
-0.01796000401022782 
-0.01710171505392126 
-0.01645277865641396 
-0.01645277865641396 
-0.01645277865641396 
-0.01645277865641396 
-0.01645277865641396 
-0.01645277865641396 
-0.01645277865641396 
-0.01645277865641396 
-0.01645277865641396 
-0.01645277865641396 
-0.01645277865641396 
-0.01645277865641396 
-0.01645277865641396 
-0.01645277865641396 
-0.01645277865641396 
0 
-0.001644177178929865 
-0.007023778149730074 
-0.01487226800773467 
-0.01827063829853437 
-0.01892788144150859 
-0.01885929834738325 
-0.0187873465779237 
-0.0187873465779237 
-0.0187873465779237 
-0.0187873465779237 
-0.0187873465779237 
-0.0187873465779237 
-0.0187873465779237 
-0.0187873465779237 
-0.0187873465779237 
-0.0187873465779237 
-0.0187873465779237 
-0.0187873465779237 
-0.0187873465779237 
0 
0.002728326128174227 
0.00409641475027861 
0.003946867526953226 
0.003946867526953227 
0.003946867526953227 
0.003946867526953227 
0.003946867526953227 
0.003946867526953227 
0.003946867526953227 
0.003946867526953227 
0.003946867526953227 
0.003946867526953227 
0.003946867526953227 
0.003946867526953227 
0.003946867526953227 
0.003946867526953227 
0.003946867526953227 
0.003946867526953227 
0.003946867526953227 
0 
-0.004921591309034925 
-0.00602466608025359 
-0.006727257243728028 
-0.01052124641965709 
-0.01131843507738699 
-0.0110602622109949 
-0.01125717796620931 
-0.01126472494354355 
-0.01126472494354355 
-0.01126472494354356 
-0.01126472494354355 
-0.01126472494354355 
-0.01126472494354355 
-0.01126472494354355 
-0.01126472494354355 
-0.01126472494354355 
-0.01126472494354355 
-0.01126472494354355 
-0.01126472494354355 
0 
0.004547478139505764 
0.005229493242757877 
0.001581293782312353 
-0.003453349417947466 
-0.00701897100519417 
-0.01121849343734841 
-0.01374656312001536 
-0.01408213285407933 
-0.01441770258814325 
-0.01441272616113496 
-0.01440774973412669 
-0.01440774973412669 
-0.01440774973412669 
-0.01440774973412669 
-0.01440774973412669 
-0.01440774973412669 
-0.01440774973412669 
-0.01440774973412669 
-0.01440774973412669 
0 
0.005746187162249642 
0.005211741862216652 
0.003766834500660594 
0.003444694778216252 
0.003122555055771806 
0.003122555055771806 
0.003122555055771806 
0.003122555055771806 
0.003122555055771806 
0.003122555055771806 
0.003122555055771806 
0.003122555055771806 
0.003122555055771806 
0.003122555055771806 
0.003122555055771806 
0.003122555055771806 
0.003122555055771806 
0.003122555055771806 
0.003122555055771806 
0 
0.002388067915239199 
0.002575613904612344 
0.002575613904612344 
0.002575613904612344 
0.002575613904612344 
0.002575613904612344 
0.002575613904612344 
0.002575613904612344 
0.002575613904612344 
0.002575613904612344 
0.002575613904612344 
0.002575613904612344 
0.002575613904612344 
0.002575613904612344 
0.002575613904612344 
0.002575613904612344 
0.002575613904612344 
0.002575613904612344 
0.002575613904612344 
0 
-0.005718317251023636 
-0.006442418227874272 
-0.00591032627993443 
-0.005379861858951828 
-0.004764947951291274 
-0.004764947951291274 
-0.004764947951291274 
-0.004764947951291274 
-0.004764947951291274 
-0.004764947951291274 
-0.004764947951291274 
-0.004764947951291274 
-0.004764947951291274 
-0.004764947951291274 
-0.004764947951291274 
-0.004764947951291274 
-0.004764947951291274 
-0.004764947951291274 
-0.004764947951291274 
0 
0.005596814522915473 
0.001532162318696027 
-0.0004042903038542706 
-0.0008208185022339803 
-0.001209168629918574 
-0.001591164454305727 
-0.002099956026963356 
-0.002099956026963354 
-0.002099956026963354 
-0.002099956026963354 
-0.002099956026963354 
-0.002099956026963354 
-0.002099956026963354 
-0.002099956026963354 
-0.002099956026963354 
-0.002099956026963354 
-0.002099956026963354 
-0.002099956026963354 
-0.002099956026963354 
0 
-0.00168470285750764 
-0.0008297252199176104 
-0.0009115528035617781 
-0.0008865777264076632 
-0.0008865777264076645 
-0.0008865777264076645 
-0.0008865777264076645 
-0.0008865777264076645 
-0.0008865777264076645 
-0.0008865777264076645 
-0.0008865777264076645 
-0.0008865777264076645 
-0.0008865777264076645 
-0.0008865777264076645 
-0.0008865777264076645 
-0.0008865777264076645 
-0.0008865777264076645 
-0.0008865777264076645 
-0.0008865777264076645 
0 
-0.007123881154359539 
-0.006642167611910113 
-0.006912863886467081 
-0.006912863886467081 
-0.006912863886467081 
-0.006912863886467081 
-0.006912863886467081 
-0.006912863886467081 
-0.006912863886467081 
-0.006912863886467081 
-0.006912863886467081 
-0.006912863886467081 
-0.006912863886467081 
-0.006912863886467081 
-0.006912863886467081 
-0.006912863886467081 
-0.006912863886467081 
-0.006912863886467081 
-0.006912863886467081 
0 
0.001141612976434081 
-0.005161886489728944 
-0.01041032754492932 
-0.01129408486159255 
-0.01164844685177212 
-0.01164844685177212 
-0.01164844685177212 
-0.01164844685177212 
-0.01164844685177212 
-0.01164844685177212 
-0.01164844685177212 
-0.01164844685177212 
-0.01164844685177212 
-0.01164844685177212 
-0.01164844685177212 
-0.01164844685177212 
-0.01164844685177212 
-0.01164844685177212 
-0.01164844685177212 
0 
-0.004982174287060146 
-0.006086703425467639 
-0.006421308002764845 
-0.006421308002764845 
-0.006421308002764845 
-0.006421308002764845 
-0.006421308002764845 
-0.006421308002764845 
-0.006421308002764845 
-0.006421308002764845 
-0.006421308002764845 
-0.006421308002764845 
-0.006421308002764845 
-0.006421308002764845 
-0.006421308002764845 
-0.006421308002764845 
-0.006421308002764845 
-0.006421308002764845 
-0.006421308002764845 
0 
-0.004496739888079085 
-0.006490420665416351 
-0.008449301309610463 
-0.009270613086249232 
-0.009270613086249232 
-0.009270613086249232 
-0.009270613086249232 
-0.009270613086249232 
-0.009270613086249232 
-0.009270613086249232 
-0.009270613086249232 
-0.009270613086249232 
-0.009270613086249232 
-0.009270613086249232 
-0.009270613086249232 
-0.009270613086249232 
-0.009270613086249232 
-0.009270613086249232 
-0.009270613086249232 
0 
-0.007697591786742269 
-0.007682029394674049 
-0.007371935906366962 
-0.007371935906366962 
-0.007371935906366962 
-0.007371935906366962 
-0.007371935906366962 
-0.007371935906366962 
-0.007371935906366962 
-0.007371935906366962 
-0.007371935906366962 
-0.007371935906366962 
-0.007371935906366962 
-0.007371935906366962 
-0.007371935906366962 
-0.007371935906366962 
-0.007371935906366962 
-0.007371935906366962 
-0.007371935906366962 
0 
0.001521810996605276 
0.004564242081746058 
-0.0003965758294029543 
-0.0008447310412418138 
-0.001312264746042281 
-0.001312264746042279 
-0.001312264746042279 
-0.001312264746042279 
-0.001312264746042279 
-0.001312264746042279 
-0.001312264746042279 
-0.001312264746042279 
-0.001312264746042279 
-0.001312264746042279 
-0.001312264746042279 
-0.001312264746042279 
-0.001312264746042279 
-0.001312264746042279 
-0.001312264746042279 
0 
0.003061146698691038 
0.00150070433969977 
0.0002098425273561466 
1.861306296916942e-005 
1.861306296916942e-005 
1.861306296916942e-005 
1.861306296916942e-005 
1.861306296916942e-005 
1.861306296916942e-005 
1.861306296916942e-005 
1.861306296916942e-005 
1.861306296916942e-005 
1.861306296916942e-005 
1.861306296916942e-005 
1.861306296916942e-005 
1.861306296916942e-005 
1.861306296916942e-005 
1.861306296916942e-005 
1.861306296916942e-005 
0 
0.002056547330491367 
-0.0002553730219319177 
-0.006454179910954045 
-0.01231595350581074 
-0.01447863611649966 
-0.015164309786909 
-0.01558044589673403 
-0.01584748551864095 
-0.01611452514054699 
-0.01621347873274813 
-0.01631243232494921 
-0.01641138591715028 
-0.01651033950935122 
-0.01651033950935122 
-0.01651033950935122 
-0.01651033950935122 
-0.01651033950935122 
-0.01651033950935122 
-0.01651033950935122 
0 
-0.005858215778145741 
-0.006725288352589448 
-0.007141022158160156 
-0.007210564388103679 
-0.007259648590181794 
-0.007259648590181794 
-0.007259648590181794 
-0.007259648590181794 
-0.007259648590181794 
-0.007259648590181794 
-0.007259648590181794 
-0.007259648590181794 
-0.007259648590181794 
-0.007259648590181794 
-0.007259648590181794 
-0.007259648590181794 
-0.007259648590181794 
-0.007259648590181794 
-0.007259648590181794 
0 
-0.003591951062971921 
-0.002650971059359891 
0.003247849224615325 
0.002529128387845379 
0.002243880842493904 
0.001943014747345445 
0.003348994971184334 
0.002804480566786381 
0.003273888997883642 
0.00355299868637017 
0.00374942597643067 
0.003749425976430668 
0.00374942597643067 
0.003749425976430668 
0.00374942597643067 
0.00374942597643067 
0.00374942597643067 
0.00374942597643067 
0.00374942597643067 
0 
-0.003651997877534033 
-0.003595062266743988 
-0.005174330121611045 
-0.01006387572098485 
-0.01677464554057055 
-0.02094544610929681 
-0.02575931518995781 
-0.02999705763278291 
-0.03269705974536861 
-0.03456186689905857 
-0.03504471592844529 
-0.03518632665221549 
-0.03510435402513634 
-0.03502238139805768 
-0.03494040877097832 
-0.03494040877097832 
-0.03494040877097832 
-0.03494040877097832 
-0.03494040877097832 
0 
-0.004413517746049603 
-0.009446364165904707 
-0.01044072649899053 
-0.01079527489775201 
-0.01079527489775203 
-0.01079527489775201 
-0.01079527489775201 
-0.01079527489775202 
-0.01079527489775201 
-0.010795274897752 
-0.010795274897752 
-0.010795274897752 
-0.010795274897752 
-0.010795274897752 
-0.010795274897752 
-0.010795274897752 
-0.010795274897752 
-0.010795274897752 
-0.010795274897752 
0 
0.0009846071836371079 
0.005551699839085045 
0.005676219554789787 
0.003856083849300599 
0.0007632132453737383 
-0.0009508348404935002 
-0.001764699298344112 
-0.002358926478946157 
-0.002688931401472566 
-0.002688931401472566 
-0.002688931401472566 
-0.002688931401472566 
-0.002688931401472566 
-0.002688931401472566 
-0.002688931401472566 
-0.002688931401472566 
-0.002688931401472566 
-0.002688931401472566 
-0.002688931401472566 
0 
-0.005311787188246546 
-0.007783604016018184 
-0.009251155431123977 
-0.009493888394984325 
-0.009493888394984325 
-0.009493888394984325 
-0.009493888394984325 
-0.009493888394984325 
-0.009493888394984325 
-0.009493888394984325 
-0.009493888394984325 
-0.009493888394984325 
-0.009493888394984325 
-0.009493888394984325 
-0.009493888394984325 
-0.009493888394984325 
-0.009493888394984325 
-0.009493888394984325 
-0.009493888394984325 
0 
-0.008517854383966336 
-0.0160869216295112 
-0.01425460508085434 
-0.01375545966479799 
-0.01293601076403362 
-0.01240381822763634 
-0.01190563070196994 
-0.01190563070196994 
-0.01190563070196994 
-0.01190563070196994 
-0.01190563070196994 
-0.01190563070196994 
-0.01190563070196994 
-0.01190563070196994 
-0.01190563070196994 
-0.01190563070196994 
-0.01190563070196994 
-0.01190563070196994 
-0.01190563070196994 
0 
-0.001296477448913722 
-0.001098553337390457 
-0.0009832254840668037 
-0.000723869408196876 
-0.000723869408196876 
-0.000723869408196876 
-0.000723869408196876 
-0.000723869408196876 
-0.000723869408196876 
-0.000723869408196876 
-0.000723869408196876 
-0.000723869408196876 
-0.000723869408196876 
-0.000723869408196876 
-0.000723869408196876 
-0.000723869408196876 
-0.000723869408196876 
-0.000723869408196876 
-0.000723869408196876 
0 
0.003603228196942191 
0.002751647794712095 
0.002027752013750162 
0.001687835342201107 
0.001687835342201107 
0.001687835342201107 
0.001687835342201107 
0.001687835342201107 
0.001687835342201107 
0.001687835342201107 
0.001687835342201107 
0.001687835342201107 
0.001687835342201107 
0.001687835342201107 
0.001687835342201107 
0.001687835342201107 
0.001687835342201107 
0.001687835342201107 
0.001687835342201107 
0 
0.003919422175476662 
0.001603954403141344 
0.001679339129028055 
0.001294683071975451 
0.001294683071975451 
0.001294683071975451 
0.001294683071975451 
0.001294683071975451 
0.001294683071975451 
0.001294683071975451 
0.001294683071975451 
0.001294683071975451 
0.001294683071975451 
0.001294683071975451 
0.001294683071975451 
0.001294683071975451 
0.001294683071975451 
0.001294683071975451 
0.001294683071975451 
0 
-0.002629112072330488 
-0.005836056913361675 
-0.009507963122227106 
-0.01054140399935683 
-0.01027159018678022 
-0.00976918122284174 
-0.00976918122284174 
-0.00976918122284174 
-0.00976918122284174 
-0.00976918122284174 
-0.00976918122284174 
-0.00976918122284174 
-0.00976918122284174 
-0.00976918122284174 
-0.00976918122284174 
-0.00976918122284174 
-0.00976918122284174 
-0.00976918122284174 
-0.00976918122284174 
0 
0.002849718542847149 
0.002433997528574216 
0.001933695089137691 
0.001939889979479689 
0.001939889979479689 
0.001939889979479689 
0.001939889979479689 
0.001939889979479689 
0.001939889979479689 
0.001939889979479689 
0.001939889979479689 
0.001939889979479689 
0.001939889979479689 
0.001939889979479689 
0.001939889979479689 
0.001939889979479689 
0.001939889979479689 
0.001939889979479689 
0.001939889979479689 
0 
-0.0002588648624777399 
0.0002773938338706014 
7.729408225878629e-005 
-4.128539975506548e-005 
-4.128539975506548e-005 
-4.128539975506548e-005 
-4.128539975506548e-005 
-4.128539975506548e-005 
-4.128539975506548e-005 
-4.128539975506548e-005 
-4.128539975506548e-005 
-4.128539975506548e-005 
-4.128539975506548e-005 
-4.128539975506548e-005 
-4.128539975506548e-005 
-4.128539975506548e-005 
-4.128539975506548e-005 
-4.128539975506548e-005 
-4.128539975506548e-005 
0 
-0.002004307524519024 
-0.001119566504374243 
-0.001417020685552183 
-0.001534162281420271 
-0.001560395969471349 
-0.001830717649955233 
-0.001830717649955233 
-0.001830717649955233 
-0.001830717649955233 
-0.001830717649955233 
-0.001830717649955233 
-0.001830717649955233 
-0.001830717649955233 
-0.001830717649955233 
-0.001830717649955233 
-0.001830717649955233 
-0.001830717649955233 
-0.001830717649955233 
-0.001830717649955233 
0 
-0.004580450467310007 
-0.006223969562204929 
-0.006029157495479815 
-0.006029157495479815 
-0.006029157495479815 
-0.006029157495479815 
-0.006029157495479815 
-0.006029157495479815 
-0.006029157495479815 
-0.006029157495479815 
-0.006029157495479815 
-0.006029157495479815 
-0.006029157495479815 
-0.006029157495479815 
-0.006029157495479815 
-0.006029157495479815 
-0.006029157495479815 
-0.006029157495479815 
-0.006029157495479815 
0 
-0.00317787839347022 
-0.003126405829820211 
-0.00326575449752478 
-0.00326575449752478 
-0.00326575449752478 
-0.00326575449752478 
-0.00326575449752478 
-0.00326575449752478 
-0.00326575449752478 
-0.00326575449752478 
-0.00326575449752478 
-0.00326575449752478 
-0.00326575449752478 
-0.00326575449752478 
-0.00326575449752478 
-0.00326575449752478 
-0.00326575449752478 
-0.00326575449752478 
-0.00326575449752478 
0 
0.002512271754533104 
0.00158279191723564 
0.001536862143403013 
0.001389993744386633 
0.001243125345370261 
0.001243125345370261 
0.001243125345370261 
0.001243125345370261 
0.001243125345370261 
0.001243125345370261 
0.001243125345370261 
0.001243125345370261 
0.001243125345370261 
0.001243125345370261 
0.001243125345370261 
0.001243125345370261 
0.001243125345370261 
0.001243125345370261 
0.001243125345370261 
0 
0.007898550382454269 
0.01255123853219411 
0.01018882743672746 
0.006803921184016771 
0.004876547722235616 
0.004407373956224081 
0.004056779672226498 
0.004056779672226498 
0.004056779672226498 
0.004056779672226498 
0.004056779672226498 
0.004056779672226498 
0.004056779672226498 
0.004056779672226498 
0.004056779672226498 
0.004056779672226498 
0.004056779672226498 
0.004056779672226498 
0.004056779672226498 
0 
-0.007509922337600923 
-0.01582752649670699 
-0.02176891220984903 
-0.0249924745526131 
-0.0255650242691535 
-0.02661091643403518 
-0.02745502579077911 
-0.02801786835081036 
-0.02842724193762129 
-0.02842724193762129 
-0.02842724193762129 
-0.02842724193762129 
-0.02842724193762129 
-0.02842724193762129 
-0.02842724193762129 
-0.02842724193762129 
-0.02842724193762129 
-0.02842724193762129 
-0.02842724193762129 
0 
-0.001556749987919749 
-0.003184466087109043 
-0.004054430671594196 
-0.004031437904051628 
-0.004031437904051628 
-0.004031437904051628 
-0.004031437904051628 
-0.004031437904051628 
-0.004031437904051628 
-0.004031437904051628 
-0.004031437904051628 
-0.004031437904051628 
-0.004031437904051628 
-0.004031437904051628 
-0.004031437904051628 
-0.004031437904051628 
-0.004031437904051628 
-0.004031437904051628 
-0.004031437904051628 
0 
-0.002646157247387886 
-0.003680647996725682 
-0.005000514776276674 
-0.01188563308598179 
-0.0175472546347279 
-0.02245035574940465 
-0.02611234617054231 
-0.02813609251184533 
-0.02906175943135904 
-0.03017026240580447 
-0.03088684721163873 
-0.03088684721163871 
-0.03088684721163873 
-0.03088684721163873 
-0.03088684721163873 
-0.03088684721163873 
-0.03088684721163873 
-0.03088684721163873 
-0.03088684721163873 
0 
0.001065242212039142 
0.008326015940240855 
0.008268121480285417 
0.008764790794759595 
0.009413727192264932 
0.009413727192264935 
0.009413727192264935 
0.009413727192264935 
0.009413727192264935 
0.009413727192264935 
0.009413727192264935 
0.009413727192264935 
0.009413727192264935 
0.009413727192264935 
0.009413727192264935 
0.009413727192264935 
0.009413727192264935 
0.009413727192264935 
0.009413727192264935 
0 
0.0005380298328973411 
0.006258517812475122 
0.008719915625084236 
0.007122057397736331 
0.003214316890545663 
-0.001483808227382453 
-0.006284984459810463 
-0.01104002128970179 
-0.01665720821010597 
-0.02153583733791827 
-0.02572996259932058 
-0.02714666981734013 
-0.02687861641582852 
-0.02695785116835188 
-0.02703708592087528 
-0.02703708592087528 
-0.02703708592087528 
-0.02703708592087528 
-0.02703708592087528 
0 
-0.007157008708111015 
-0.009070377015696223 
-0.01079710353461413 
-0.01061737255392543 
-0.01061737255392544 
-0.01061737255392543 
-0.01061737255392543 
-0.01061737255392543 
-0.01061737255392543 
-0.01061737255392543 
-0.01061737255392543 
-0.01061737255392543 
-0.01061737255392543 
-0.01061737255392543 
-0.01061737255392543 
-0.01061737255392543 
-0.01061737255392543 
-0.01061737255392543 
-0.01061737255392543 
0 
-0.003556357699271704 
0.001149229120904758 
0.0104971993479905 
0.01711423852690559 
0.02559223467786929 
0.0309881519244655 
0.03401354017769697 
0.0320658715268721 
0.03002715062608279 
0.02740329569811403 
0.02440667240374019 
0.0233349316631115 
0.02697511011544944 
0.02754170329629054 
0.02849972816817024 
0.03107796503561832 
0.03203091761438611 
0.03327508802136161 
0.03464403375104774 
0.03440574446753694 
0.03809930434731783 
0.04093529447375754 
0.05416078157120627 
0.05894669189266839 
0.06008680698898238 
0.0589974713763019 
0.05903918675679755 
0.05706079482232583 
0.05509813829619416 
0.05451948667443736 
0.05413941304106013 
0.05359793009234848 
0.05359793009234848 
0.05359793009234848 
0.05359793009234848 
0.05359793009234848 
0.05359793009234848 
0.05359793009234848 
0.05359793009234848 
0.02172608576626121 
0.02227720053349565 
0.02198930894230425 
0.02164622047474941 
0.02123732137253443 
0.02058887423923963 
0.02058887423923963 
0.02058887423923963 
0.02058887423923963 
0.02058887423923963 
0.02058887423923963 
0.02058887423923963 
0.02058887423923963 
0.02058887423923963 
0.02058887423923963 
0.02058887423923963 
0.02058887423923963 
0.02058887423923963 
0.02058887423923963 
0.02058887423923963 
0 
-0.002177982999919884 
-0.0052632664866049 
-0.005261066989880351 
-0.005261066989880351 
-0.005261066989880351 
-0.005261066989880351 
-0.005261066989880351 
-0.005261066989880351 
-0.005261066989880351 
-0.005261066989880351 
-0.005261066989880351 
-0.005261066989880351 
-0.005261066989880351 
-0.005261066989880351 
-0.005261066989880351 
-0.005261066989880351 
-0.005261066989880351 
-0.005261066989880351 
-0.005261066989880351 
0 
0.00197481436779227 
0.002017787896608309 
0.002017787896608309 
0.002017787896608309 
0.002017787896608309 
0.002017787896608309 
0.002017787896608309 
0.002017787896608309 
0.002017787896608309 
0.002017787896608309 
0.002017787896608309 
0.002017787896608309 
0.002017787896608309 
0.002017787896608309 
0.002017787896608309 
0.002017787896608309 
0.002017787896608309 
0.002017787896608309 
0.002017787896608309 
0 
0.003143665589424045 
0.001359399543857 
0.0002064323828586611 
-0.0002139574877841425 
-0.0002139574877841425 
-0.0002139574877841425 
-0.0002139574877841425 
-0.0002139574877841425 
-0.0002139574877841425 
-0.0002139574877841425 
-0.0002139574877841425 
-0.0002139574877841425 
-0.0002139574877841425 
-0.0002139574877841425 
-0.0002139574877841425 
-0.0002139574877841425 
-0.0002139574877841425 
-0.0002139574877841425 
-0.0002139574877841425 
0 
0.0003495410615958001 
0.005554125906673174 
0.00862931633360208 
0.009269970208507596 
0.009858433583615888 
0.009858433583615888 
0.009858433583615888 
0.009858433583615888 
0.009858433583615888 
0.009858433583615888 
0.009858433583615888 
0.009858433583615888 
0.009858433583615888 
0.009858433583615888 
0.009858433583615888 
0.009858433583615888 
0.009858433583615888 
0.009858433583615888 
0.009858433583615888 
0 
6.694337405102231e-005 
0.002302655520995903 
0.004537608580368938 
0.005316723108652498 
0.005316723108652498 
0.005316723108652498 
0.005316723108652498 
0.005316723108652498 
0.005316723108652498 
0.005316723108652498 
0.005316723108652498 
0.005316723108652498 
0.005316723108652498 
0.005316723108652498 
0.005316723108652498 
0.005316723108652498 
0.005316723108652498 
0.005316723108652498 
0.005316723108652498 
0 
0.001126388047169013 
-5.291050304315518e-005 
-1.847601006157917e-005 
0.0008685575892200898 
0.0007209731734237652 
0.0007209731734237652 
0.0007209731734237652 
0.0007209731734237652 
0.0007209731734237652 
0.0007209731734237652 
0.0007209731734237652 
0.0007209731734237652 
0.0007209731734237652 
0.0007209731734237652 
0.0007209731734237652 
0.0007209731734237652 
0.0007209731734237652 
0.0007209731734237652 
0.0007209731734237652 
0 
-0.002826888698155677 
-0.008233258849951063 
-0.008141792601037779 
-0.01534395619593132 
-0.01881537536130196 
-0.02299746341263446 
-0.02350298062225226 
-0.02401720641553082 
-0.02416592936507888 
-0.02416592936507888 
-0.02416592936507888 
-0.02416592936507888 
-0.02416592936507888 
-0.02416592936507888 
-0.02416592936507888 
-0.02416592936507888 
-0.02416592936507888 
-0.02416592936507888 
-0.02416592936507888 
0 
-0.01044135990019629 
-0.01168962054363964 
-0.01136734622937802 
-0.01202711906995013 
-0.01318439306590559 
-0.01358767040296752 
-0.01404018538302799 
-0.01449270036308854 
-0.0149452153431489 
-0.0149452153431489 
-0.0149452153431489 
-0.0149452153431489 
-0.0149452153431489 
-0.0149452153431489 
-0.0149452153431489 
-0.0149452153431489 
-0.0149452153431489 
-0.0149452153431489 
-0.0149452153431489 
0 
-0.002903384533155208 
-0.005481193763424302 
-0.005481193763424272 
-0.005481193763424305 
-0.005481193763424305 
-0.005481193763424305 
-0.005481193763424305 
-0.005481193763424305 
-0.005481193763424305 
-0.005481193763424305 
-0.005481193763424305 
-0.005481193763424305 
-0.005481193763424305 
-0.005481193763424305 
-0.005481193763424305 
-0.005481193763424305 
-0.005481193763424305 
-0.005481193763424305 
-0.005481193763424305 
0 
-0.006970723569096731 
-0.008361707942210323 
-0.01053983134753483 
-0.0110067215516336 
-0.0110067215516336 
-0.0110067215516336 
-0.0110067215516336 
-0.0110067215516336 
-0.0110067215516336 
-0.0110067215516336 
-0.0110067215516336 
-0.0110067215516336 
-0.0110067215516336 
-0.0110067215516336 
-0.0110067215516336 
-0.0110067215516336 
-0.0110067215516336 
-0.0110067215516336 
-0.0110067215516336 
0 
-0.003432038048216385 
-0.004154704240767837 
-0.004405557200418308 
-0.004405557200418308 
-0.004405557200418308 
-0.004405557200418308 
-0.004405557200418308 
-0.004405557200418308 
-0.004405557200418308 
-0.004405557200418308 
-0.004405557200418308 
-0.004405557200418308 
-0.004405557200418308 
-0.004405557200418308 
-0.004405557200418308 
-0.004405557200418308 
-0.004405557200418308 
-0.004405557200418308 
-0.004405557200418308 
0 
-0.001536387767963632 
0.0001021484864174885 
-0.000788441385887567 
-0.0008674340733262068 
-0.0008674340733262068 
-0.0008674340733262068 
-0.0008674340733262068 
-0.0008674340733262068 
-0.0008674340733262068 
-0.0008674340733262068 
-0.0008674340733262068 
-0.0008674340733262068 
-0.0008674340733262068 
-0.0008674340733262068 
-0.0008674340733262068 
-0.0008674340733262068 
-0.0008674340733262068 
-0.0008674340733262068 
-0.0008674340733262068 
0 
-0.001613609788758499 
-0.0006697109949039547 
-0.0006697109949039547 
-0.0006697109949039547 
-0.0006697109949039547 
-0.0006697109949039547 
-0.0006697109949039547 
-0.0006697109949039547 
-0.0006697109949039547 
-0.0006697109949039547 
-0.0006697109949039547 
-0.0006697109949039547 
-0.0006697109949039547 
-0.0006697109949039547 
-0.0006697109949039547 
-0.0006697109949039547 
-0.0006697109949039547 
-0.0006697109949039547 
-0.0006697109949039547 
0 
-0.003429365689680048 
-0.003781941400859976 
-0.003832317241258365 
-0.003832317241258365 
-0.003832317241258365 
-0.003832317241258365 
-0.003832317241258365 
-0.003832317241258365 
-0.003832317241258365 
-0.003832317241258365 
-0.003832317241258365 
-0.003832317241258365 
-0.003832317241258365 
-0.003832317241258365 
-0.003832317241258365 
-0.003832317241258365 
-0.003832317241258365 
-0.003832317241258365 
-0.003832317241258365 
0 
-0.0007708713647362944 
-0.001256571397086835 
-0.001463923710861307 
-0.001463923710861307 
-0.001463923710861307 
-0.001463923710861307 
-0.001463923710861307 
-0.001463923710861307 
-0.001463923710861307 
-0.001463923710861307 
-0.001463923710861307 
-0.001463923710861307 
-0.001463923710861307 
-0.001463923710861307 
-0.001463923710861307 
-0.001463923710861307 
-0.001463923710861307 
-0.001463923710861307 
-0.001463923710861307 
0 
-0.001855864181274905 
-0.001636935797701374 
-0.0007703656604740918 
-0.0009607302360112319 
-0.0007536296227017132 
-0.0005465290093922759 
-0.0005465290093922759 
-0.0005465290093922759 
-0.0005465290093922759 
-0.0005465290093922759 
-0.0005465290093922759 
-0.0005465290093922759 
-0.0005465290093922759 
-0.0005465290093922759 
-0.0005465290093922759 
-0.0005465290093922759 
-0.0005465290093922759 
-0.0005465290093922759 
-0.0005465290093922759 
0 
0.0008236001607813939 
-0.0009799935559561266 
-0.0005080516292090039 
-0.0008492493437551391 
-0.0008492493437551408 
-0.0008492493437551408 
-0.0008492493437551408 
-0.0008492493437551408 
-0.0008492493437551408 
-0.0008492493437551408 
-0.0008492493437551408 
-0.0008492493437551408 
-0.0008492493437551408 
-0.0008492493437551408 
-0.0008492493437551408 
-0.0008492493437551408 
-0.0008492493437551408 
-0.0008492493437551408 
-0.0008492493437551408 
0 
0.002082320712220938 
0.001998709207529226 
0.001981484421400431 
0.002169509131742153 
0.002151344404490895 
0.002151344404490895 
0.002151344404490895 
0.002151344404490895 
0.002151344404490895 
0.002151344404490895 
0.002151344404490895 
0.002151344404490895 
0.002151344404490895 
0.002151344404490895 
0.002151344404490895 
0.002151344404490895 
0.002151344404490895 
0.002151344404490895 
0.002151344404490895 
0 
-0.005244333224374389 
-0.01213992691092851 
-0.01224745692366819 
-0.01217614465265028 
-0.01311255745371669 
-0.0136101221436665 
-0.01412587413379912 
-0.01421523792700596 
-0.01456879708754116 
-0.01441462875483555 
-0.01441462875483555 
-0.01441462875483555 
-0.01441462875483555 
-0.01441462875483555 
-0.01441462875483555 
-0.01441462875483555 
-0.01441462875483555 
-0.01441462875483555 
-0.01441462875483555 
0 
0.0006825876980011224 
0.0009588741499022038 
0.0009588741499022025 
0.0009588741499022025 
0.0009588741499022025 
0.0009588741499022025 
0.0009588741499022025 
0.0009588741499022025 
0.0009588741499022025 
0.0009588741499022025 
0.0009588741499022025 
0.0009588741499022025 
0.0009588741499022025 
0.0009588741499022025 
0.0009588741499022025 
0.0009588741499022025 
0.0009588741499022025 
0.0009588741499022025 
0.0009588741499022025 
0 
0.001303173118277156 
0.00278623931114142 
0.004744891206395109 
0.005109039148475183 
0.005109039148475183 
0.005109039148475183 
0.005109039148475183 
0.005109039148475183 
0.005109039148475183 
0.005109039148475183 
0.005109039148475183 
0.005109039148475183 
0.005109039148475183 
0.005109039148475183 
0.005109039148475183 
0.005109039148475183 
0.005109039148475183 
0.005109039148475183 
0.005109039148475183 
0 
-0.002667372677768048 
-0.003161171077554046 
-0.002699426620887936 
-0.003298031637248951 
-0.003394224410000276 
-0.003394224410000278 
-0.003394224410000278 
-0.003394224410000278 
-0.003394224410000278 
-0.003394224410000278 
-0.003394224410000278 
-0.003394224410000278 
-0.003394224410000278 
-0.003394224410000278 
-0.003394224410000278 
-0.003394224410000278 
-0.003394224410000278 
-0.003394224410000278 
-0.003394224410000278 
0 
0.004730141036078737 
0.004372623513168932 
0.0005145440811623151 
-0.0004649145094598337 
-0.0001770197571974553 
-0.0003657267347766809 
-0.0003657267347766809 
-0.0003657267347766809 
-0.0003657267347766809 
-0.0003657267347766809 
-0.0003657267347766809 
-0.0003657267347766809 
-0.0003657267347766809 
-0.0003657267347766809 
-0.0003657267347766809 
-0.0003657267347766809 
-0.0003657267347766809 
-0.0003657267347766809 
-0.0003657267347766809 
0 
-0.005424683084631176 
-0.00716077877883035 
-0.008235339689843583 
-0.008235339689843614 
-0.008235339689843614 
-0.008235339689843614 
-0.008235339689843614 
-0.008235339689843614 
-0.008235339689843614 
-0.008235339689843614 
-0.008235339689843614 
-0.008235339689843614 
-0.008235339689843614 
-0.008235339689843614 
-0.008235339689843614 
-0.008235339689843614 
-0.008235339689843614 
-0.008235339689843614 
-0.008235339689843614 
0 
-0.0005452023495300557 
-0.001041662805198265 
-0.0009946372007211927 
-0.0009946372007211927 
-0.0009946372007211927 
-0.0009946372007211927 
-0.0009946372007211927 
-0.0009946372007211927 
-0.0009946372007211927 
-0.0009946372007211927 
-0.0009946372007211927 
-0.0009946372007211927 
-0.0009946372007211927 
-0.0009946372007211927 
-0.0009946372007211927 
-0.0009946372007211927 
-0.0009946372007211927 
-0.0009946372007211927 
-0.0009946372007211927 
0 
-0.003905349392462116 
-0.006991137678277777 
-0.007661303148664285 
-0.007661303148664323 
-0.007661303148664323 
-0.007661303148664323 
-0.007661303148664323 
-0.007661303148664323 
-0.007661303148664323 
-0.007661303148664323 
-0.007661303148664323 
-0.007661303148664323 
-0.007661303148664323 
-0.007661303148664323 
-0.007661303148664323 
-0.007661303148664323 
-0.007661303148664323 
-0.007661303148664323 
-0.007661303148664323 
0 
-0.001869746523925356 
-0.003685783950220848 
-0.003959177876327059 
-0.00458833794545245 
-0.00458833794545245 
-0.00458833794545245 
-0.00458833794545245 
-0.00458833794545245 
-0.00458833794545245 
-0.00458833794545245 
-0.00458833794545245 
-0.00458833794545245 
-0.00458833794545245 
-0.00458833794545245 
-0.00458833794545245 
-0.00458833794545245 
-0.00458833794545245 
-0.00458833794545245 
-0.00458833794545245 
0 
-0.006358855193667726 
-0.006301118801767823 
-0.007834960176729104 
-0.00880651391352162 
-0.008423730995448542 
-0.008423730995448542 
-0.008423730995448542 
-0.008423730995448542 
-0.008423730995448542 
-0.008423730995448542 
-0.008423730995448542 
-0.008423730995448542 
-0.008423730995448542 
-0.008423730995448542 
-0.008423730995448542 
-0.008423730995448542 
-0.008423730995448542 
-0.008423730995448542 
-0.008423730995448542 
0 
-0.008628074896395575 
-0.009756388994614455 
-0.01036339113653202 
-0.01036339113653202 
-0.01036339113653202 
-0.01036339113653202 
-0.01036339113653202 
-0.01036339113653202 
-0.01036339113653202 
-0.01036339113653202 
-0.01036339113653202 
-0.01036339113653202 
-0.01036339113653202 
-0.01036339113653202 
-0.01036339113653202 
-0.01036339113653202 
-0.01036339113653202 
-0.01036339113653202 
-0.01036339113653202 
0 
-0.002594020461804122 
-0.006896938411236114 
-0.009960606538008975 
-0.01107040131689407 
-0.01144950740846173 
-0.01237264802297368 
-0.01247160161517478 
-0.01257055520737586 
-0.01257055520737586 
-0.01257055520737586 
-0.01257055520737586 
-0.01257055520737586 
-0.01257055520737586 
-0.01257055520737586 
-0.01257055520737586 
-0.01257055520737586 
-0.01257055520737586 
-0.01257055520737586 
-0.01257055520737586 
0 
-0.009121624669234763 
-0.009357101278072997 
-0.009324711958866418 
-0.009646894943184282 
-0.009871302828766937 
-0.009871302828766937 
-0.009871302828766937 
-0.009871302828766937 
-0.009871302828766937 
-0.009871302828766937 
-0.009871302828766937 
-0.009871302828766937 
-0.009871302828766937 
-0.009871302828766937 
-0.009871302828766937 
-0.009871302828766937 
-0.009871302828766937 
-0.009871302828766937 
-0.009871302828766937 
0 
-0.007738919376485105 
-0.01041726193585996 
-0.01103294825786847 
-0.01123185198375588 
-0.01122004468993998 
-0.01122004468993998 
-0.01122004468993998 
-0.01122004468993998 
-0.01122004468993998 
-0.01122004468993998 
-0.01122004468993998 
-0.01122004468993998 
-0.01122004468993998 
-0.01122004468993998 
-0.01122004468993998 
-0.01122004468993998 
-0.01122004468993998 
-0.01122004468993998 
-0.01122004468993998 
0 
0.002276843945603364 
0.005571638835393563 
0.007383383215907051 
0.007405196514304793 
0.00738300893081908 
0.00738300893081908 
0.00738300893081908 
0.00738300893081908 
0.00738300893081908 
0.00738300893081908 
0.00738300893081908 
0.00738300893081908 
0.00738300893081908 
0.00738300893081908 
0.00738300893081908 
0.00738300893081908 
0.00738300893081908 
0.00738300893081908 
0.00738300893081908 
0 
-0.002099191464984138 
-0.005186285343553004 
-0.005234367774082725 
-0.004864353463413811 
-0.004864353463413813 
-0.004864353463413813 
-0.004864353463413811 
-0.004864353463413811 
-0.004864353463413811 
-0.004864353463413811 
-0.004864353463413811 
-0.004864353463413811 
-0.004864353463413811 
-0.004864353463413811 
-0.004864353463413811 
-0.004864353463413811 
-0.004864353463413811 
-0.004864353463413811 
-0.004864353463413811 
0 
-0.007345579642321225 
-0.01238201379935974 
-0.01229690840098144 
-0.01438298279339326 
-0.01494870415004944 
-0.01603464581579806 
-0.01646608524194684 
-0.01682068768168899 
-0.01682068768168902 
-0.01682068768168902 
-0.01682068768168902 
-0.01682068768168902 
-0.01682068768168902 
-0.01682068768168902 
-0.01682068768168902 
-0.01682068768168902 
-0.01682068768168902 
-0.01682068768168902 
-0.01682068768168902 
0 
0.0008183379816896371 
-0.000684072191517767 
-0.004464954879194621 
-0.005017581085935765 
-0.005017581085935765 
-0.005017581085935765 
-0.005017581085935765 
-0.005017581085935765 
-0.005017581085935765 
-0.005017581085935765 
-0.005017581085935765 
-0.005017581085935765 
-0.005017581085935765 
-0.005017581085935765 
-0.005017581085935765 
-0.005017581085935765 
-0.005017581085935765 
-0.005017581085935765 
-0.005017581085935765 
0 
-0.002353227444766226 
-0.002944884785766174 
-0.004242861616421413 
-0.009692046391971488 
-0.0116322049479008 
-0.01717036651222722 
-0.02044754984384107 
-0.02281453024728032 
-0.0236983523864291 
-0.02488651978565762 
-0.02535101490115324 
-0.02575626898921731 
-0.02575626898921731 
-0.02575626898921731 
-0.02575626898921731 
-0.02575626898921731 
-0.02575626898921731 
-0.02575626898921731 
-0.02575626898921731 
0 
-0.006480151715548306 
-0.01411918053111436 
-0.02017239602990522 
-0.02126305902584439 
-0.02088541133189782 
-0.02126860207085902 
-0.02145247092680913 
-0.02163633978275946 
-0.02173529337496044 
-0.02183424696716158 
-0.02193320055936256 
-0.02193320055936256 
-0.02193320055936256 
-0.02193320055936256 
-0.02193320055936256 
-0.02193320055936256 
-0.02193320055936256 
-0.02193320055936256 
-0.02193320055936256 
0 
-0.004995127326466318 
-0.0121966949910537 
-0.01499492395415676 
-0.01647211707821435 
-0.01655771981331558 
-0.02367072394665991 
-0.03150823957331576 
-0.04472955579597616 
-0.05443007055428385 
-0.06441405974226938 
-0.06932593811892035 
-0.07302889368018152 
-0.07813700354265396 
-0.08289153001207868 
-0.08495612178214647 
-0.08759701960898693 
-0.08982122094467966 
-0.09168511815653173 
-0.09348087298536005 
-0.09418404333215917 
-0.1009714662431152 
-0.1108403897596108 
-0.1203820635082686 
-0.1257117474438144 
-0.128756990977654 
-0.1314519272441627 
-0.1336578191559052 
-0.1342983904135689 
-0.1346959835120525 
-0.1348345788490346 
-0.1348345788490346 
-0.1348345788490346 
-0.1348345788490346 
-0.1348345788490346 
-0.1348345788490346 
-0.1348345788490346 
-0.1348345788490346 
-0.1348345788490346 
-0.1348345788490346 
0 
-0.003687936081865891 
-0.004877523290962538 
-0.005254415085104425 
-0.005408120172226219 
-0.005408120172226219 
-0.005408120172226219 
-0.005408120172226219 
-0.005408120172226219 
-0.005408120172226219 
-0.005408120172226219 
-0.005408120172226219 
-0.005408120172226219 
-0.005408120172226219 
-0.005408120172226219 
-0.005408120172226219 
-0.005408120172226219 
-0.005408120172226219 
-0.005408120172226219 
-0.005408120172226219 
0 
-0.003540375520869856 
-0.005996997964291053 
-0.008821224653028034 
-0.008821224653028027 
-0.008821224653028027 
-0.008821224653028027 
-0.008821224653028027 
-0.008821224653028027 
-0.008821224653028027 
-0.008821224653028027 
-0.008821224653028027 
-0.008821224653028027 
-0.008821224653028027 
-0.008821224653028027 
-0.008821224653028027 
-0.008821224653028027 
-0.008821224653028027 
-0.008821224653028027 
-0.008821224653028027 
0 
-5.273258540665954e-005 
-0.001225770460030496 
-0.001083078410782498 
-0.001083078410782501 
-0.001083078410782501 
-0.001083078410782501 
-0.001083078410782501 
-0.001083078410782501 
-0.001083078410782501 
-0.001083078410782501 
-0.001083078410782501 
-0.001083078410782501 
-0.001083078410782501 
-0.001083078410782501 
-0.001083078410782501 
-0.001083078410782501 
-0.001083078410782501 
-0.001083078410782501 
-0.001083078410782501 
0 
-0.004368353431196464 
-0.006888658903522106 
-0.008994823031412682 
-0.009160448092234692 
-0.009160448092234692 
-0.009160448092234692 
-0.009160448092234692 
-0.009160448092234692 
-0.009160448092234692 
-0.009160448092234692 
-0.009160448092234692 
-0.009160448092234692 
-0.009160448092234692 
-0.009160448092234692 
-0.009160448092234692 
-0.009160448092234692 
-0.009160448092234692 
-0.009160448092234692 
-0.009160448092234692 
0 
0.002738850680099705 
0.003869992067167222 
0.003869992067167222 
0.003869992067167222 
0.003869992067167222 
0.003869992067167222 
0.003869992067167222 
0.003869992067167222 
0.003869992067167222 
0.003869992067167222 
0.003869992067167222 
0.003869992067167222 
0.003869992067167222 
0.003869992067167222 
0.003869992067167222 
0.003869992067167222 
0.003869992067167222 
0.003869992067167222 
0.003869992067167222 
0 
0.009928208338793333 
0.01042680365277362 
0.01094384747137812 
0.01138067797711557 
0.01162268207602985 
0.0118646861749441 
0.0118646861749441 
0.0118646861749441 
0.0118646861749441 
0.0118646861749441 
0.0118646861749441 
0.0118646861749441 
0.0118646861749441 
0.0118646861749441 
0.0118646861749441 
0.0118646861749441 
0.0118646861749441 
0.0118646861749441 
0.0118646861749441 
0 
0.0002293812675172995 
0.006168772317386516 
0.007200630592741644 
0.007114137519759763 
0.007029688033081889 
0.007029688033081889 
0.007029688033081889 
0.007029688033081889 
0.007029688033081889 
0.007029688033081889 
0.007029688033081889 
0.007029688033081889 
0.007029688033081889 
0.007029688033081889 
0.007029688033081889 
0.007029688033081889 
0.007029688033081889 
0.007029688033081889 
0.007029688033081889 
0 
-0.008875470405074703 
-0.01552134150827638 
-0.02010885409074391 
-0.02264333785031796 
-0.02483511619359979 
-0.02476351166998451 
-0.02468103277514952 
-0.0246810327751495 
-0.02468103277514949 
-0.02468103277514947 
-0.02468103277514948 
-0.02468103277514947 
-0.02468103277514948 
-0.02468103277514948 
-0.02468103277514948 
-0.02468103277514948 
-0.02468103277514947 
-0.02468103277514948 
-0.02468103277514948 
0 
0.001709473341548502 
0.0008034964928809171 
-0.0009033022242058963 
-0.001215056962795173 
-0.00121505696279518 
-0.001215056962795175 
-0.001215056962795175 
-0.001215056962795175 
-0.001215056962795175 
-0.001215056962795175 
-0.001215056962795175 
-0.001215056962795175 
-0.001215056962795175 
-0.001215056962795175 
-0.001215056962795175 
-0.001215056962795175 
-0.001215056962795175 
-0.001215056962795175 
-0.001215056962795175 
0 
-0.006863579693240106 
-0.00737286567535018 
-0.00737286567535018 
-0.00737286567535018 
-0.00737286567535018 
-0.00737286567535018 
-0.00737286567535018 
-0.00737286567535018 
-0.00737286567535018 
-0.00737286567535018 
-0.00737286567535018 
-0.00737286567535018 
-0.00737286567535018 
-0.00737286567535018 
-0.00737286567535018 
-0.00737286567535018 
-0.00737286567535018 
-0.00737286567535018 
-0.00737286567535018 
0 
-0.002948711949564231 
-0.002097182144574397 
-0.002964028480976661 
-0.003404541862546048 
-0.003404541862546048 
-0.003404541862546048 
-0.003404541862546048 
-0.003404541862546048 
-0.003404541862546048 
-0.003404541862546048 
-0.003404541862546048 
-0.003404541862546048 
-0.003404541862546048 
-0.003404541862546048 
-0.003404541862546048 
-0.003404541862546048 
-0.003404541862546048 
-0.003404541862546048 
-0.003404541862546048 
0 
0.002661610578487426 
8.390649992191912e-005 
0.0002389241962819351 
0.0002389241962819368 
0.0002389241962819368 
0.0002389241962819368 
0.0002389241962819368 
0.0002389241962819368 
0.0002389241962819368 
0.0002389241962819368 
0.0002389241962819368 
0.0002389241962819368 
0.0002389241962819368 
0.0002389241962819368 
0.0002389241962819368 
0.0002389241962819368 
0.0002389241962819368 
0.0002389241962819368 
0.0002389241962819368 
0 
-0.005223505028486748 
-0.004736708721859918 
-0.005362976276120877 
-0.005805134800768825 
-0.00617786994609991 
-0.00617786994609991 
-0.00617786994609991 
-0.00617786994609991 
-0.00617786994609991 
-0.00617786994609991 
-0.00617786994609991 
-0.00617786994609991 
-0.00617786994609991 
-0.00617786994609991 
-0.00617786994609991 
-0.00617786994609991 
-0.00617786994609991 
-0.00617786994609991 
-0.00617786994609991 
0 
-0.004734959316636703 
-0.005921492246074895 
-0.007239155240109573 
-0.007563922898948658 
-0.00756392289894866 
-0.00756392289894866 
-0.00756392289894866 
-0.00756392289894866 
-0.00756392289894866 
-0.00756392289894866 
-0.00756392289894866 
-0.00756392289894866 
-0.00756392289894866 
-0.00756392289894866 
-0.00756392289894866 
-0.00756392289894866 
-0.00756392289894866 
-0.00756392289894866 
-0.00756392289894866 
0 
0.002038502503163625 
0.003266433173836811 
0.002778088892578776 
0.0008181531833996533 
0.0001654137922629982 
-0.000296572855796217 
-0.0005770493195289068 
-0.0005770493195289068 
-0.0005770493195289068 
-0.0005770493195289068 
-0.0005770493195289068 
-0.0005770493195289068 
-0.0005770493195289068 
-0.0005770493195289068 
-0.0005770493195289068 
-0.0005770493195289068 
-0.0005770493195289068 
-0.0005770493195289068 
-0.0005770493195289068 
0 
-0.001472846754076778 
-0.007091858515447025 
-0.01221510319423323 
-0.0171346431127041 
-0.03101081800187452 
-0.03965668040770762 
-0.04905461232713426 
-0.05864424213937262 
-0.06639913431617397 
-0.07256745945383321 
-0.07724894696434558 
-0.07939240803542215 
-0.08105547237583186 
-0.08249265607281169 
-0.08382364817889715 
-0.08514828598168456 
-0.08647020469084446 
-0.08707509215804962 
-0.08707509215804965 
-0.08707509215804965 
-0.08911736201823048 
-0.004086507760566582 
-0.005196701689764747 
-0.005306531065411648 
-0.005408623779985375 
-0.005408623779985375 
-0.005408623779985375 
-0.005408623779985375 
-0.005408623779985375 
-0.005408623779985375 
-0.005408623779985375 
-0.005408623779985375 
-0.005408623779985375 
-0.005408623779985375 
-0.005408623779985375 
-0.005408623779985375 
-0.005408623779985375 
-0.005408623779985375 
-0.005408623779985375 
0 
0.001984671626905109 
0.005299983300771013 
0.005661825887883423 
0.005665360735741765 
0.005665360735741765 
0.005665360735741765 
0.005665360735741765 
0.005665360735741765 
0.005665360735741765 
0.005665360735741765 
0.005665360735741765 
0.005665360735741765 
0.005665360735741765 
0.005665360735741765 
0.005665360735741765 
0.005665360735741765 
0.005665360735741765 
0.005665360735741765 
0.005665360735741765 
0 
-0.01093478971082413 
-0.01379611021498235 
-0.01434605505355704 
-0.0144947780031051 
-0.01464350095265331 
-0.01464350095265331 
-0.01464350095265331 
-0.01464350095265331 
-0.01464350095265331 
-0.01464350095265331 
-0.01464350095265331 
-0.01464350095265331 
-0.01464350095265331 
-0.01464350095265331 
-0.01464350095265331 
-0.01464350095265331 
-0.01464350095265331 
-0.01464350095265331 
-0.01464350095265331 
0 
-0.001166598072187384 
-0.002034290514312679 
-0.001833443867405458 
-0.003126826889769419 
-0.007234204057397991 
-0.008879263493946783 
-0.01193747369608776 
-0.01766229925662647 
-0.01937457490432302 
-0.02135187428782986 
-0.02116330563833125 
-0.02432429776822077 
-0.02589779858022347 
-0.02871633375109491 
-0.02982379843475092 
-0.03199177529182632 
-0.0334645021202617 
-0.03351249373249136 
-0.0364781866401285 
-0.03920755084929826 
-0.04171546184643671 
-0.04075646062580565 
-0.04168962125816707 
-0.04109005024654626 
-0.04080741522752486 
-0.04031990578360797 
-0.04065729314440027 
-0.04108052498839805 
-0.04159811361003869 
-0.04178135811352561 
-0.04249180792488769 
-0.0434987663928945 
-0.04350668171910456 
-0.04326233826520118 
-0.04299511476154187 
-0.04342936139224696 
-0.04342936139224696 
-0.04342936139224696 
-0.04342936139224696 
-0.05095360126974711 
-0.05384298571008267 
-0.04979675424518892 
-0.04954250275247984 
-0.05292312515034989 
-0.06171076915497661 
-0.06430064278839229 
-0.06752011587740844 
-0.06940477812264423 
-0.07151004849255174 
-0.02299412765553446 
-0.02414508932576022 
-0.02592638364252488 
-0.02619585205823414 
-0.02640378170257094 
-0.02640378170257092 
-0.02640378170257074 
-0.02640378170257076 
-0.02640378170257079 
-0.02640378170257084 
-0.02640378170257081 
-0.02709838871750879 
-0.02581360097120083 
-0.03182690855347097 
-0.03309034649921467 
-0.03386088251529717 
-0.03355538115035892 
-0.03434287318597109 
-0.03463177083743232 
-0.03445772405084756 
-0.03445772405084756 
-0.03445772405084756 
-0.03445772405084756 
-0.03445772405084756 
-0.03445772405084756 
-0.03445772405084756 
-0.03445772405084756 
-0.03445772405084756 
-0.03445772405084756 
-0.03445772405084756 
0 
-0.007703412349135985 
-0.009690472469790056 
-0.009764178344335663 
-0.009750413330945923 
-0.009750413330945923 
-0.009750413330945923 
-0.009750413330945923 
-0.009750413330945923 
-0.009750413330945923 
-0.009750413330945923 
-0.009750413330945923 
-0.009750413330945923 
-0.009750413330945923 
-0.009750413330945923 
-0.009750413330945923 
-0.009750413330945923 
-0.009750413330945923 
-0.009750413330945923 
-0.009750413330945923 
0 
-0.001116868532378897 
0.00147550853795628 
0.001095680536157784 
0.0009008956621793159 
0.0009008956621793159 
0.0009008956621793159 
0.0009008956621793159 
0.0009008956621793159 
0.0009008956621793159 
0.0009008956621793159 
0.0009008956621793159 
0.0009008956621793159 
0.0009008956621793159 
0.0009008956621793159 
0.0009008956621793159 
0.0009008956621793159 
0.0009008956621793159 
0.0009008956621793159 
0.0009008956621793159 
0 
0.005944271463178811 
0.005387192997773357 
0.005685777182831483 
0.005685777182831481 
0.005685777182831481 
0.005685777182831481 
0.005685777182831481 
0.005685777182831481 
0.005685777182831481 
0.005685777182831481 
0.005685777182831481 
0.005685777182831481 
0.005685777182831481 
0.005685777182831481 
0.005685777182831481 
0.005685777182831481 
0.005685777182831481 
0.005685777182831481 
0.005685777182831481 
0 
0.0061823804726682 
0.007362932134949755 
0.01005909976455022 
0.007718907371211989 
0.006592990545621414 
0.006522643156291883 
0.006252321475808106 
0.005981999795324318 
0.005981999795324318 
0.005981999795324318 
0.005981999795324318 
0.005981999795324318 
0.005981999795324318 
0.005981999795324318 
0.005981999795324318 
0.005981999795324318 
0.005981999795324318 
0.005981999795324318 
0.005981999795324318 
0 
0.002402377363163011 
0.001354757691264643 
-0.0008276098960623492 
-0.001521813706244822 
-0.001521813706244822 
-0.001521813706244822 
-0.001521813706244822 
-0.001521813706244822 
-0.001521813706244822 
-0.001521813706244822 
-0.001521813706244822 
-0.001521813706244822 
-0.001521813706244822 
-0.001521813706244822 
-0.001521813706244822 
-0.001521813706244822 
-0.001521813706244822 
-0.001521813706244822 
-0.001521813706244822 
0 
-0.001311212697808708 
-0.003221233185257343 
-0.006794128541263226 
-0.00891764512509053 
-0.009765988437680111 
-0.008696547162520048 
-0.008432351795191688 
-0.00816815642786296 
-0.007903961060534764 
-0.007903961060534764 
-0.007903961060534764 
-0.007903961060534764 
-0.007903961060534764 
-0.007903961060534764 
-0.007903961060534764 
-0.007903961060534764 
-0.007903961060534764 
-0.007903961060534764 
-0.007903961060534764 
0 
