solver_type L2R_L2LOSS_SVC
nr_class 2
label 1 -1
nr_feature 6144
bias 1
w
0.0007622632851215937 
0.00466876428628065 
0.000146468361392233 
-0.01263040637716154 
0.010862064286189 
-0.006639511885438488 
-0.008902697922163404 
-0.002325121510455764 
0.000942232095930924 
0.007150492689932179 
0.003822846774208315 
-0.003495766440568424 
0.0001520048569215053 
-0.01094336537176534 
0.009072523323918657 
0.006892870111104839 
0.005710343777813653 
-0.01958431115963419 
-0.006688046798832582 
-0.004427472766487141 
0.002585190134123349 
-0.001006633213583101 
0.009646718677087104 
-0.005540779385828094 
0.01190141922326012 
0.009281985793762493 
-0.01189564659834552 
0.002874079233104427 
-0.001952421962068452 
0.003087343817730424 
0.01984453405495145 
-0.006340052230214584 
-0.003433895793665136 
-0.0051209114746644 
0.006484469586749924 
0.0006553890847995396 
-0.01204864212469788 
-0.005807442777834019 
-0.0252512258124509 
0.008020931323399021 
0.004336669246743496 
0.007607527471259915 
0.004786494168562345 
0.003246869124164796 
0.02801262506708618 
0.004718114331018523 
0.003389761406810876 
0.003755630928220022 
-0.009320917520050797 
-0.006169357442079664 
0.0171856939147062 
-0.01035910538289368 
0.01960113271450517 
0.005492693208959837 
-0.005303182196972728 
0.0003116617119953383 
0.01942427980015396 
0.006995575529586316 
-0.00205871370097648 
0.009988612315739576 
0.005149126207929699 
0.01108102381652037 
-0.01908653365879114 
0.0009538557324654739 
0.0005431724419518543 
0.02229335944710909 
-0.008510956694737806 
0.02932881914936344 
-0.002331396922049934 
-0.02311539804647898 
0.02011427113517617 
0.01161324845656016 
-0.003223828059088035 
0.01040868019833339 
0.003041427680433343 
-0.01667631046864903 
-0.01909046008598222 
-0.009178934302370031 
-0.01030924904952062 
-0.02402283702493745 
0.007791696569251831 
0.002662634710536309 
-0.008688667338628052 
0.003049674713861601 
-0.002289391879572004 
0.02638559234414822 
0.009096465638548818 
-0.002267263074554346 
-0.009442234057070424 
0.007481110325700232 
-0.02103842822733087 
0.008989201226678244 
-0.02457845500310139 
-0.02215143728020775 
-0.007239504751751831 
-0.005319094580832347 
-0.01863482024522945 
-0.02334431373306808 
-0.01422918200611028 
-0.03005087424835567 
0.001579812563343396 
0.02079225847998349 
0.005287655569032008 
0.009350462244494848 
-0.0009411828145732938 
0.004116396418927608 
-0.005018628725835891 
-0.009367365105841113 
-0.0058676937128913 
-0.02624015464882602 
0.01699372348910442 
-0.008622293221386695 
-0.01168651803936609 
0.02219007313949477 
-0.009807530882796735 
0.008116705184976916 
0.003768417838731815 
-0.01539420969075429 
-0.03316361190814679 
-0.02077039481851418 
-0.01348619872028798 
-0.00679881004126089 
-0.02703700778573646 
-0.009461953353096875 
-0.0009236245699391938 
-0.005866123523743144 
-0.004242008358164418 
-8.782540687522116e-05 
-0.008418108825283668 
-0.002452014941182319 
-0.0004883409560162169 
-0.01165351534072025 
-0.02667763686829603 
0.005092987911865593 
-0.004125974747857043 
-0.01718865790622513 
-0.002242189172500867 
0.007478857960250862 
-0.01047366525207153 
0.004736686249793597 
-0.02863987730110949 
-0.01087624693729253 
-0.005744626699237912 
0.0108080525254255 
-0.004258058509140441 
-0.008121122845210257 
-0.01175480368819784 
0.02934353369533372 
-0.003388753315048627 
-0.002266211379546447 
0.001293960911877644 
0.003562968757354763 
0.004365702267388372 
-0.009936744415951571 
0.008416478247740966 
-0.002933395641874622 
0.0166200617658405 
0.01111643306052624 
0.0290060666729095 
-0.005565531260312778 
-0.02030964695875058 
-0.02411694027435167 
-0.02313610301473842 
-0.01598030866617895 
0.006301659192788622 
0.004304006904426391 
-0.007942700932396834 
-0.01229011879942328 
-0.0022866839637963 
0.006009222337312309 
0.01825624807806162 
-0.007017680345006294 
-0.01434209373669672 
-0.01068906794916637 
-0.009133944318763127 
0.007304058240143209 
-0.02862222021988265 
0.003142172720923667 
-0.002279208055437942 
0.003151656369742434 
-0.00388119951206199 
-0.009499930885502968 
-0.0100614987424692 
-0.01381914932737667 
-0.004037562208263787 
0.03817947701239305 
0.001601001433525993 
-0.01013179570598928 
-0.009115041598163268 
-0.01274241361685773 
-0.03565445882838592 
-0.006817119764426143 
-0.01117589869264602 
-0.001682600984067582 
-0.0203710649874772 
-0.001308179252199765 
-0.02643965172684879 
0.02180671577228887 
0.02433384555264653 
0.02296104161264945 
-0.008555527434974921 
-0.007067650292959311 
-0.01947201465226971 
-0.003148509033954615 
0.002532545024439853 
-0.0025520689139585 
-0.0277413434679432 
0.00149612354436917 
-0.01556188949898112 
-0.01811279949400269 
0.00321155960285161 
-0.01555603862473352 
-0.002310692369150832 
7.000394480684315e-05 
-0.006261089254815935 
-0.004621452999287286 
-0.02465413886667263 
0.003594283181438787 
0.03231709420951005 
0.003712235695552082 
-0.01642023635975143 
-0.0109602665563874 
0.001204183695727896 
-0.004676855169358975 
-0.002503141707220852 
0.02741078284066369 
0.0006474494003694827 
-0.005527918433461747 
-0.0147725990116989 
0.01476743908197633 
0.00827496282072086 
0.007355930948033172 
-0.008844016943995234 
0.004594152406343312 
-0.01879026827742149 
-0.003328452427215764 
-0.007130124977685404 
-0.01095778207423767 
-0.01403229603126188 
0.006763766570920627 
0.005770447485010574 
-0.006737551147530655 
-0.002555109193809207 
0.01798901367264298 
0.003030900441649417 
-0.00307757854266317 
-0.002407139280231126 
-0.001845164692272453 
0.01998959649440986 
-0.0002465676494784367 
0.007021777566298198 
0.001169982445490792 
0.003104554555258509 
-0.003843935150292673 
-0.02141601191242051 
0 
0.000323208474923808 
0.008026055913967049 
-0.001233117735735031 
0.001556317416762215 
0.002192025795273355 
0.01728844816618008 
-0.0004052997075057068 
-0.002968909447347381 
-0.004050173984509865 
0.0004357523265643063 
-0.001510519562822464 
-0.007534641297525713 
-0.003243840905097698 
0.005693580819753688 
-0.0135768857544864 
-0.004412828680504672 
-0.002082735230020463 
-0.01400551094298311 
0.007557989915997008 
-0.005349381659527958 
0.01453952193575714 
0.006637929533801779 
0.01521414719784442 
-0.001691277952519122 
-0.003032813664963971 
0.009387877379984139 
0.006069644956336717 
-0.0048256356510733 
-0.00912900914905136 
-0.0005547879304323529 
-9.036193715747123e-05 
-0.0003358526299037863 
0.005090515974648218 
-0.002629232481917799 
-0.002651515660666728 
0.006488441880787836 
-0.002235482754530583 
0.0004033606946196829 
0.005889330574318858 
0.003898398887374884 
0.001339941298239275 
0.00248403765816153 
0.005370993106823947 
8.89775105030671e-05 
0.001798495872089036 
0.02103832574197033 
0.009958561496807815 
-0.00175289042281375 
0.008039889073606655 
-0.0005028867366397128 
0.01863853251198067 
0.001368019507632269 
0.03982756911405731 
0.01864126975501605 
0.01232871802144084 
0.005401857630676559 
0.02210508960792708 
-0.003713866546985953 
0.00753051780062071 
-0.003519963308788603 
-0.0125898077373824 
-0.003646892071897339 
0.002542448364158165 
-0.004501616795336422 
0.0004757551953022227 
0.002724782071040941 
-0.02165657429558158 
-0.002217883686022474 
-0.0004923267917312262 
-0.002168862875181617 
0.008981930008572947 
0.003535066653069774 
-0.003928793680625963 
0.003445102260501653 
-0.004160644457339708 
-0.0145771497069749 
0.01570668724068938 
-0.02449933100833677 
-0.01581498323306627 
0.001732925643650798 
-0.005829178163160761 
0.002273405928412802 
0.01171090284291867 
-0.009459574386504313 
-0.003947186327767158 
-0.002726328725461325 
0.003257572922968043 
0.02058150824055299 
0.01389106247812202 
0.01104461876100955 
-0.01382825659086745 
0.01347471385504709 
-0.02000055842815925 
-0.04791016844132055 
-0.006338875208149554 
-0.006908233083595707 
0.004654629890347091 
-0.02373175503983332 
-0.001707628425535699 
-0.01124634485561457 
-0.0132378368279049 
0.004849161085959254 
0.01288963847488762 
0.009286771330189838 
0.0005258727086287236 
0.003023725973594813 
0.009391429849178836 
0.002003226192704594 
0.004867362589016768 
-0.006342198831764356 
-0.01093065601190506 
-0.008471500140765705 
-0.006450334250155742 
0.007390760035724904 
-0.01070520760229283 
-0.01695124875755669 
0.01373187133415663 
-0.001357372325327423 
-0.01108147756967176 
-0.01574793964491064 
0.0006590807144927722 
0.004362342833594371 
0.00582593333663039 
0.02076742676566478 
0.009547540144046877 
-0.01576420572865865 
-0.01356868006275686 
-0.001738170179126795 
0.0006603452539376089 
-0.002724085328223071 
0.0003331630389046319 
0.006381336243327736 
-0.0001349341338699517 
0.03280372142519151 
0.006352396637673913 
0.009206990551366163 
0.008703429994927648 
0.01618714603575087 
0.01186562000268239 
0.001729101476625537 
-0.02546859762344005 
-0.006842937966722165 
-0.002999028312186424 
0.004775780052258594 
0.004493933958910973 
0.006864275619968346 
-0.008427292036445565 
0.02539051508706818 
-0.005983653512969808 
-0.006946754156469869 
0.0008463601627612507 
0.005718918783744748 
0.0489045947368958 
-0.02342414977370598 
-0.01788100030509199 
0.001515543168985767 
0.006414590348363508 
0.01501639966467859 
0.03657207340650854 
0.007148611954093746 
-0.02489119812280386 
0.001497231231177095 
-0.0161286454740496 
-0.008944491109970339 
-0.01927213024287276 
-0.005742526197230792 
0.006632392325813203 
-0.002966114994657317 
-0.00806184815597963 
-0.008271866802904272 
-0.01218121264508516 
0.01645329457298136 
-0.000447342039308741 
-0.01976357204013309 
-0.003866618970892312 
0.01856598814564313 
0.01447706732601959 
0.02467585392837682 
-0.013614873137732 
0.003292074677001684 
-0.007834504769859576 
-0.01753880252878481 
-0.003761111545970156 
0.003769345516286737 
-0.002806397474824097 
0.006138684543907952 
-0.01209950960509016 
0.001304170997270733 
-0.002120258338257131 
-0.006226160130106468 
-0.001534026679640659 
-0.005352719997502284 
0.00819603610536144 
0.006750817443226231 
-0.02931777452090377 
-0.0006874089417622575 
-0.005607491703148069 
-0.00552796550221697 
0.002943755048435093 
-0.009235325105833452 
0.0005251254355345381 
0.0247848724199895 
-0.03100258491404237 
0.02625065131090487 
-0.005475016553002014 
-0.008919143756811718 
-0.001732591012150571 
-0.0006514163849000153 
0.002530614079608096 
0.01425539932949936 
-0.01190208887064691 
-0.0145481613978449 
0.0002737975666029291 
0.01476466961142539 
0.002161023331083327 
-0.01137747670962319 
0.001373733360593366 
-0.001105721770961833 
0.01488672264320564 
-0.008719658300349062 
0.03699539973087016 
0.01820372145925576 
-0.002830981051359031 
0.006334784604217275 
-0.001979940250127412 
0.006530980112568245 
0.0005214183292625856 
0.004153730108832202 
0.00636821573319583 
0.004849954987161256 
-0.008026393087653582 
-0.004067006587011053 
-0.002988318513680508 
0.007199619217079002 
-0.03925902731415611 
-0.01268247237105023 
-0.008135843940936844 
-0.01221591944714137 
0.004929212237881243 
-0.000792924802006433 
-0.00087881713079177 
-0.009838027592792835 
-0.02537695085348929 
0.004783087414947436 
0.006398231679496464 
0.003301517122907484 
-0.002560368510876822 
-0.001619892546761873 
0.006252606798066424 
-0.002939120313283609 
0.004368852469864615 
0.006309803117772907 
0.0004267327321199587 
-0.003329210913715644 
-0.007770676578838489 
0 
-0.0001716077366274648 
0.002279083257496995 
0.001246045749571059 
-0.006083211440385839 
0.002833741152804085 
-0.003941028514697476 
0.004132928101485585 
0.001008513864237318 
-0.003957753342909744 
-0.01306781717644737 
-0.02591071406479796 
-0.01277332827017451 
0.004863562687417066 
0.02751904380850563 
-0.003362135168494558 
-5.032387096004459e-06 
-0.00101388944818456 
-0.01520237790364627 
0.02199085758621111 
-0.001027352422787358 
0.01110719746533089 
-0.01478502334567192 
0.006481996729236726 
-0.005163074457695282 
0.02359388533694849 
0.01044565832422675 
-0.001468632606792287 
-0.005553716880530349 
0.01836130828855749 
0.01539356522581791 
0.002554872741224656 
0.003962597849594274 
0.004063947140315475 
-0.01746941250423392 
0.02923418249288655 
0.00765301033849425 
-0.0276992150400913 
-0.01419543877155195 
-0.01741819188426473 
-0.01461204771387766 
0.0009708996949114528 
0.0005174030310319805 
0.00484948467243864 
0.001126992187559178 
0.01065092588838647 
0.009077569169541142 
-0.0051837312144115 
-0.003496823262317783 
0.001774202567304678 
-0.02562027276982516 
-0.006225540960404339 
-0.02284872102286736 
-0.001042742866738769 
0.005898094215021784 
-0.01312167367695151 
-0.02256835894543692 
0.008181151959939164 
0.01946703772422561 
0.01176684072958459 
0.01493741737642863 
0.014252832254214 
0.01890484277851096 
0.01277308086427831 
-0.00691712134870294 
-0.002251356700402076 
-0.005318919230300839 
-0.007507343770006504 
-0.005835590474316301 
0.0138215255391577 
-0.005578915185201547 
-0.02118951282123462 
-0.005975848287583129 
0.01040392465456693 
-0.01647542776801958 
-0.004665066947141379 
-0.01821561803680878 
-0.01380018944769168 
-0.01506994940911384 
0.003126266436294463 
0.006529013462898984 
-0.01719518492866347 
0.002916780494116087 
0.01089866280607447 
-0.01170101470152508 
0.002336986208478168 
-0.009294315766900544 
-0.01881454300485962 
-0.01881343446418254 
0.01489551764347553 
0.003421565904783302 
-0.003318634982747345 
-0.009980990923341234 
-0.01632357123719922 
-0.006038286126769663 
0.002780171644339546 
-0.003154760424893429 
-0.004558234957842234 
-0.01928066932487715 
-0.002744951701570788 
0.004484918680928131 
-0.01219698226523802 
-0.007676629162946354 
-0.03569157188317444 
-0.01334299189026542 
-0.01250197060233808 
-0.0004329788876382814 
0.001362087968449017 
-0.001002412850418556 
0.01145657141716824 
-0.01354324797040747 
-0.001295612164929649 
-0.006158274647314755 
-0.01297930558863775 
-0.01868367264445302 
-0.0131290966202402 
-0.009280943396907097 
-0.0157250623074825 
0.0307728080629363 
0.003801187390745195 
-0.0007386800658595908 
0.005909319437954729 
-0.01921833434441491 
0.00937970944916996 
-0.00645677619341414 
-0.01018805847796532 
0.006919306162075742 
-0.007891025965045231 
-0.005803375171037872 
-0.004003582640066378 
-0.01997706845866239 
0.0009553516408811414 
-0.004378374431107603 
0.009285854169276827 
0.02330101815675173 
0.006745392414451149 
0.003626869889169101 
0.004163135427359097 
0.005930309533389535 
0.01303029023782949 
0.01459319979799587 
-0.01739659635141197 
0.004090724464286197 
0.01217982573004433 
-0.001190641586394873 
0.0006310436304143556 
0.005864810494444491 
0.01275678753464024 
-0.01999018798220111 
0.0005010166255660704 
0.005266367846843318 
0.003815403379844456 
0.008646447688000884 
-0.003069989535361184 
-1.02869916522945e-05 
-0.01665939667696148 
-0.004461904915463505 
0.04845275841987791 
0.01386058954993591 
-0.01284892603948678 
0.003237068217823648 
-0.006028345143089902 
-0.005479792326725456 
-0.02467583643040081 
-0.001382269981410339 
-0.002813415396143304 
-0.006352351419772204 
-0.01242103975610461 
0.02897564286176427 
0.0004892386767478626 
-0.009646672330334135 
-0.03178948931941376 
-0.0001306267711427753 
-0.009574495647158315 
0.007567619397952133 
0.01288366563052824 
0.02533934175719447 
0.0006293141385368226 
0.02130952046813898 
-0.0314090249583682 
-0.01134041896610647 
-0.004499834011222842 
0.01448044927808284 
-0.004622510875472532 
-0.01214207667936923 
0.002301709813539852 
-0.01730580846327646 
-0.013744217885829 
0.00425018730929613 
-0.03273858853310616 
0.007460499600697374 
0.005627122960439727 
-0.004239662239116954 
-0.002443431289337395 
-0.005767135213035918 
0.0003784296041079812 
-0.0005871275649450728 
-0.01513344689277108 
0.001249224501995742 
-0.001745076512266911 
0.008909621348898234 
-0.004211653462438532 
0.02510210433944174 
-0.01657055261715237 
0.006248696626648466 
-0.05061042227289631 
0.02099715781141115 
-0.03373372302028067 
-0.005036351893365459 
-0.004959724996985504 
0.002541218337145079 
-0.05843088730910571 
-0.003362771843229259 
0.0008048932957636984 
0.02349205519248038 
-0.005384223670426386 
-0.01472960327093679 
-0.02183675267588635 
-0.004632838577205739 
0.003950687727877458 
-0.01992194325915051 
0.003506433631313601 
-0.001642982361691884 
-0.0134647961413357 
0.006929378802660134 
-0.004012408953802107 
0.02138133016791953 
-0.01649449238935872 
-0.0008278839386083406 
-0.01603329194983158 
0.0104893332240313 
0.0003515274538090702 
0.005477489482878697 
-0.006164274315563891 
0.004331331253677506 
-0.02874476218805789 
-0.01160282849063169 
0.004823395904295954 
0.009843049154092771 
-0.0136183812271778 
-0.001474849518986795 
-0.002175883692504293 
0.01165249309611211 
-0.001078440452563073 
0.004716241742103625 
0.0002225222499169457 
0.007426439675888545 
-0.01463264185411068 
0.004690992684554369 
0.003481408321361876 
-0.003125516011786662 
-0.007003141438005004 
0.006157416586972047 
0.002040065166322729 
-0.008099132262854514 
0.01532637082615333 
0 
0.0003207089204548568 
0.003423605159707222 
0.001065729561125892 
0.004039802673329697 
-0.0001869634878145256 
-0.00249493950710024 
-0.003993119002264366 
0.001418801981024959 
-0.004070250275192757 
-0.007720292276838055 
-0.001874875799861449 
-0.01210937830341617 
0.002217761123890703 
0.002329149774251282 
0.009571050419741324 
0.001433926461529725 
-0.00152769643137713 
0.01877914777157216 
0.0119517640416576 
-0.007491987554790931 
-0.001576798756323101 
-0.007348481311460108 
0.002325854924030589 
-0.002432285153443208 
-0.003230324285800195 
0.02828365097054961 
-0.001578750796155239 
-0.01161518405691705 
0.02985342674057708 
-0.004414380117534275 
-0.03609461448089041 
-0.0107408493496424 
-0.002029816718014722 
0.02425857445945217 
-0.002127179919902402 
-0.02391054616604589 
-0.01243982860225048 
-0.01602397562293072 
-0.004644901104015027 
-0.005778307616896847 
0.008601407718973933 
0.009235903287021773 
-0.004438475877645807 
0.001059030508934144 
-0.01025404796892086 
-0.004847812108232558 
-0.02173857554238814 
0.004637419750407537 
0.0009923881347329118 
0.00755100941985823 
-0.01805489869533912 
-0.0005887852211437804 
0.02532673064974482 
-0.0009342538419835064 
-0.00604558453928379 
0.006683211654295564 
-0.004268304887454298 
-0.01281693741489807 
0.01218423553294344 
0.01028078842267627 
0.02679232213778796 
0.02700411636180189 
0.01460856956678885 
0.008258065427882079 
0.00339102836195251 
-0.0008698025277375821 
-0.008498965897599835 
-0.002100681201864576 
0.003530396871496155 
-0.02687057554763676 
0.01913884231284965 
-0.003604913471910262 
-0.006967837422502289 
0.0006588152937107639 
-0.003696001625641874 
-0.01449831518844819 
-0.01039346803478989 
-0.02738308856098787 
-0.0003621400942268409 
0.001615286155482392 
0.01012077664114451 
0.01445501243801661 
-0.01633010728140905 
0.01505850293452767 
0.0004513600376095663 
-0.02726432730086453 
-0.02126484844888431 
-0.006802927986321702 
-0.005575898506181725 
-0.02170059134564702 
-0.001624579476703784 
0.003636763290162878 
-0.004274141779267254 
-0.01738293907445347 
-0.01473061380419662 
-0.00983786819023646 
-0.003708717064112293 
-0.002495940809996364 
-0.003231900258861282 
-0.005511063694793479 
0.00851511604252057 
0.0179218964902923 
0.02123933666454948 
0.001990967078381313 
0.005680074188073897 
0.001029235119824275 
-0.01103531003804618 
-0.0004832456709811805 
0.01602939131700171 
-0.005433187289474985 
0.006860711527239751 
-0.003909570950369771 
-0.005016557270430422 
-0.0004750312120047919 
-0.02141855980287496 
-0.008899717958425825 
0.009053594873973553 
-0.009184416693536541 
-0.03146857888027198 
-0.0005704745451958561 
-0.005729413451238448 
0.003771171047413078 
-0.001157688619836368 
0.002602621012898289 
0.001955028519660379 
-0.006527588870455773 
0.003824685157314263 
-0.002667247162736511 
0.01221808334837042 
0.002648245318131439 
-0.004701488096002637 
0.005859783092645497 
-0.02124515553502466 
0.001048793545173993 
0.0173131346776424 
-0.001884065607750938 
0.0109629210202546 
-0.0180415985682143 
0.008034917026315256 
-0.01886702340460423 
-0.003871568755549733 
0.001211387698410677 
-0.0005883911350903827 
-0.004833276964752134 
0.002839831853241811 
-0.001998157218453027 
-0.001430125488677261 
0.003864025495815824 
0.01085087636617457 
0.03340942419068815 
0.004199507524926654 
0.01380294023774734 
-0.01910852341102903 
0.001359192188567644 
-0.001061107571034886 
0.007703151938369177 
-0.01385008701701954 
0.01159516041200029 
-0.005626931428543197 
-0.001026021420800237 
0.004099067758405064 
-0.01581775820799913 
-0.01436392421644477 
-0.02028079561704466 
0.01182088020534266 
0.007114604019322747 
-0.003860426557284606 
0.01128124160929661 
0.009949372946296402 
0.02631736286365344 
-0.003546620962773314 
0.0004187913342454849 
6.743328461615194e-05 
0.01539871207556675 
0.02256862535476571 
0.004897497724274063 
-0.002787281418742414 
0.02167928531412849 
-0.002150422673377584 
0.01041060865360945 
0.003905815037461678 
-0.01886223382229397 
0.005146250293536718 
0.01365617128045814 
-0.01362865350110553 
0.01431780735194853 
0.01263048330552322 
0.005918571037316339 
-0.002858065264386577 
-0.01300454237010969 
-0.01322016293205189 
-0.005375344923422485 
-0.002014863242047903 
-0.0276589574738875 
0.01874038657298767 
0.02637544066247636 
-0.001850494648167757 
0.009162228667169947 
0.01564902408825234 
-0.0187385567091783 
0.009304536045472224 
-0.0114421653397436 
-0.01716396699835283 
-0.01942294453664657 
0.0144445081665813 
0.003739369622899262 
0.0006210192915889715 
0.01797276698402553 
-0.006327455821276591 
-0.003526619895620172 
0.006627912686107335 
-0.01321048305367524 
0.002065720486115718 
-0.00430052477308613 
0.001559840497888754 
-0.005787302472197747 
0.01338043224644166 
0.01147600212923393 
-0.009403891121466997 
0.003445713643383175 
0.01046430728977934 
-0.004788814019833524 
-0.001560797009189981 
-0.00232615958060089 
-0.01193662685448228 
0.01445782613654776 
0.005634526785922028 
0.009102880775702512 
-0.002048962424311759 
-0.005586080905795609 
-0.02233621793188893 
-0.009544915764154515 
-0.003495941207384759 
0.001406282802353931 
0.01484610098212241 
-0.004849591742664266 
0.002558575191945641 
-0.0297676622984255 
0.001980209402699757 
0.000263947227755584 
0.000905977352073309 
-0.01598272518783377 
0.00465286664713221 
0.001422556708171972 
-0.003930207910521307 
-0.007733536872168282 
0.004631563553368008 
-0.004394149259733912 
-0.008062283686793357 
0.003866972201176368 
0.02129685384820951 
0.0009687247952288627 
-0.005110430039604374 
-0.001158615777241112 
-0.007692699164118812 
0 
-0.0003497611993933914 
0.01127524292941474 
-0.0007412760476945108 
0.008705121045012582 
0.00580219799861383 
0.01485996793766652 
-0.006021057879677377 
-0.002201558255057396 
-0.00374045971014863 
-0.003618561183000837 
0.008840511706175476 
-0.002025789045362246 
-0.002265085916140005 
-0.01109009723459507 
-0.00680344209227557 
-0.005680769194720968 
-0.002979718361798851 
0.01480637664250113 
0.002397317053470466 
-0.0001075682486410328 
0.00152504734485465 
-0.01107289074454471 
-0.0001907309299164482 
0.001624241274953998 
-0.01406283786636517 
0.002170636939300966 
0.005640130152644652 
-0.0009208915145192733 
-0.01727207135578551 
-0.004012905994058401 
-0.00110584004917145 
-0.004583740002508609 
0.001455522319445131 
-0.01215463648494325 
-0.01765224300320351 
-0.001701789864198476 
0.005539411857831378 
-0.006465199486316542 
0.01545560952047594 
-0.009274403277506685 
0.007383420858003059 
0.005981057325107338 
-0.007369385026552451 
-0.001974503835699861 
-0.002930633969817093 
0.01089587288910782 
-0.001340001564935847 
-0.001269435792667396 
0.01823811403388594 
-0.01489479498854872 
0.01189553848662558 
0.01490495845706034 
0.02449792438398794 
0.0008253647405681941 
0.00119200199200753 
-0.005565462014903483 
0.005939018780246866 
0.01368240474927337 
0.009325430299583572 
-0.005128923497495159 
0.0002752280752561848 
-0.009508395977641776 
0.03094390208425488 
-0.00176050232426207 
-0.0009270804483282101 
-0.01686863272732844 
-0.001467300162700806 
-0.005617625871458766 
-0.008450711157500857 
0.01694879097629771 
0.008017628161118355 
-0.01504578063109656 
-0.0002088239270242924 
-0.0006753159367140945 
0.008314563830917159 
-0.02895968935747293 
0.004106974745057049 
-0.007505714456481223 
-0.02276859453400664 
0.01669649314073535 
0.003813620552435798 
-0.03019173275678411 
0.0006569136331016882 
-0.01911809965104797 
-0.003636047695924573 
-0.004889841753332031 
0.005599148588457756 
0.02856922568820865 
0.01844549688282148 
-0.007716149275770873 
-0.0009907284642050791 
0.00879112393842979 
-0.003567923412252522 
-0.003294262081026491 
-0.01804069107683235 
-0.02908720146264017 
0.00803234649696383 
0.004878345128060313 
0.004999624281734587 
0.008014677288804516 
0.01181189843338054 
0.008242989344936499 
0.01359827946821249 
0.004665034176141214 
0.01098852300443421 
-0.0003253053386377376 
0.02516786340521834 
-0.002838657404049034 
0.01728216794537733 
0.003398108082071474 
0.009162939495084238 
-0.000527847528693122 
-0.004164164190528815 
-0.01202162159080858 
0.006222392987035788 
-0.01842902432505307 
0.00378571508981541 
-0.02016429470582691 
0.002691709380698834 
0.004150947405624016 
0.01192915553689558 
0.02295636078452696 
0.0006868637679949001 
-0.007286699505262626 
0.007252406891122314 
-0.009322071405629592 
0.006034372311646025 
0.004690787186739145 
0.006618852101341741 
0.01820136066958533 
-0.01110552576364582 
0.008384322325686854 
-0.02170070769564391 
-0.01051144483228076 
0.009505270214056012 
0.01773884058278114 
0.002788414504120335 
0.001104954220418017 
0.007780313101036352 
-0.02427039391115438 
-0.0180201741300565 
0.004326935051637756 
-0.01497081362147696 
0.002358474262366776 
-0.001327650750011386 
0.02515585820111331 
-0.008606625361339703 
0.004292253419910845 
-0.001216840753789373 
0.008795893192690545 
-0.001739630310631452 
0.006904831204292299 
0.0132939490888867 
0.0004185369991344598 
-0.006240340414534424 
0.01815187248118246 
0.003552404450760648 
-0.00983342089586039 
-0.002332608372285057 
0.002042114899331225 
0.007290901054565715 
0.008476448115881682 
0.01481118964481663 
-0.002538370834770974 
0.0067704757119685 
0.004339305322395436 
-0.02954162041095824 
0.01342152070511412 
0.01207165441755935 
0.01858576104863853 
-0.01337963254750298 
0.0008608746468561247 
0.008999002136403665 
0.03152906259966144 
-0.00474829362233144 
-0.001363266515446613 
0.0374324156021946 
-0.0047578849455296 
-0.006310206249432047 
0.01283548183329904 
0.02717103620981909 
-0.01459572753597693 
-0.007186235438010112 
-0.002498058780608356 
-7.820635633538447e-05 
0.01207044238211286 
0.002607563450310756 
0.005547812214057903 
0.01235485828625414 
-0.007173038453995423 
0.005117299060907984 
-0.002799644512421173 
0.007779954658632549 
0.01370054101431879 
0.01806961642416057 
0.002150503449704016 
-0.01566590822430532 
0.002313880634976105 
-0.0108970400048884 
-0.01267265440771725 
0.01222163235183901 
0.002151423056315319 
-0.02166798640856786 
-0.00769795175271589 
0.01190395368815662 
-0.01571924571687229 
-0.01026376661677233 
-0.01020073368906289 
0.001062009291745723 
0.00868979093109252 
-0.02318223874894917 
-0.01673430372040338 
-0.0002342429367819125 
-0.003898410119757168 
-0.01053658155833069 
0.002712201947357552 
0.02282522687633762 
0.00764516301452869 
-0.02334290739427406 
-0.006940854403810361 
-0.006229092734743548 
-0.002753121647623682 
0.009409137776015805 
-0.000524801298472298 
0.005486065761256679 
0.01333096978082059 
0.01186961903087809 
0.03258463800669606 
-0.01071134336654307 
-0.01149414026512787 
-0.01853449702362272 
-0.01046080482551586 
0.006393722603893283 
0.008855600553682419 
0.01158739272285487 
0.007177286286246709 
0.01522713610749192 
0.01051621692569422 
0.01153768918745067 
-0.00372445588565013 
0.002092631337360956 
-0.02354655159621669 
0.01096495334315676 
-0.01231128311903929 
0.0008633697324903794 
0.00996326432280854 
-0.001699976449913025 
-0.003367472106805356 
-0.0004543837514940698 
0.01060576117318125 
-0.02677817327854344 
0.004553597889883517 
0.003825938237928029 
-0.001773521495120081 
-0.001479077316725558 
0 
-0.000566532440698544 
0.00690494681797623 
0.0008484446756175478 
0.0003711187543263926 
0.01262847430856052 
-0.008005628493726042 
0.0006446511334290295 
-0.0006592552707124766 
-0.003516174411000859 
-0.004397941199486102 
-0.04110001929535014 
-0.003233491916671274 
0.00486042076207265 
0.01645370382801042 
0.01016177371989332 
0.0007685521512045651 
-0.001483405962900905 
0.02415193735534489 
0.01748607181824213 
0.01133464381797217 
0.006623021930700555 
-0.01497943412277468 
-0.003900269819007405 
0.004035032544536753 
-0.0001592657429542104 
0.004116906916581033 
-0.01225836999480991 
0.00194378588075049 
0.01928287807558558 
0.001817980668750171 
0.02202999260181861 
-0.00127624672491646 
0.005147324345427571 
-0.01061191722578282 
0.009421536114192297 
-0.02468750148866395 
-0.02672570833305909 
-0.00713441582330188 
0.006607870380192072 
-0.03292853290354562 
-0.00213456076600332 
0.002305551906475546 
0.006081167490102516 
0.0003340574243733519 
-0.0142786843531771 
-0.009529097153869511 
0.02982914128391331 
0.002246725323793104 
0.002672443596381698 
-0.01218452655535191 
0.005092752589368228 
-0.0261511376049 
0.01485613090500902 
0.009211073299938996 
-0.002682735063132346 
0.005302502804987831 
-0.001518214284728174 
0.008912602099209889 
-0.005548284342316804 
0.002165341451645601 
-0.006481038158790894 
0.009391404994009537 
0.007072845255620544 
0.01421730670966488 
-0.002796065691670643 
-0.01860832220404327 
-0.008368329883335038 
-0.008477277771687363 
-0.009084154440762224 
-0.01524004289346323 
-0.01732234758016296 
-0.01448652328519073 
0.005728068031456797 
-0.0001733365097243324 
-0.003696601283010375 
-0.01912418153683496 
-0.0006976645491198679 
-0.0107262874909788 
-0.01638368171585022 
0.0157191774623017 
-8.338433328139566e-05 
-0.00590397552899907 
0.007059430260841964 
-0.01271986525664349 
-0.00194942346562292 
-0.02469273351248114 
-0.01298504824219694 
0.01900984523337425 
0.0006333200522087411 
0.001590821298310307 
2.291061974271329e-05 
-0.0002896275991719297 
-0.008960306979422137 
-0.001187365646750203 
0.00818241274335176 
0.005592038164189567 
-0.001778331291598547 
-0.004837158749844985 
0.009165976809914742 
-0.02090388159044916 
-0.03535364317829841 
-0.004139384580697928 
-0.01434362084211809 
-0.003326612167751207 
-0.005431897922757837 
0.002293745491247647 
-0.02593929825460916 
-0.002675982292764565 
-0.01893790029578019 
0.008386676040162612 
-0.02386511463827355 
-0.01032914929223649 
0.009145692987153479 
0.01467860095640583 
0.003649828510755638 
0.01035376389356939 
0.007108994803945888 
-0.004684594224187906 
0.01107549446119226 
-0.009446223003010613 
0.002696066292220611 
-0.01247309580388326 
-0.0109350893833133 
-0.01094589244413096 
-0.009583562050626845 
0.005506863471748464 
0.02449493139312914 
0.001134480768917048 
0.005829549259479387 
-0.004186685589475701 
0.006619345398896181 
-0.006343124234721285 
-0.02154278038305853 
-0.01562420136877754 
-0.003335338267296266 
-0.005951028907045934 
-0.0008156001344664845 
-0.001716326155429615 
-0.007711318934012395 
0.01943486124946803 
0.01989222851321065 
-0.00755867026099709 
0.008556319363566734 
-0.01031419880883512 
0.01219134735377663 
0.01023686474832818 
0.008205408711362822 
-0.01064427999325815 
-0.004005622929783728 
0.005938801826872666 
0.001273230603302449 
0.006353146807200623 
-0.008288736073680416 
0.007645006971932892 
-0.01872221511872016 
-0.02408614656033508 
-0.009127361373581061 
-0.006387265516395214 
0.01768852519019846 
0.004084619104581416 
0.006392667480834499 
0.01332877762230736 
0.01252555511440069 
-0.004983320780287309 
-0.01099629705491191 
0.00681119149936428 
-0.009515319440528448 
-0.01328809708275466 
-0.02056295697037253 
-0.02475956178777527 
-0.02087204528857479 
0.002680417749602587 
-0.02261079893782728 
0.001682693523855714 
-0.009888479971807532 
0.004615098433767656 
-0.002082361812502252 
0.01446800767210814 
-0.01367899490338062 
-0.002893684017204388 
0.01012930343046821 
0.02237399263528967 
-0.01171403858462246 
-0.00437008095650146 
-0.00430880455185923 
0.02641707078760146 
-0.02008064108351442 
-0.005953923002224527 
-0.008334101670464996 
0.001819935409319333 
-0.009935034131780571 
-0.002008264316072116 
0.005269253594302753 
-0.01784105558380823 
-0.0020782936076611 
0.003570334250699568 
0.008152593445676686 
-4.592858957362846e-05 
0.01039344125305692 
0.02060620420433125 
0.0199086860143055 
0.001837036183699822 
-0.008396700929705856 
-0.03158705942536959 
-0.01847406337908374 
-0.0182352716993377 
-0.04121414020916894 
-0.0215973024255973 
-0.002934420424744418 
-0.01202213819219694 
-0.005609208281186303 
0.007654741663093091 
-7.154972722122157e-05 
-0.003887322511322162 
-0.01116768491174752 
0.01092554784128432 
-0.00314275708026255 
0.003876213224243232 
0.02291692688113169 
0.0003797300185440205 
0.006405642692359805 
-0.01706712434085563 
-0.01330412149722345 
0.001519773216899126 
-0.003526907551584668 
-0.007763955116047286 
0.009696696994438616 
0.01479745804220664 
-0.02627352333230197 
-0.004905176678723158 
0.004069677123554152 
-0.003899962883845579 
0.00170455411046124 
0.005298018750916271 
0.008731971220998303 
-0.00297591995573195 
0.007703016716278962 
-0.007736755523372995 
-0.02253683405619205 
-0.003513185221629469 
0.00531029605220171 
-0.0108702577359347 
0.01642047970655113 
-0.02472122769244489 
0.0002903773920455612 
0.003986158645350078 
-1.765985754224971e-05 
-0.001211772957758571 
-0.004867425121930565 
0.002506184360978255 
-0.02387680396797136 
-0.002862015208995228 
0.008249008509056797 
-0.003147647857497124 
0.00237896868127104 
0 
-9.212261904359831e-05 
0.0006862755704013343 
0.003548761499838767 
0.01110396920370529 
0.006988494069818477 
0.003649397442802802 
0.009966996345098698 
0.008794442098215812 
-0.003155108311104057 
-0.000618287043741384 
-0.004456526935701663 
-0.01034354538448427 
0.001475911565922891 
-0.007355841438072836 
-0.009677399703828058 
-0.004940188053238266 
-0.00569608992311708 
0.004632285069825074 
0.000756604672136576 
0.01426183394117089 
0.004032259224279411 
-0.009792380618110434 
0.008085871440784112 
0.002174467700889858 
0.001145467874794948 
0.004661433859972417 
-0.01073362159725378 
-0.003400868144419269 
0.01970198476830328 
-0.007909091235339973 
0.01338491125396594 
-0.006187052092478991 
0.0002062265305412507 
-0.005312455021750159 
0.003488224812076895 
0.009798084117400777 
-0.003957223190575157 
-0.01926940486962389 
-0.005767801796892395 
-0.01419866626161485 
-0.001302995748811808 
0.005256393540059537 
-0.004625415536206372 
0.002284195294328863 
-0.02200940323980107 
0.01008813644375243 
0.002865829062468294 
-0.0006036482150070573 
-0.003293406049779233 
0.006259715697058756 
-0.02211769182170958 
-0.01174009089442109 
0.009605874152563141 
-0.01857795085263996 
-0.02259702149338281 
0.0001591091333964215 
-0.0007775899664243282 
0.008626388133091259 
-0.005811985639901321 
-0.009926086155766518 
-0.01451860486651277 
0.003880059332513545 
-0.01424666054762819 
0.0008639458056583855 
0.00152052413298632 
-0.00989885394423865 
-0.003340753953636015 
0.007850820059952033 
0.01152431856526727 
-0.0303681325751125 
0.002611263400315172 
-0.01315089725860226 
-0.004343915094531601 
0.0003786417963296454 
-0.02256302565487741 
0.005685164559216541 
0.004121560845929025 
-0.004972784851958988 
-0.01505229559621557 
-0.009000177318615441 
-0.01028786048250325 
-0.003141228768052011 
0.002148242691999592 
-0.0108683593025951 
0.008573576583517031 
0.01092720834249974 
0.0004365026588833075 
-0.01171566371279083 
-0.005633153362516703 
-0.001047487542301739 
0.00761346411162612 
0.01300179187398406 
-0.02778640723115026 
0.004813442232099496 
-0.001109945737758586 
-0.00262866232593822 
-0.006831049207952597 
-0.02660844906726295 
0.005018962794249618 
-0.006817887152525481 
0.01058616336252478 
-0.007130901469311988 
-0.02103149946281683 
0.000916548781470606 
-0.004218251219644308 
-0.005811737007262745 
-0.01267618647802149 
-0.001550880665398862 
-0.02380139670612398 
-0.007884892427545656 
-0.01964635516806515 
-0.008707618510283732 
-0.002972761963700427 
-0.004804897187817927 
-0.004101076856726311 
-0.01655079256925125 
-0.00505712989663749 
0.01621230889629002 
0.003146451132830558 
-0.01998043173323467 
0.004865138694618736 
0.01311225691539269 
-0.0131563225139399 
0.004131543472946321 
-0.001051533325825444 
-0.009578942414100997 
-0.01912800884171344 
-0.00419074700462344 
-0.001422564785764428 
-0.003060069697530994 
-0.007813110029114461 
-0.002481267487679884 
-0.005152836536793355 
0.01310645243186817 
0.008796494664307227 
0.001582909596960257 
0.008620476608567462 
-0.005580196858621859 
-0.002762780628570733 
-0.006870604910772875 
0.02687363021267521 
-0.006143988863407309 
-0.006390985630624479 
-0.01234668001187897 
-0.006053190048549843 
-0.006461357612965938 
-0.006676344864503427 
-0.03018369135959318 
0.007739310997371504 
0.02351112694606733 
0.00197183731592271 
-0.002096741941181231 
0.001164509204363928 
-0.002741959067860196 
0.0193635361089809 
-0.005347415016404311 
0.004422678519530415 
0.0165502053729693 
-0.002239419250772416 
0.003897864143059567 
-0.007766709127133241 
-0.01974759665029736 
0.01232076189205474 
0.008389893896090767 
-0.01865319112474797 
0.02228137663768576 
0.00630063305429075 
-0.001950012799788821 
-0.01992781640733922 
-0.004909430710664219 
0.01408439756037941 
0.02043667366260724 
-0.005874634871818848 
-0.005664643117851066 
-0.003688895843683611 
0.01057521153185625 
-0.008107920095739733 
0.007144235858834527 
-0.003947747181556536 
0.00496625828485064 
0.01867753997055126 
-0.002782745003388577 
0.02133388680730017 
0.005555929277288239 
-0.008935312904409959 
-0.002193782642245132 
-0.01938131972698201 
0.007083191697039607 
-0.002407460135496257 
-0.00189727398037823 
0.001599092596364299 
-0.001517551115055411 
-0.005116525179856966 
-0.03367440923025838 
0.01982664396891318 
0.007856981177257435 
-0.01494201619735556 
-0.003927297018335259 
0.002143611931219959 
-0.002013007236883094 
-0.006379968411511196 
0.006871820194209635 
-0.004764374255981 
-0.004160793492117363 
-0.003475611798682198 
-0.02816745575723498 
-0.009910662233799323 
0.01429372750201097 
-0.0007621899841721261 
-0.007271431895513801 
-0.01794388010363151 
0.01032044640640485 
0.003766184771787708 
0.02151086169050637 
-0.0002421316972330865 
-0.009256641398214699 
0.00209274406282645 
0.002576680246077516 
-0.01755261144639373 
0.01047159586624636 
0.02201152852309891 
0.005657022763292822 
-0.009799110519258337 
-0.004890177794344157 
-0.003295271012588143 
0.01432081860200618 
-0.006592754403752118 
0.0170845882923656 
0.001793756297651797 
-0.01132123247836351 
-0.009414221986875363 
-0.008712805923223058 
-0.006082116161249143 
0.005573934073307335 
0.0130496906396531 
-0.01815375948871318 
-0.01198521106015101 
-0.02340194915555557 
-0.01286183437531603 
-0.0002514347361186197 
-0.003558743586961021 
0.0208954824810622 
-0.03500201352376531 
-0.01342977213254444 
-7.186966985562961e-05 
-0.0002303345998873255 
-0.004374076136517328 
-0.00646145611163737 
-0.008916578400563901 
0.008833773760504661 
0.0107491083307455 
0.001559787757811665 
0.001622551510992161 
0.0006593013142463559 
-0.006336089034032257 
0 
-0.0003731614642280194 
0.002629405831878694 
0.002174512559565521 
-0.0008985584402288958 
0.01200242001988254 
0.01133449768099748 
0.00506640024911795 
0.001022237106285255 
-0.003517570581027972 
-0.005971527004317433 
0.008322453595866953 
0.001393610952765559 
-0.01472802012395375 
-0.002790871351994716 
-0.00421796362237572 
-0.001820225361925477 
-0.000932377017157754 
-0.01143796959639247 
-0.01145614142949066 
-0.00603351381536564 
0.008923152002179299 
0.01001149986942642 
0.0009789197360117901 
-0.006167284603389217 
-0.0118730415751955 
-0.01465511577856761 
-0.008969657292187187 
-0.0004341225998884497 
-0.002400745112031029 
0.01272503740049284 
0.01683908712870045 
-0.01545177828294074 
0.0008709904792299449 
0.002882753770646861 
-0.01175380086352204 
-0.01462149131656023 
0.01894554639444856 
0.00856345374517853 
0.01778138682254693 
-0.001164658443946902 
-0.004332263403999669 
0.00031142799172099 
-0.01542457795449498 
-0.002117216646786775 
-0.001568787513167548 
-0.001202007075804682 
-0.001139964811339531 
-0.00672174731344042 
0.01533844626970824 
0.006333696078654735 
-0.0124778582335954 
0.006024527383226222 
0.01808596306785399 
-0.00126710259346006 
0.01507647417270224 
-0.01426309675343229 
-0.006854789622689719 
0.01042514671477355 
-0.001815295345824779 
-0.01623931626857697 
0.001726180013567828 
0.004806389690545885 
0.01305265930794949 
-0.004052137612739562 
-0.002210828187328116 
-0.002152629500477531 
0.001477779437815545 
0.002758740024917273 
0.005330780985463729 
0.02524059215660932 
-0.007213947390693755 
-0.01427090035022623 
0.0152084715983384 
0.006399182705737726 
-0.02015182767413105 
-0.01853008614445332 
-0.008785480584985775 
0.01418670268819913 
-0.01701379285534512 
0.005124268288432538 
0.00569935686732944 
-3.363073464572744e-05 
-0.0001691951447220243 
-0.005949608507155948 
0.008660028210107158 
0.008398342790324103 
0.01041873926453379 
0.01380528524248371 
0.005725504832067512 
-0.007905844742019368 
-0.00689471560414891 
0.008976850219378565 
0.006928820882079781 
0.02596098585115686 
0.00295248462994394 
-0.006156238740148327 
-0.006839275149687329 
-0.001890885526916661 
-0.01295821522085334 
-0.004689237174662337 
0.0294899776118576 
-0.0007406416354975183 
-0.001025894159652482 
-0.01109785385627608 
0.002632504870500091 
-0.002066734323033127 
0.009479561305309215 
-0.003844736022263168 
0.02219350650082796 
0.009326798429089076 
0.02454275184636922 
0.0003810110511470282 
-0.01915098494503117 
-0.01725391491253228 
0.01008046765980428 
0.001009679983103529 
0.004308695508276268 
-0.006564606289121342 
-0.008975368123670259 
-0.007145961494718713 
0.01417263851418145 
0.02415017558563825 
0.0004652312066913853 
0.002374721096821034 
0.01850974984727236 
-0.004991320733578426 
0.003006958418631596 
0.006037075836992103 
0.003650895181646523 
0.008017176747816367 
0.005826516276731945 
0.001547927959704634 
0.01061837649872961 
0.0004538478528368865 
0.01934299635518446 
-0.0280622053094664 
-0.004225467580027242 
0.01672418703086812 
-0.00717836621251957 
-0.01491633062661382 
0.01318218629993604 
0.00233952193935701 
0.003582260697424603 
0.009956890489675753 
-0.006909596699445453 
0.0102980168542487 
-0.006752600670699834 
0.007320566024081915 
0.002822548320350413 
-0.01008170194041534 
0.0001149862915012724 
-0.002929377480263303 
-0.004257563702303829 
-0.01263916670195691 
0.01451076679644499 
0.006906982513507125 
0.01490265095472046 
0.01011231741207533 
-0.01854739227500983 
-0.00356677626730339 
0.007892979018250305 
-0.003337008696405194 
0.0202473773865534 
0.01711917284196164 
0.005004242743712594 
0.01079144444342283 
-0.003844673462430448 
0.009052351073055501 
-0.0124514837474317 
-0.002453342861466863 
0.005192544679161141 
0.009435637522328889 
0.0007847728249274456 
0.01644803641962419 
0.0008184835333371652 
-0.000815566872194008 
0.0008913595754819816 
-0.00780773089526318 
0.01200921942675104 
0.008739803302504762 
0.02052743464488305 
-0.0118331364353575 
0.004072485043570541 
0.005776427625277046 
0.0006256656685151268 
-0.009961339814413427 
0.01088640260173031 
0.004498018816236782 
0.0144971363573998 
-0.005276891681028724 
0.009680320185081186 
0.0005830751662255507 
-0.002919926115566299 
-0.0009991301681321456 
-0.00702292131688829 
0.009592795105310505 
-0.01328104081285635 
0.01441304411954734 
-0.03177649515297984 
0.02436765937219649 
0.002341821670115061 
-0.01100106184857677 
-0.0213825560461123 
0.01979563121608138 
-0.005749362448476793 
0.0005180238156213102 
-0.01511433827426889 
-0.004804185184109793 
0.0007932232957469977 
0.008948988333734422 
-0.01372733877949931 
0.008255949845274816 
0.001009597949656711 
0.02678732708885813 
-0.00363638121500199 
-0.001477990656882814 
-0.0197173533713418 
0.02706686838045425 
-0.01330906538789521 
-0.004267355176470705 
-0.001197353719115056 
0.005003392922820797 
0.00527891026201619 
0.00221959974933531 
0.01395410508262331 
0.03442428127877779 
-0.007366372378701944 
0.0009866208483569098 
-0.0145266883084331 
0.01287982494178673 
-0.01094226086840406 
0.0006502251712627631 
-0.00204349427031565 
0.004664928756227646 
0.007213260529703724 
-0.005121452373161145 
0.003680905727782542 
0.01363234693847882 
0.01052561485928033 
-0.001487780668807126 
0.003401249197075993 
0.02825846693528461 
0.01513465409544868 
0.003091704451214191 
0.003845427774494853 
-0.00513715519890437 
-0.001406261219101514 
-0.0021226398896505 
0.002570428359993643 
0.009794681492831669 
0.01147440442482776 
-0.002025111211340806 
-0.002905129093647503 
-0.000232312719567455 
0.002731519864117763 
0 
-6.74041805269294e-05 
-0.001411447672834072 
0.002294557943468587 
0.0001742214165796123 
0.005965708536740106 
-0.01173297789320163 
-0.0004890603327720083 
-0.002831396760152591 
-0.007889704334933361 
0.0003317101330499845 
-0.004827072938704833 
-0.003781427074689274 
-0.03366778342931812 
-0.003484620522220559 
-0.01353281791350282 
-0.001059820031489745 
-5.240720157740096e-05 
0.003888695474825534 
-0.02542343932172559 
-0.009424434825790704 
-0.002307780361891148 
0.007057340441425867 
-0.001932891360710085 
-0.004601788705110593 
0.0006865816457685958 
-0.01017255188231605 
-0.0167149614582417 
0.002542971389785371 
0.006224219877885167 
6.318145132958219e-05 
-0.01338405619819211 
-0.003821745783603476 
0.003176378867974022 
-0.01217871548838875 
0.01185796193270408 
-0.006415167296199499 
-0.02501405428758136 
0.001793141036052059 
-0.002086407611480604 
0.001616022414783565 
-0.001450990308192425 
0.006120552331948324 
0.002624245871999612 
-0.0007127168886697865 
-0.02071271123468104 
-0.001326889446396841 
-0.007526707231660152 
0.007783196403629923 
-0.007239265609173802 
0.00594260960936348 
-0.00555839930958556 
0.01435773601195968 
0.005769837266769129 
0.01002755379504883 
0.002567934399914247 
0.00319278099605034 
-0.0102911731473505 
-0.007050969799763248 
0.003529926739361743 
0.02774388848334158 
0.02127287328086454 
0.007997077915519924 
-0.0108411412245641 
-7.53658028810467e-05 
-2.400084784996205e-05 
0.001687470282019516 
0.01073998194335569 
-0.003120585100784946 
-0.01164931708156833 
-0.001837248644227291 
-0.0293556725299119 
-0.02839346043901183 
0.008740193320622007 
0.001011550810821201 
-0.02280710488357262 
0.0119668196024165 
0.00422745011385544 
-0.00888995555244464 
-0.008618169973964465 
0.001422033864778746 
0.005623663268649088 
-0.001277034982876088 
-0.002456962120688118 
0.009324504385762544 
4.015652857026392e-05 
-0.01229835819280681 
-0.01179586280385203 
0.01241217286400239 
0.0005516208684451884 
-0.002829794248972557 
-0.005217206957929793 
-0.02665028201161767 
0.02042306483339312 
0.008506101043476029 
-0.0009328437859176553 
0.009028447743560335 
-0.005743292194000529 
-0.01624395787766323 
0.007697256186691423 
0.006899161967612725 
-0.01666468735390527 
-0.001704602880918468 
0.003412429183469416 
-0.005328543951137178 
-0.007212020280477011 
0.004021678318290504 
-0.001644902583304178 
-0.002194826536182639 
0.001425829295704718 
0.007630903190497096 
-0.009206365829669976 
-0.01154798504572714 
0.001748435566743328 
0.001943758347587839 
0.003764430701536509 
0.02053552010795434 
0.01383516023424977 
-0.01199281197891138 
0.00465799069531555 
0.007515394429165471 
-0.01463670045837491 
0.005748048676417268 
-0.001319960725526348 
0.00565331952456115 
-0.011288625733506 
-0.01813411265547812 
-0.01643154648589256 
0.003250414915765493 
0.001597003377232629 
-0.003777305396734299 
0.006011958714920957 
-0.003297296966841693 
0.0007431132754532625 
-0.01631391927545679 
0.003702219021221602 
-0.02447456121409776 
-0.006399868085162768 
-0.005698447369720016 
-0.02806031864119349 
0.008655369951273171 
0.02885499722201351 
0.002229884068037218 
0.007076569873812825 
-0.02698447312503212 
-0.002893254397346684 
0.009434859499804809 
-0.0006661789139980926 
0.01785249516401265 
0.004524117136895002 
0.01319997379333572 
0.002996538773194379 
-0.002554019558879936 
-0.01946583108285192 
-0.02013198281958534 
-0.00904406719652944 
-0.01341974365421494 
0.01322078634084586 
-0.01270612086283079 
-0.000280938381643245 
-0.000831211645728358 
0.005716043830295033 
0.01964057218314702 
-0.004854254295574795 
-0.008936261456921722 
-0.002023638344640448 
-0.008796496267184466 
0.001174799877272988 
-0.005196927741096153 
-0.02745244137263948 
-0.006131477584491113 
-0.005834063357502124 
0.01407782577083048 
0.0007976592567065968 
0.02719227802337277 
0.01873916727307186 
-0.0124726052406957 
0.01040890370059877 
0.02599050584803529 
-0.01203259358678401 
-0.01555182390946807 
0.00535494458547621 
0.005813657621095122 
-0.00724837698267139 
-0.014282292219039 
-0.02895807217508113 
0.008091031604861109 
0.001291695049441709 
0.003852357141493172 
-0.02362057643664546 
-0.0006702443349745252 
-0.001996437595145031 
0.001364838211755777 
-0.006570501409447074 
-0.001307582489489544 
-0.002401189766383833 
0.007545468279534322 
0.009614104595233168 
-0.008334805161571588 
-0.01024762503834096 
-0.003410930533623179 
0.005669520188704508 
-0.008683821407854488 
-0.008646985405478565 
-0.0118517635494189 
0.005299331827841301 
-0.01606095291466248 
-0.0006992378549183178 
-0.01214979770609989 
-0.008160953984963686 
0.01466828787282572 
-0.002159414340211824 
-0.01808400948195967 
0.0002403318395292279 
0.01212704970540758 
-0.005023924734116741 
0.01025312716235339 
-0.0192470723517875 
-0.01419308651654871 
0.01145186478768004 
-0.02983647727266897 
-0.01263536599066562 
-0.0007566688250311785 
0.005645178183789661 
-0.00086830838707607 
-0.0007753663861790444 
0.01199867563241056 
-0.01441603533865929 
-0.007481188725277627 
7.356710028256714e-05 
-0.007838472582985853 
-0.003859996418317159 
0.001850206833248386 
-0.001591135208774458 
-0.0009215815720444415 
-0.01110011496008688 
-0.00712392756745302 
0.01225777949259255 
-0.01814864807101165 
-0.01704623122860397 
2.460726331320904e-05 
0.003340671778047139 
-0.02117660530327632 
0.02489233554349001 
0.003554848415595779 
0.00346485307285896 
-0.003482565010043883 
0.002050465510541427 
-0.004383319304037175 
-0.002678862372422031 
0.007447320151711681 
0.005248080825155555 
-0.00495911370909956 
-0.005503388069394167 
0.0006685128234784426 
-0.008317361544938482 
0 
-8.991859456377684e-05 
0.006768324787958309 
0.0007820382965156439 
0.001284387762813352 
0.005041054578037346 
-0.001903193863759734 
0.00593967664131429 
-0.0006692958803920212 
0.001120373974001371 
0.01326354445265219 
-0.01087110822345259 
-0.007839578481790189 
-0.01376397858863185 
-3.765512317353407e-05 
0.001980682118051801 
-0.005333236660971736 
-0.005048351488919811 
0.008865682354595554 
-0.01095729845176334 
0.01835790879293499 
-0.008802709002396204 
0.004860237531199504 
0.007282274567546185 
0.001486338858277843 
-0.006134366191606841 
0.001222724382331577 
-0.01914182220286635 
-0.01661800213756432 
0.002060843077725505 
-0.01709406644356488 
0.004729909413745177 
-0.01560698342793727 
0.003872041692928699 
-0.01820081299213188 
0.0163600651355565 
-0.001035680769731763 
-0.020160815715411 
-0.006524141346149415 
-0.01770396038396477 
0.0184694269499217 
0.007206399236765281 
-0.001709183154683289 
0.009268774361329675 
0.0006482905381840162 
-0.005487141823233468 
0.0128284630543309 
0.01659157029415703 
0.003224072824956571 
-0.009379424490295026 
0.009781493185817461 
0.001878468663407891 
0.003241305896607585 
0.01073811527536715 
-0.01584224809230627 
0.00302493813223447 
-0.01142020454853877 
0.005444215970784677 
0.01613399305740022 
-0.01345173476790986 
0.002465501005555069 
-0.02122960478744755 
-0.03085347500803307 
-0.01429270209369344 
-0.002379514583700713 
0.001379673355124117 
-0.001816897940918456 
-0.006080446278916342 
0.003973419112772942 
0.01356092132416751 
-0.03243482796424239 
-0.0178158247028575 
-0.008425681740205332 
0.01325720064123137 
0.009240771878947477 
-0.01955211126692162 
0.01638763561589322 
0.007063941660940576 
-0.00812992728718373 
0.000573275412536689 
-0.007076548458550086 
-0.001991085567553023 
-0.004012798982709465 
0.003163026609170319 
-0.03676738374634481 
0.005765606594970819 
0.009710830074633936 
-0.01131344463855069 
-0.0217579299791041 
-0.0188264662917653 
0.009692916325106389 
-0.009185321567468572 
0.007437918880824214 
-0.0279724833082667 
-0.01683757767746203 
-0.0146388743328768 
-0.02229639096924285 
-0.0004624972910236291 
0.0117518726076883 
-0.009455876865031524 
-0.02477988403116122 
0.004315411351332462 
-0.02080751331041067 
-0.007684654061912051 
0.002688233269188206 
0.005081014404727124 
-1.588430975370535e-05 
-0.0112181709955304 
-0.003577682726689873 
-0.04100000354629234 
-0.0002897854612151333 
-0.0003798334961553866 
-0.006790025080819948 
-0.008755986753553883 
-0.009703042592537041 
-0.005203434635854 
-0.02700406116414575 
-0.0009418073766686317 
0.0160086248696357 
-0.005181016514673318 
-0.005126370212607693 
0.005444261281446849 
-0.02159538612404421 
-0.008777653239054731 
0.0007283420235005588 
-0.002834498388398359 
-0.003875375903281976 
0.006671027748674577 
-0.001226930744139918 
1.594015537974369e-05 
0.003892749627670473 
0.001954609367665212 
-0.001932329196777706 
-0.002962039970241907 
-0.004630578408328703 
-0.02298887987483381 
0.01604777313224421 
0.02505492628916665 
0.006468355448899433 
0.008684918268101234 
-0.001386562253103855 
0.03512648501471248 
0.003544887126972649 
0.00834670094975966 
0.00213453049412295 
0.00108419400336369 
-0.002760025123092094 
-0.003567133151847621 
0.007564885140091589 
0.003715547288345496 
0.007307838709660009 
0.002641315743741204 
0.002840850715447206 
0.03042831913720844 
-0.005259745885260834 
0.01801871560668695 
0.002458905084994115 
0.002886546628939611 
-0.008309369566094453 
0.006416652951159366 
0.003497890415072139 
-0.01086908658997046 
-0.02532740115826764 
-0.01474894810948662 
-0.000741762611400256 
-0.02162173705777013 
0.007225630232173746 
0.003068151281123006 
0.0260456143955169 
-0.02182359233450554 
0.009168846180770648 
0.02431744987094618 
0.006759987978181356 
-0.009346577502967295 
-0.01377466410969766 
-0.0050666132783447 
-0.005756118988375098 
-0.03790426167483917 
-0.0134541603431434 
0.005156469050632888 
-0.01544722858627192 
-0.009231358758049171 
0.00710398769420838 
-0.003706723798107309 
-0.01013554582863706 
-0.01206523039941653 
-0.003630402408198006 
-0.03095835605346858 
-0.009681563033664135 
0.004006604924402762 
-0.006489678473012739 
-0.001576417204663457 
-0.000880836930672409 
-0.002709418803922067 
0.009354569009222555 
0.01582996189612592 
-0.008312783367819402 
-0.01976472211248393 
-0.002886566612191431 
-0.00394683135054477 
-0.009627537864405542 
0.009135343719830913 
0.009918588716941802 
-0.002032073030422131 
-0.01888797371994988 
0.005737983631044769 
-0.01455685902689556 
-0.01027345978006389 
-0.01562546968378755 
0.002346543610477716 
0.005746941171573395 
0.006379330435962921 
-0.01523050483904076 
0.003533159037246906 
0.005759869797047226 
-0.007780768221450677 
-0.00339617793374365 
-0.009237799572188284 
0.0153017559911395 
-0.01923788902590035 
-0.009624855607804602 
-0.007593768032288359 
0.0182934105371735 
-0.01611899857899703 
-0.00160002298525538 
0.008684240483914392 
0.01287880195257728 
-0.005864536042720359 
-0.01552462530629316 
0.01466752223499904 
-0.02190708451772745 
0.01207654662522822 
0.006021885724537812 
0.002976596924649143 
0.00333623686164013 
-0.004002283862220512 
-0.003723808795520448 
0.01249205275225542 
0.004359175873853557 
0.01909117655947802 
-0.002039862241718894 
0.0004654970503994686 
-0.0173407113886721 
-0.01650063770084428 
0.0007805375979515609 
0.008652170385673182 
0.009334689804031298 
0.002447560124084216 
-0.006311169602042188 
-0.007274182320238151 
-0.000553348502085095 
-0.01988948661492462 
-0.002515596282441977 
0.00806558243490136 
-0.0009199387188970518 
-0.006789813671230804 
0 
-0.0001707209364249667 
0.002504140919657435 
-0.0002121942691205451 
-0.005682592135086529 
0.00525211792908366 
-0.002360932899258408 
0.006698969973254813 
0.005126807753072656 
0.0007326339109389397 
-0.003048704227671816 
-0.005155632864590013 
-0.00678404224835172 
0.00755877742346197 
-0.002934746031135856 
0.002411155133466139 
0.002974151891125513 
0.004289634231839267 
-0.007734642606442033 
-0.004412797258313554 
-0.007884420854690316 
0.01139259486506999 
0.01094743155962517 
8.004070665369366e-05 
0.001995952636727883 
-0.004599755916734813 
0.01043737170754513 
-0.00946621698206135 
-0.007446221315203265 
0.006938808569527309 
0.01416274378224595 
0.01122064838699378 
-0.0008109924336032766 
-0.001960778622058131 
0.02019860830456805 
-0.002604896088455074 
-0.01273315635426197 
0.008815623159755415 
0.01627083392089929 
-0.004397215098824348 
0.01476796544224525 
-0.004709849476166925 
0.0001838172592313392 
-0.008534036582750206 
-0.002882299307575762 
0.01683617527172386 
-0.01061004138111115 
0.006557408562326048 
-0.004421710613336446 
0.001845299481235982 
0.02122629249639669 
0.004548587340988194 
0.007749581262084168 
0.01506620104592275 
-0.02143793117861548 
0.01736888589971969 
0.005280354220553583 
0.001147640879541646 
0.01800142223946459 
-0.01144799121734644 
0.008439028326258051 
-0.009090669638043187 
-0.02363221896300036 
-0.004128734169813148 
0.0003465002318512494 
-0.002906428046337703 
0.01269987864391344 
-0.01183875993681783 
-0.002696325019227017 
0.01444281870955893 
-0.008517965643100294 
-0.001432144531796504 
-0.009435791187481861 
-0.004308661145416403 
-0.001949200197668133 
-0.01026489949717328 
0.004625755768932441 
0.009966565471728825 
0.005057029303251388 
-0.005496085207726962 
-0.007485589716297627 
-0.006257918683275007 
0.03536169749935138 
0.006572427118370559 
-0.005439297246763499 
-0.005666682602440522 
-0.003463239580699178 
-0.007114634156286916 
-0.005711137424332232 
-0.009589834394038566 
-0.01039890400597448 
-0.01803456698526331 
0.02559093529574968 
0.0007796209598877836 
-0.01722135493933878 
0.008826458140875416 
0.003034026135301172 
-0.003158204631010184 
-0.005934312478899841 
-0.0141317971993353 
-0.005779115188901812 
-0.009562347652748842 
0.008471268983852918 
-0.02546793445513781 
-0.00708504819470965 
0.004083926766279687 
-0.001699287080408731 
-0.01275774243698335 
0.001395395411233874 
0.0001371010212004097 
-0.01296356135785003 
-0.01539051488094485 
0.003915705482839756 
0.00508236449816758 
0.01198347094508281 
-0.005974079376232716 
-0.01219918573979243 
0.004130191841957571 
-0.01690385768260241 
-0.0004523364445666522 
0.03078795663816957 
0.0001659236760507907 
-0.007907400781457161 
0.01798115008118293 
-0.004457643627535511 
0.00563818100077231 
-0.00475227012381133 
0.01450246928368792 
0.004855736046924465 
0.006619231711825683 
0.008114886213140016 
0.000863523479115371 
0.008221991673480927 
-0.004461733420236798 
0.008408459512306034 
0.01031435152351407 
-0.0006248357517703427 
0.009865834671894834 
-0.01533863087663218 
0.007975603973815299 
-4.650451715735463e-05 
0.01029998892321802 
0.009673273873884078 
0.01668759780737825 
0.01088463539125191 
0.004900384557881389 
0.005569329445642119 
0.003143581310780711 
0.02689555333099526 
0.001482162490002968 
-0.006276946759103416 
0.0005088535756077488 
0.0001557754161296789 
-0.0004741229359583888 
0.03881297645714661 
0.004430954412813924 
0.01314934169277303 
0.004937760364362466 
0.007271763071897885 
0.009340964305030831 
-0.004457796222254843 
-0.007000737238709111 
-0.01150881946196857 
-0.00691099925208107 
-0.01793532302323963 
0.0110251615021859 
0.01126659347362728 
0.01182741245213808 
0.01126518336888676 
-0.01288804602744337 
0.0263131563750792 
0.008040234235569706 
-0.009142866989068106 
0.0152671105161138 
0.02130170192701404 
0.01251046167320973 
0.01143149263931138 
0.009276337965348267 
-0.008385777779167729 
0.005317074823207274 
0.007637075895971168 
-0.01254656892492037 
0.01754811223687328 
-0.008179012197774683 
-0.009907893568343857 
0.01716443792533651 
-0.01026710470058541 
0.005769481596924065 
0.007058145839738302 
0.01339315721225319 
-0.01848807087734902 
-0.007805601674489111 
0.001038722704169773 
-0.0004072377261563995 
-0.01284912720340536 
-0.009306084603873504 
-0.004712711107614576 
-0.002500442190660407 
0.01994482112917931 
-0.006581883473384172 
0.005480908071186223 
0.007764287430185092 
-0.01710149534610745 
-0.006422188495752022 
-0.003488923673646009 
-0.003060208506058568 
0.009396317894368443 
0.003677973278554398 
-0.00152254501130062 
0.007129245506591442 
-0.009722853080617341 
-0.02121285661488001 
0.01231485227527466 
0.0004958940007554364 
0.001039960188597497 
-0.005832989300852163 
0.006918866647272807 
-0.02547183085424948 
-0.0006892895779133054 
-0.01827127843878349 
-0.002009886426300304 
0.02540653976995796 
0.005861207453456786 
0.001606881335508849 
0.002389921462344286 
0.01085587165323695 
0.001448085672320846 
0.003967869858566167 
-0.0005937153532590479 
0.01494506963212127 
0.007390710188680965 
0.00063282736621683 
0.004947150637983559 
0.004368392038770558 
0.001272394570597075 
0.0201637930246715 
0.004502034967254989 
0.005771250249072381 
0.007993972701211003 
0.02205633312856139 
0.001133008581984654 
0.006425241630482813 
-0.006983997074355754 
0.0147613222514117 
-0.00440968327670986 
0.0008812288597552042 
-0.004880396925904086 
-0.003637964138385513 
0.001783432422802342 
-0.005343149599630045 
0.004631828626868015 
-0.004894114517413711 
-0.00645163080390132 
0.002579762576467169 
-0.001842458949746628 
0.002649427166006245 
0 
0.0001033756449930823 
-0.0006563033927220025 
0.001800863655572429 
-0.001319200295540819 
0.002119939114091789 
0.003718574825049129 
-0.004816575919881086 
-0.0004340561926062738 
-0.005660750408509149 
0.002753690791001221 
-0.006753739969276256 
-0.005862587597015319 
-0.008202757541719705 
0.02786741120395939 
-0.007524826429478593 
-0.001488002726161407 
0.0005153534751497558 
-0.01295715396353701 
-0.01515070943382317 
-0.02215707328016503 
0.0008310714318599068 
-0.002221851307929416 
0.002757307210013281 
0.00105277988338022 
-0.000468005141038395 
-0.003677084972430032 
-0.01797565645993359 
-0.004459026913448659 
0.01692917773699664 
0.004150434888697454 
-0.007765504158167836 
0.0008788267883223092 
0.00508089660819488 
-0.0009848586040111472 
0.01357139695571666 
0.000232966609038472 
0.001950967373472427 
0.001840081005402045 
-0.02148755612438391 
0.004265459435925089 
0.004394914667572063 
0.008104202822953804 
-0.006639740129593855 
0.001365104021032372 
0.01419093291661996 
-0.01389051305390262 
-0.005619751199385895 
0.00818164269133707 
0.001541769919000345 
-0.003256056413686597 
-0.004145021868918838 
0.0345467874838788 
-0.007510408330099624 
0.001182358360626163 
-0.02509837943125183 
0.006566908825779196 
0.006915431590215165 
0.02908122631897063 
0.02836044332408433 
0.02455510346751511 
-0.00577540755202303 
0.005542727733348219 
0.01488382830733591 
-0.006136595648591117 
-0.0009190139978264162 
0.01457855588717851 
0.002881091815505902 
0.01250092339794027 
-0.004478405697130356 
-0.02736430180679266 
-0.001578475390096078 
-0.004464918898603051 
-0.003972453452090712 
-0.003514705195468327 
-0.009690011792198003 
0.0001013858955285807 
0.0008047121933588161 
0.002089007502566915 
0.007019646519745491 
-0.01299502319705892 
-0.004126017550219348 
0.004795582094574527 
0.01345274073178859 
0.01242030677559086 
0.006675121301986236 
0.006481808600659557 
-0.01315456760299175 
-0.010790438453608 
-0.0002521618308823973 
-0.009634145575551813 
-0.01209300961387976 
-0.01177502959832462 
-0.003732452938945127 
0.00357333176860656 
0.004352385125604031 
0.02449701336916147 
0.003883458350055104 
-0.04044333931657852 
-0.01446572108945684 
0.007193965698847662 
0.005288234915439554 
-0.007760641743446086 
-0.03020449268891065 
-0.001480072339255707 
-0.003873881498444942 
0.001857754045619185 
-0.01345142543260727 
-0.0002660577978695262 
-0.006716826478118922 
-0.00363956163344807 
0.01999637641544293 
-0.004835690716006415 
0.01748891008297206 
0.01956963412150848 
-0.006173896792109662 
0.0002147102908035204 
-0.01874472156076972 
-0.009209264216346855 
-0.02170401329563895 
0.01538060922660554 
-0.002687489315687574 
0.01084185262131234 
0.02476292079946615 
-0.008985974407356264 
-0.01975057212354554 
-0.004454393017459216 
0.0006400536797606332 
-0.002691924157337619 
0.005160482999457551 
-0.01473690276212172 
-0.00529612773081315 
-0.02151300380435065 
-0.004423920233251602 
0.001510318829409216 
-0.01373856422534546 
0.008817732467908804 
0.00897863837214689 
-0.00765894166694684 
-0.009535982655524898 
0.00741226479081959 
0.007874251415097943 
-0.006075351432631703 
0.006872060510178604 
0.002937565359587418 
-0.00152147439677723 
0.007327801261803589 
0.009708233143767982 
-0.003658641934887528 
0.008326747173531133 
-0.004565057754084199 
0.002620708090148794 
-0.001058770948954405 
0.02472551741453577 
-0.001527254632494949 
-0.009977314460747826 
-0.03273583700331501 
0.007913870913927848 
0.003126019769400116 
0.01191800712072042 
-0.008822463884600392 
0.009631946267752177 
-1.673807085765152e-05 
-0.01628792971810423 
-0.01196662593580341 
0.006583428816415245 
0.00310780393975791 
0.006354780000778931 
0.006343585993865618 
0.0009851071438165193 
0.04571394768576399 
0.0002641887693202255 
-0.010669777720293 
0.009343622509910299 
0.01080662080178044 
0.0267102451328022 
-0.007487368778505073 
-0.001559260975056375 
-0.001170071042402066 
-0.03999038970848318 
0.009542994075068843 
0.01576230556690158 
0.01957206543467858 
0.003462305034292469 
0.0001440156328989504 
-0.0094467339516508 
0.01913104838815723 
0.01042758611728846 
0.01353142329062899 
-0.008456693700941376 
-0.009214134394045977 
-0.01018837104868955 
-0.00156431424641096 
-0.00696110303517286 
-0.0005757749392120422 
0.004899597173571385 
0.002197244171059649 
-0.01001997411459564 
0.001808701517161945 
-0.005759384451159472 
-0.005553904212364152 
-0.01016881965287733 
-0.0007518264845323224 
0.002152567300928641 
0.003193510803762816 
0.01130829912363823 
0.008181152858372094 
-0.001488029380684226 
0.01179583574108032 
-0.002190914101801358 
0.017830104199119 
-0.01878823292667714 
-0.01886918336355346 
-0.0001501432277499008 
-0.005540613934667923 
-0.008697496829750668 
0.01112848622294798 
0.006476798623798853 
-0.004282623383378011 
0.003935610003266873 
-0.01256030537178605 
0.01425038155612071 
-0.002977950832264003 
0.004807512085858417 
0.0008787212122888822 
0.009262147063048922 
0.02441330262162302 
-0.0006512028710851817 
0.002093441456517598 
0.003091278655334116 
-0.004335924880204767 
-0.03095368490849847 
-0.002801459374285985 
0.001256688417004425 
0.002574559275461501 
-0.01005135822751667 
-0.005781109479622149 
0.006490833841509318 
-0.001620509667280875 
-0.004464256629241459 
0.0005054465805918055 
-0.0007036213493397598 
0.002766456335497221 
-0.03223312874153248 
0.001899578439694247 
-0.001732601412431655 
0.001232663567997327 
0.0009425446220365449 
-0.00286642657377888 
-0.002145833346755834 
0.0009581796643169715 
-0.002437259566939181 
0.002631277150618957 
0.003582818098093655 
-0.002850373253883134 
0.001936970107684797 
0 
-7.071596494627126e-06 
0.004638403573575886 
0.0001720433325107025 
-0.001751367521457153 
-0.003422410095094335 
0.006129173692936507 
-0.0006883128036466122 
-0.004627567937591912 
-0.002409836633735264 
-0.007348620687316542 
6.118116370119103e-05 
-0.001517134373499808 
-0.006778159022246022 
0.003773803238377891 
0.00744497518753179 
-0.001213161595931423 
-0.001186817765400795 
-0.006964047099420588 
-0.003934500331019853 
-0.01936388067814503 
-0.0105490967394738 
-0.02047614471759998 
0.004184225836150062 
-0.005205622022592026 
-0.01079284459902631 
0.01046694437665077 
-0.0170327966589029 
-0.01602095115593175 
0.02285075853646146 
-0.01064360632249216 
-0.01906563275558822 
-0.009447888328817284 
0.00774683420695783 
-0.004830801725513189 
0.01699266871712227 
0.004829317197250185 
-0.009719197289602815 
0.01524799898427208 
-0.01071993690179171 
0.003155909819779314 
0.002805774097191689 
0.00663430123718676 
0.006025193119618274 
0.001944258735461847 
-0.004414498668420542 
-0.003602260821830326 
-0.02298458195772578 
-0.001698633961225433 
0.00183875147855757 
0.01503330881315391 
-0.003056183793500844 
0.01903712228720157 
0.01444951173284671 
-0.004028344069578458 
0.007183823061843669 
-0.01633445144307793 
0.003490705885928103 
0.03023980896800545 
0.0006798772394865156 
0.0125254033685786 
0.005963040994823864 
0.01768796112748721 
-0.01425616461537978 
-0.009187524740315993 
0.002603848944371795 
0.001057063378304428 
-0.02258040566913994 
-0.008212577157147601 
0.007715210974066357 
-0.01587071250306563 
0.03800977010499092 
-0.00958710273549267 
0.01046741660517389 
0.005074488633329642 
-0.02703505578160583 
-0.01069546314570625 
-0.0005604499955631966 
-0.01689183250769781 
0.01812682611528403 
-0.009419497890896172 
0.0183852895169865 
0.009316412289464096 
-0.01472352695707729 
-0.02520308666982566 
0.001494180585962928 
-0.004663680447628779 
-0.02698573246713004 
0.006076832793161232 
-0.02099041131569297 
0.0008898681858138983 
-0.00730430893667409 
0.003831581387692354 
-0.01156786126404477 
-0.02215376747428198 
0.0003546588153496775 
-0.01809401174331242 
0.00725520730450683 
-0.002784378043348991 
0.006244607448411313 
-0.003399646802242445 
0.01102377301588715 
-0.02730789108227187 
-0.01082367202602057 
-0.005708554010677213 
0.003069203907350361 
-0.0005426459928704698 
0.002312786000582493 
-0.01216797127352343 
0.006315105121409406 
-0.006158399794093384 
0.02021871695633348 
0.0005311549514432157 
-0.003564755537784525 
-0.02226205550039036 
0.00701663968854041 
-0.01544996103671276 
-0.008311654545255025 
0.005979455188413691 
-0.01364357390863867 
-0.01690070275490888 
-0.02290660002551416 
0.01677697998308423 
0.02425304337911289 
0.02252132953488713 
0.01774137719622059 
-0.003649379392547734 
0.03021565657594051 
-0.003317256587425666 
0.007770000625109832 
0.009321832783556742 
-0.01314080418367843 
-0.01183967481491863 
-0.002716155338451626 
-0.009753874595674875 
0.004076744866346737 
0.002393207001038249 
0.01561137581847591 
0.030274114271837 
0.03449749856016892 
-0.01499935547595684 
0.01662510473654814 
0.006037365401392361 
0.009735811625119016 
-0.003222989789531669 
-0.004010734426721283 
0.01388571464646485 
0.003915711126472201 
-0.01169587420841368 
0.008661575083427877 
0.01813452473845111 
0.00396288734760537 
0.01189271800497717 
-0.01191194782557283 
0.004438866554738657 
0.0034135152443526 
0.006480788621569801 
-0.007110720784840333 
0.006525445962700945 
-0.00708326266123153 
0.003407009010965735 
-0.008382901693928774 
0.02488125381059985 
-0.004633752023098662 
0.01847835135010156 
-0.02291969146135443 
0.005605207135194768 
-0.009206929542685035 
0.02155521794024866 
0.006160654997293559 
-0.0009551516668323264 
-0.01587032898177956 
-0.002970264537615074 
0.01483983652267871 
0.005231893978208674 
0.02084760957337171 
-0.001477022322697746 
-0.02869948725847562 
0.008604223854204734 
-0.02041715240241226 
-0.04397736818756747 
0.003059762437861002 
0.0161222471301477 
-0.01033154649586057 
0.009710001249502545 
0.008148690736142033 
-0.0004908584881972037 
0.003646444002632917 
-0.009151969735044873 
-0.003183748279010307 
-0.01004712234098017 
-0.0006983691404631116 
-0.0006537777907068518 
-0.002497630006339451 
-0.02030127140488759 
0.01999107323821121 
-0.002616799882245714 
0.0121216933389404 
0.0001465631314165833 
-0.01798772604033182 
0.003574908452958828 
0.003731584031249612 
-0.009389555434689353 
-0.008775292493881913 
0.01125061384157284 
-0.01001361109493162 
0.00189143269281593 
0.01480095449624664 
-0.0125840101017191 
-0.005243385383884876 
-0.01055046439605006 
0.02961286778726545 
-0.002681377269397852 
0.003312546291496141 
0.008338667981063912 
-0.009438208710535035 
-0.006242124854904297 
-0.02675346391748906 
0.01651097146801629 
-0.003368329545978275 
-0.004771224265020311 
-0.01446023747344265 
0.01903827414457119 
0.01731445433079194 
0.002135003234853872 
0.002255511868205896 
0.004568537707340388 
0.003114934859345104 
-0.01800666978329294 
0.01118024174940163 
-0.006439521033469196 
-0.02102603450536598 
-0.008459679088410985 
0.004613332912194374 
0.005991706481662909 
-0.008874439178847891 
-0.005394941259873011 
-0.001600016838851805 
0.0001199737070145245 
0.0006892459872632818 
5.176222006456571e-05 
0.0004653982226749137 
0.03046060660237061 
0.007815756958961403 
0.01033072162691869 
0.001823660783544685 
0.01477894874547634 
0.001101190332457102 
-0.002988949176516891 
-0.004760855754336353 
-0.005855464833272209 
-0.01614172114247416 
-0.002049764035716337 
-1.432144363470528e-05 
-0.001928144442829218 
0.002241787895099221 
0 
0.0001198098573753749 
-0.004048451817103936 
0.0008550186649054218 
0.0006022104271167856 
-0.001697259931148605 
-0.003983688481811635 
0.001322875445916756 
0.01099488791292806 
-0.002956546881857164 
-0.0006914914289687772 
0.00469328128802576 
0.004143356682766199 
-0.01182607285764985 
-0.01217199995357467 
0.02642720282991058 
-0.0007051473840440187 
0.0007651673250943677 
0.005711199881519551 
-0.003581185066194472 
-0.01201783094081611 
0.004004848784347834 
0.01074702345177702 
0.002583437518395284 
0.00161570008908847 
-0.02019391618088948 
0.01750928130254853 
-0.01317742114421382 
0.005668168782525392 
0.006846299894563534 
0.0165653983440109 
0.001320959412383824 
0.009364470302899669 
-0.00532566585025764 
-0.02409227959576943 
-0.006971147587134349 
-0.003345630413616956 
-0.01266358274986812 
0.01305901906773335 
-0.02771365333627091 
-0.002258868029052513 
0.002334429780136967 
0.005595207859013566 
-0.009634277165645829 
0.0002278488161268198 
-0.0002567873998665422 
-0.001410488988234043 
-0.01047110289507784 
-0.0002169010040772727 
-0.001113283508567562 
0.02100372096171409 
0.00698578554283572 
-0.02182043332840633 
0.01350648077029313 
-0.001131895043495247 
-0.006341849842888356 
0.006636156244411562 
-0.007326255755237101 
0.01911093075891424 
-0.01439972174767246 
-0.004211359713232716 
-0.009251000722278739 
0.01425218005635121 
0.01402891401294488 
0.001922455751919208 
-0.0004730990305942467 
-0.004309443466212017 
-0.01204734303133233 
-0.01533264568088989 
0.004074534578974636 
-0.01193779446189505 
0.0047081141908022 
0.01680999513302809 
-0.01389402805816019 
-0.01124796719130976 
-0.02116437381223276 
-0.02522096556494765 
0.006296244806869389 
-3.928005232113445e-05 
-0.003147182684312073 
-0.0003857467043626928 
-0.002291468725629684 
-0.002983767334902658 
0.003938359891414886 
-0.01244343146439256 
-0.01696702014477528 
-0.03331258995386566 
-0.01905117987974047 
-0.0086940544270397 
-0.02048407766090741 
0.005223754962231862 
-0.005360303794238029 
0.02475008420833339 
0.0024693751051199 
0.000770968361921144 
0.005274806590682843 
-0.01008220434886483 
-0.0005797912574681119 
0.006117843201661604 
0.01720070716664581 
-0.006548647445162618 
-0.002728990646477692 
0.01500199634133901 
-0.005778406298061043 
-0.01147994141587731 
-0.0004210056216261016 
-0.0005178599336761777 
0.004995430342958304 
-0.006342306085131042 
-0.01413084199276797 
-0.00991273996026143 
-0.005873979962234568 
0.01273009112177705 
0.007221642354912517 
-0.006400160284974115 
0.01054828555687698 
0.0003573291575789572 
0.00686878885391361 
0.003260834603374262 
0.004436022325898408 
0.01677891789792316 
-0.00260721029786724 
-0.004921180867256192 
0.005447136923233856 
-0.01163683347652752 
-0.01174264828717994 
-0.004534169141522799 
-0.0103225669810866 
0.00260706378463846 
0.003013412137178956 
0.01382780962711582 
-0.005905898044686498 
-0.01392331595024539 
-0.007501195784893438 
-0.005327701391321258 
-0.0035805211962236 
-0.003139265990780217 
-0.007569436862721342 
-0.0006329430216973585 
-0.004585036253939939 
-0.007556982714190657 
-0.001864787729614021 
0.003969582815738863 
0.01371787890792281 
0.002538945524183426 
-0.003142144626915487 
0.01571035860870395 
-0.005778358359252857 
-0.0006689391143674801 
0.004080176521068539 
0.00842679586821931 
0.001869842483941753 
-0.002398711057201539 
0.004904391346622374 
0.02294991088657824 
-0.009164961411380958 
-0.004917722956510364 
0.006716348215993912 
0.02034134553833563 
-0.0004175771430161218 
-0.004549620428609878 
-0.01893453859572389 
-0.0001206657674739423 
0.001783749169353273 
-0.0009800457971336405 
0.01647623312779192 
0.01164561126298959 
-0.01690359669193573 
0.01903650744481567 
0.002793945937850818 
-0.0142514011209123 
-0.006023539549692375 
-0.001277640884123921 
0.02303086338923735 
0.02552430316350165 
0.003127653869212805 
0.007880141224999674 
0.007060012800850591 
-0.01475060027757185 
-0.01076335658058504 
-0.006371866791948383 
-0.005159483617143888 
0.0131087372749477 
0.01005908106252343 
0.008835911443336196 
0.02056242993318147 
-0.03024801394319979 
0.01437004673405564 
0.006295605793239611 
0.02010478911758148 
-0.001114684548656247 
-0.005797010935050825 
0.001568786928488119 
0.001594080634017704 
-0.005356710908568065 
0.02284785651281741 
0.003236310246656293 
0.008015332929133326 
0.003188903756012611 
0.01932367892917248 
-0.02056057409263166 
0.00688424299637328 
-0.02344902753397297 
-0.004477338610142682 
-0.00569205001993035 
0.00141013896416961 
-0.007416200573799095 
0.02243100914715828 
-0.005825665178395121 
0.005513293618737518 
-0.01046100445014705 
-0.01966777180450475 
0.008129714499249201 
-0.0005613810431586011 
-0.007047437285066333 
-0.001090752256847572 
-0.00039826957856169 
-0.007312098722192025 
-0.02565838022542826 
-0.02741189290317201 
0.004271923176354219 
0.006537377294254537 
0.02025828703404869 
0.03325887644166493 
-0.004473748180811104 
0.00379749110714222 
0.007203172565141757 
0.008130779504157354 
0.01186587476873097 
0.007166796227126273 
-0.0008058367190493603 
0.007153586099950751 
-0.00949274463156558 
0.002846396996847886 
0.002131802772508196 
0.01676953558829091 
0.003174508432181201 
0.01280033285975475 
-0.0004933374724939969 
-0.004947719141899036 
-0.003280242559789331 
0.0008738779482936256 
-0.01343749682616368 
0.00956245273932475 
-0.008767970227128816 
0.001359358316898495 
-0.01057639052046748 
-6.211782671606136e-05 
-0.002780713353431069 
-0.00595936711179174 
0.004765552724944635 
-0.02301709057462502 
0.007210080118521761 
-0.0002156788661500128 
0.001003954566709663 
0.004559350663892891 
0 
0.0006269745028619866 
0.004395837240511364 
0.002232072948684879 
-0.001260716708172639 
-0.0005192098814138628 
0.01411704140766241 
-0.001047797880187009 
0.0007123231481825302 
-0.003854699363256387 
-0.00697416917732049 
0.007482422904097907 
0.002171616628953569 
0.009219117281470486 
0.006572149320101852 
0.003591798888308937 
-0.003886598112431691 
0.001804147394725811 
-0.001446288049783992 
-0.006692298168164365 
-0.006702256940302065 
0.008521207133256953 
-0.02282533853745139 
0.001405431909608151 
0.002084928968742637 
-0.003484825549595003 
-0.01296461449991812 
-0.01582897291284292 
-0.002284488727728181 
0.03709126359494146 
-0.02092131830516049 
0.02390560778727974 
-0.004225400917927655 
0.0008657303192660213 
0.0001170774862509324 
0.007931248755934997 
0.004844793194956567 
-0.00424656207849282 
0.0002405001088180569 
-0.01173397167245868 
0.01706326720145199 
0.000695151629575718 
0.009177544356058442 
-0.001272134261588021 
0.004600173991174837 
0.01543428787507287 
0.00431486256788855 
0.01983339345836212 
0.005684945551736605 
0.005966972036477526 
-0.0008313527838847094 
0.01641299092879581 
-0.01251830655458983 
-0.01460864042502732 
-0.02042479131015274 
-0.02013910804949135 
0.01522027926247752 
0.02367875694246457 
0.01940041331322395 
0.02356654633352757 
0.01019070916031847 
-0.0238975710142061 
0.007136167445956697 
0.02477738535769381 
0.009457869870270063 
-0.0004161024129104198 
-0.006566351336976728 
-0.01936985730670088 
-0.004429056663284251 
0.00161747173502029 
-0.04065474566315546 
0.01196814185513373 
0.0194684279699198 
-0.005902358752035443 
0.001446437774484939 
0.00963543643132859 
-0.03175362556697219 
0.02553137836142133 
0.002284033204964783 
0.0004947589382444171 
0.009087651443002685 
0.008542172484216579 
-0.01736999130667368 
0.01629845911919837 
0.002222329911889364 
-0.008210052895060466 
0.01660617011500408 
-0.01215339068614825 
0.01978011203051257 
-0.00418187885656131 
0.01347704244618301 
-0.007907244769591227 
-0.02269183092347917 
0.003552791968533624 
0.009234508526157143 
0.002259496321108962 
-0.01666625208326219 
-0.00540711849154367 
0.006982597361896551 
-0.009785884959709326 
-0.01085395497506888 
-0.002268803624409936 
0.007704602467185993 
-0.006845659022189798 
-0.006687572013071136 
-0.00327265793716838 
0.002599915406016549 
-0.003603876190429496 
-0.0001459214637431594 
-0.0092179610045458 
0.001329671609670943 
-0.009904124511361601 
-0.002862010705143644 
-0.006393489950499467 
-0.009624647314100591 
-0.008235117905439369 
-0.003254648735122459 
-0.01470878601270112 
0.01632053283145039 
-0.02354871719445407 
0.004154914793580233 
0.003409079916888054 
0.01291173126480945 
0.001097669954253241 
-0.007539487786204187 
-0.01061760110966877 
0.01870169225515862 
-0.006315704048172895 
-0.003588245243078605 
0.0107216369955561 
-0.01113242044976991 
-0.003654138603026964 
-0.02310077815420962 
-0.01300278608168903 
-0.01245389020201934 
-0.02292617173224162 
-0.003088422188514864 
-0.0127005726861209 
0.01228681448573658 
-0.002006433115113627 
-0.01329076764074338 
-0.01929465635374122 
-0.0190558693655626 
0.02380848079725151 
0.003749663179593387 
0.005638273876852897 
0.00420810410720916 
-0.01345666892439038 
-0.01548416259993537 
0.004694450441485523 
0.002907633710779718 
-0.0002944758837970383 
-0.002369435935887812 
0.009528000670357376 
0.008541244486858966 
0.01083412361940815 
-0.01848450799125791 
0.004557625980904944 
-0.008655163741412591 
0.01298597678240161 
0.000797912362969028 
0.004790274228396476 
0.01333392983002356 
0.01025589623222867 
0.002662398866136532 
-0.01782304010987011 
0.008718793127126116 
-0.001004262622935275 
0.01952175068158472 
-0.01479611255736051 
0.01616642963448997 
0.008744756733611629 
-0.002796267415685456 
0.005293067633020957 
0.002802885604303765 
-0.01619878521249024 
0.01285925484234981 
-0.003942581914878006 
-0.0002206246653985594 
-0.02615736590870087 
-0.002234086372297367 
0.01833746756954142 
0.02551777661262745 
0.003571708775694474 
0.01907958901651589 
-0.01800563765101868 
-0.004072370374637956 
0.03240771506261334 
0.002076534977915843 
0.006101755679757966 
0.001016701890313605 
-0.006743919081495058 
-0.006118115694079461 
0.0008905168332288212 
0.003968699148482203 
0.01023123512300101 
-0.01261880578466163 
-0.008078577444817509 
-0.005417144115725565 
-0.02087740747048808 
-0.001904810319867356 
-0.007974179625036553 
-0.01443584058080684 
0.01476850095326041 
0.007208559475978231 
0.01396821809202914 
-0.009264676647920333 
-0.005790605900431609 
-0.01527986447261755 
-0.00302008269607299 
0.008582591985435189 
-0.02026710040275368 
-0.004385251626142866 
0.001601204741245134 
-0.006656147593712094 
0.001390868110636683 
0.0114987184423216 
0.01735750081486247 
0.01368584195297314 
-0.01575385635953584 
0.007425269093617103 
0.02781926269716237 
0.00729492306464334 
0.01472847756964203 
-0.0007878996627176458 
0.004490045453801671 
-0.0003461733195901968 
-0.0004063514702004408 
-0.007990259752825375 
0.008751087779301508 
-0.01516496484391433 
-0.003008905728171545 
0.007845985040088231 
-0.004539045814109851 
-0.0007412714734149024 
-0.004326543236929673 
-0.0004973282489829762 
0.01012074886128 
-0.002323523731378925 
0.006380180765588312 
-0.0007203972668006504 
0.001699300915559436 
-0.007756868627453793 
-0.02539029306294471 
0.01340141484278356 
0.003041828281770209 
0.0003168067717068549 
0.009424882859110299 
-0.001497618583424555 
-0.008217785840803835 
-0.001351751321527211 
-0.01919649091040488 
0.003397574009112041 
0.004137721722714348 
-0.00296477377115611 
0.006616556891234316 
0 
7.109144581004159e-05 
0.001240672535415984 
-0.000666221723573462 
-0.002655392409148815 
0.0002729192665793331 
-0.005657123038891466 
0.000872690365302113 
-0.000823992750102725 
0.00016639422598603 
-0.0001516918352471785 
0.01165311415811868 
-0.009366673149450215 
0.006169708530441562 
-0.02288410930769476 
-0.03374549578857362 
0.001601988232878318 
0.0016799662002887 
0.005419609161416393 
-0.003723440899683908 
0.007602582362971453 
-0.002442023797820165 
0.01066060401606297 
-0.0007644640212424001 
-0.003266931572289523 
0.002971194145487674 
-0.003627583085048881 
-0.002957862804357482 
-0.001216557706734992 
-0.01558291722075133 
0.006527649177579234 
-0.001882421702729557 
0.001896308792856222 
0.000542455291533581 
-0.008421399746403831 
0.003974027436242413 
0.02538358377659809 
0.01439019129010279 
0.03821881122737064 
0.01718744468709714 
-0.01051510748031413 
-0.01133545693020237 
0.007282453390716673 
0.0005097741276910851 
0.00403185783488799 
0.00789900952668884 
-0.004106945116275985 
-0.01277140167329805 
-0.001445436263207607 
0.01490931213377529 
-0.01266439859272693 
0.01252323209137303 
-0.007371223533850642 
-0.0214523217662043 
-0.002423968150185758 
-0.003981340952437152 
0.01676738443330837 
0.01602680109206341 
0.02670235806723862 
-0.01568427090206461 
0.02182767983784475 
-0.01818955084729661 
0.0009551619787817979 
-0.01743011424136112 
-0.003626293166368191 
0.0004531565651619577 
-0.00352516992434972 
-0.01891867108640167 
-0.001092258240452639 
0.009761716563327749 
0.02066964521304917 
-0.005160606221827162 
0.004836892917537511 
0.01784699369295501 
0.001345755072317319 
0.001229258361827817 
0.0008095205799267933 
-0.006756473306830988 
0.01089907739646341 
0.008784098720289369 
0.02543362058881023 
-0.007221279991745128 
-0.01141394844025557 
0.01549663651561758 
-0.007334124717607317 
0.007471613485185182 
0.01242627813982421 
-0.01918788132059597 
0.002151526860183354 
-0.01615315043582548 
-0.009278833685946657 
-0.005620694932555507 
0.003345736701835663 
-0.002841646074633602 
-0.02075419417065282 
0.008955855480034551 
-0.001145485931486418 
-0.007374301052830073 
-0.03248962867084836 
-0.03033555928634273 
-0.007313320162981373 
-0.02799643513293453 
-0.02028819406150863 
-0.01851200132418465 
-0.004276932329023739 
-0.0006901116843016891 
-0.001898888946669115 
-0.01207601955735644 
-0.006232367239568219 
0.01214194960358804 
0.002814996001361155 
-0.007215983294074909 
-0.002318967403032468 
0.009134690511047993 
0.008721474259219554 
0.01499397638228137 
-0.007866073410949224 
0.0001795961906052571 
-0.01058831737219995 
0.01217201027784561 
-0.0003245818397116747 
0.007072159342085389 
0.008381500752547262 
0.02571701160829433 
0.01870194149831262 
0.007418876224818828 
0.003133664271859074 
0.01187183778621098 
-0.005724322818573691 
0.008658687073471911 
0.02595710708568352 
-0.008771257974774951 
-0.0244605516852174 
0.01243366996182907 
-0.0003733777335303251 
-0.0142550750205429 
0.004820088371037579 
0.01544893216239714 
0.01660785863397775 
0.01885382860500589 
0.002256141998685787 
0.01489095806425982 
-0.01528244750415107 
0.008018334662854277 
-0.002541826613326772 
-0.01397968722889346 
-0.01869418323686272 
0.002627045708092001 
0.002259885822811535 
0.004734979318430609 
0.01086311255637936 
0.002828481622970921 
-0.0006186423672258577 
-0.02242190640226648 
0.006547394294687467 
0.01214105366422479 
0.002008024596566245 
0.02596247028972321 
-0.008738140084415619 
0.022909485823589 
-0.0002619041609829089 
0.008749276951861722 
0.03541587363554576 
-0.01303441520501717 
0.003597412956986914 
0.01061217554398357 
0.03143750876599392 
-0.007422960666952336 
-0.009065499999195139 
-0.01272994202740748 
0.002313004561704009 
-0.04941950818914688 
0.003778473569157618 
-0.004500263875022973 
0.0199239023113328 
0.01854856249890382 
0.009242597246689308 
0.008120160552765975 
0.01309377036980408 
0.007698363654090677 
-0.02792324749379326 
0.02514098729224639 
0.002749134009073622 
-0.008382283256846255 
-0.01426606373718583 
0.00624937054985675 
-0.008346173470248134 
-0.01584464203835568 
-0.009784415186034129 
-0.0125215702505813 
-0.007197695705008988 
-0.01230271958767582 
-0.0009729833251681892 
0.001473215418890468 
0.006967166512399102 
-0.01095492708522003 
-0.01446205926927715 
0.01445956491482709 
-0.003805527838338314 
-0.02235491914052395 
0.0009891941253515448 
0.01415240719861153 
-0.02282238160432418 
-0.0100103167148717 
-0.01527580505886129 
-0.009850382790670482 
-0.03064219015879846 
0.01017196379653607 
0.0002628530193864939 
-0.01191743421602096 
-0.01155360279703491 
-0.00390924357694623 
0.0007515395427931877 
0.001538598828099347 
0.01672384583939349 
-0.008249034752537646 
-0.01001228829032128 
-0.005152706350009786 
0.002300956438403597 
0.02590402192603522 
-0.004407226382831387 
-0.01160838621420915 
-0.002070548639143204 
0.001156604553561724 
0.004091729992019543 
-0.001760592852685209 
-0.01659939366566277 
-0.008337140283453491 
0.008402937846468129 
-0.00411762189224825 
0.01108401087025375 
-0.007400056966819691 
0.002054679727238628 
0.005704084365617601 
0.007518696952648818 
-0.003444130958332171 
-0.01084652677982152 
0.01989576168669159 
-0.00639931795248295 
-0.01583919470769107 
0.00221146710000983 
0.001836833521568392 
0.02376959486500203 
0.005257396934556504 
-0.004111012241136336 
-0.002538227894439747 
0.002153384710209018 
-0.01981809105149976 
0.0009939409585235264 
-0.0004852968578406429 
0.0009073740161293976 
0.004359422387664772 
-0.003621289866654846 
-0.01507697912559992 
-0.004106062540965949 
0.002912730120843352 
0 
-3.600584054054196e-05 
-0.006458431716816046 
0.001898130224743254 
-0.002780000416087482 
-0.002908770506873213 
0.003676320299039925 
0.005242179578817167 
0.007274491104208728 
-0.005463395107579419 
0.001478423524493471 
0.00808458186953066 
0.003160111703433078 
-0.02590780670982054 
-0.006667928910303295 
0.0113788230414756 
-0.003562916083182099 
-0.002106974615746513 
-0.005393878118045163 
0.008360397756627145 
-0.005226058716923711 
0.0001329533920877864 
0.00830132799642529 
0.01035398032772954 
-0.001004690147990103 
-0.01020385832941211 
0.004723300400251096 
-0.002305354885673701 
0.02170343045999131 
-0.003815739464184838 
0.002352933021332406 
-0.007764027017868017 
-0.003158459397718002 
-0.001083551444292501 
-0.008419894875398862 
0.007355685350557054 
0.007824906899465791 
0.005135830977140128 
0.01357593899874866 
-0.01074903442046562 
-0.008883443508867812 
0.007294004444639909 
0.003234576858519299 
-0.01302529033033031 
0.001386784319388626 
-0.003602946928813936 
-0.01100654162453679 
-0.0007539690718226809 
-0.002271853803196828 
-0.000115949785084213 
0.01024832778856578 
-0.005440496647521336 
-0.01009149211972748 
0.001050750044835969 
0.02597993331507178 
0.007838888462327366 
-0.004547372994279051 
0.02273160447536733 
0.002648761654532812 
0.0005993890322865289 
-0.01604055493573968 
-0.02413110689293488 
0.01747249799906922 
-0.01180033140427397 
0.0001243384488228984 
0.002359445227288072 
0.006366636766815733 
-0.00296859722644479 
0.006160192511728633 
-0.001086050536550564 
0.006899460590288946 
-0.01466961093507755 
0.008049003109585149 
-0.004577104544602827 
-0.002500081677969378 
-0.02821178843680368 
-0.004820744283206072 
-0.003542931368509924 
0.0006607929623808818 
-0.006288032474873456 
0.001798494981022442 
0.00720558235830289 
-0.01093050550221647 
-0.00450472428415117 
-0.002747110189604939 
-0.007370487546153858 
-0.02158164551013018 
0.006884051905631812 
-0.009100157853834678 
-0.002957917399750456 
-0.00910099236588548 
-0.005969418623555179 
0.01928560208178876 
0.00546924025303398 
-0.003079742995796287 
0.01575352654949948 
0.0233095206590916 
-0.006297433175327338 
-0.01342977713814309 
0.004784000702244718 
0.008161875949280977 
-0.003336063546733113 
0.01021191332297828 
0.007494637990196868 
-0.01789345731027741 
-0.004555236173225424 
0.0002678374064605418 
-0.02276354627644407 
-0.004030031273647529 
0.01832302178196421 
0.0002922485465618293 
0.002301861636690367 
0.0003574244941256567 
0.004796308477487346 
-0.003054652055698131 
0.04384506413378036 
0.004350303212993844 
0.01861391401207793 
-0.004051119031070041 
-0.002936901108877511 
-0.02043341851370304 
0.003346963887654944 
0.01007604129989528 
0.01220197393829119 
0.004147530855727028 
-0.00785492881898874 
-0.0001841376340818503 
-0.01431364462537665 
0.0002811028939882325 
0.006084142716092095 
-0.003406067034520091 
0.003135324883431805 
-0.02089120212422487 
0.02321082921590887 
0.004361590022095465 
0.001121211306137619 
-0.01664118085612104 
-0.02503462090271121 
-0.002207080595272329 
-0.01457149737356005 
-0.0107214967358223 
-0.004367177097343552 
-0.003619831040337684 
0.009794864769426394 
-0.01696100748852051 
0.0009961324023331657 
0.02709267199232191 
0.0006023716090394905 
-0.01100243188824675 
0.006261700748624721 
0.01713711414355226 
0.00234437236699681 
0.001949520500321958 
0.03189025003854503 
-0.02361621606905648 
-0.003766055707449745 
-0.01620398371174368 
0.01152332418807517 
0.02301188321658902 
5.553047549613058e-05 
-0.00176465674267232 
0.01195703344980324 
0.008757989729581838 
-0.01930549735066937 
0.006029012962432386 
0.01649752818346345 
0.01748715887173633 
-0.004171983163184612 
0.002353726680873587 
-0.01773513862067162 
-0.001101748881139552 
-0.002840384773902462 
0.02010056133312838 
0.01507576155633979 
-0.01619272593610862 
-0.003614751629238936 
-0.002546178045026298 
-0.01290439219527354 
-0.009172090109472224 
-0.008524716927153248 
0.001622811735093032 
0.001623519228488592 
0.009373986196880915 
0.01506487135876149 
0.006023947691537703 
0.004998600090566302 
-0.004358599644565701 
-0.003775263225109907 
-0.01191963610997788 
0.0253047268120139 
0.0116481316897916 
-0.0006672289507868384 
0.003047917514523401 
-0.001843911454392619 
-0.004306692025951419 
-0.004552840998445305 
0.02249733308114715 
0.008004049325313239 
-0.003916114853308224 
0.02132726809990788 
-0.00424782859120575 
-0.003615756410708575 
0.0125549518121737 
-0.01765166765870006 
0.004802437589193989 
-0.01851940359265609 
0.01221318575063595 
0.01064337710769507 
0.005081730318297838 
0.002295567268938108 
0.001877171064209263 
-0.004332783663916797 
0.0003544952767001012 
2.315968417855626e-05 
0.01280589789501108 
0.0008320586383960241 
-0.008798191309654388 
0.02457762444340896 
-0.02104390902977425 
0.01965009949195123 
0.01996698058969427 
-0.009370464554129883 
0.00581103920181562 
0.01432866748336317 
-0.0015193661077759 
0.004403571148118049 
0.01780337548912031 
-0.02051053041610968 
-0.01072878898694461 
0.004311445337746554 
0.01395980148404001 
0.02366649312964482 
-0.01032040074748842 
6.123330527159361e-05 
